966 32
15 -0.34516641 -1.3779442 -0.40956715 0.42105287 0.26121414 -1.3795711 -0.17531362 0.5639219 0.16627681 0.6478643 0.60788846 -0.33489534 0.4709442 0.45141172 0.15274185 0.40603536 0.66861194 0.19737646 -0.21210212 0.4653766 -0.03484232 0.9392807 0.645317 -0.5583487 0.107672915 0.052798018 -0.089465365 0.20262778 0.81092864 -0.4481217 -0.4943398 0.8244147
644 -0.36465007 -1.4190745 -0.6448036 0.32485378 0.39491844 -1.0033064 -0.2680233 0.2283963 0.19430166 0.81416726 0.56012225 -0.51266384 0.3204437 0.046663884 0.10971204 0.4080403 0.60851824 0.36633343 0.03250187 0.50118136 0.462084 0.9206662 0.6884122 -0.71342194 0.25279453 0.02953128 0.07324905 0.25534016 0.9159534 -0.5901561 -1.1369509 0.5293574
82 0.32477835 -1.7021468 -0.6598467 0.20029196 0.5575047 -0.60894775 -0.0854633 0.7607945 0.6550888 -0.06005293 0.727934 -0.85016614 0.4053063 0.25459602 0.13721962 0.19130059 1.3319582 -0.19170603 0.35631993 1.0384542 0.105067134 0.60546297 0.24330094 -0.09548203 -0.45048514 0.20631354 0.040781848 -0.06907876 0.19048794 -0.3341113 0.35525665 0.478397
468 -0.1530732 -1.2310045 -0.48896492 0.5241976 0.21688339 -1.2319555 -0.3045409 0.573255 0.39527652 0.69149846 0.9798208 -0.08330472 0.2611082 -0.022846198 -0.1376545 0.37560007 0.49824557 0.34868273 0.22626889 0.10609781 0.5487082 0.7878339 0.50076854 -0.95704883 0.31480125 0.14332113 0.49250156 0.17095271 0.9981937 -0.48613736 -0.80628985 0.7567394
399 -0.36027545 -1.5011891 -0.627471 0.092859045 0.44357234 -1.3057058 -0.2073748 0.48419124 0.16879573 0.8360718 0.7660985 -0.27488518 0.33603343 0.33447975 -0.15102135 -0.10904292 0.5467438 0.006241524 -0.15230018 0.74075454 -0.067745365 0.47585803 0.16678397 -0.588689 0.02799465 -0.08243373 0.16955954 0.7729768 0.8488547 -0.4283593 -0.6944595 0.73481953
555 -0.35744742 -1.3392519 -0.5620908 0.20435667 0.40008172 -0.9295441 -0.04264247 0.70689404 0.27099612 0.776203 0.62787783 -0.70348334 0.06221854 0.29583314 -0.17221849 -0.03472242 0.21116789 0.2323303 0.08147803 0.2272838 0.4250077 0.7408478 0.68289894 -0.90958756 0.46183854 0.29471296 0.17792904 0.3693834 1.088027 -0.8111505 -0.5162332 0.69870794
838 -0.28782693 -1.5394925 -0.49477234 0.27793932 0.24625802 -1.4160191 -0.25842914 0.49654377 0.23456004 0.65352404 0.6314733 -0.51441765 0.2965653 0.19610773 0.010120706 -0.034834553 0.3009556 0.31639317 -0.10321713 0.52746403 0.37583268 0.7754355 0.5751941 -0.7472417 0.19912851 0.18973327 0.04137311 0.13852398 0.86489224 -0.65932643 -0.6626164 0.59566635
68 -0.6639144 -1.112455 0.30010363 1.0897323 0.06703623 0.49270263 0.009055917 -0.6023921 -0.5118964 0.816961 0.6303043 -0.19936876 -0.42436686 1.2357823 -0.81600213 -0.08693745 0.64805305 -0.6263281 0.51014304 0.14192246 0.44116655 1.410004 -0.03586268 -0.580507 0.25837857 0.71478254 0.23138402 -0.19107111 -0.40662658 -1.38995 -0.29310068 -0.82229704
905 -0.59660906 -1.166947 -0.77624005 1.0436349 -0.3928122 0.65386623 -0.07423381 0.056115318 -0.16040269 1.4895186 -0.18757032 0.781069 -1.0484518 0.34327337 -0.069682755 0.5173389 0.5704483 -1.3390588 -0.003882694 1.0207582 1.4485911 0.91705024 -0.6552139 -0.6546489 -0.19606528 -0.7281471 0.27123892 0.24649864 0.58599806 -0.44602498 -0.56486994 0.2799293
200 -0.6784717 -1.4315459 -0.41295108 0.35739145 0.16773224 -0.83878577 -0.14708032 0.6199709 0.1481231 0.5908024 1.1251537 -0.57900953 0.2799451 0.43325385 -0.06621345 -0.023480099 0.48731962 0.36857587 0.41091883 0.6060855 0.16027954 1.1829019 0.7525083 -0.7782906 0.2484527 0.21223974 0.09977589 0.07319802 0.7289442 -0.31662595 -0.7535712 0.87709004
65 0.07460083 -1.2344279 0.5606313 1.1141849 0.14641215 0.25918642 0.12560454 -0.5231965 -0.33774787 0.39997613 0.64633656 -0.16617747 -0.45532444 0.9291046 -1.0869778 0.0891711 0.85953474 -0.8681324 0.41585442 0.16728005 0.13273221 1.5716953 -0.0013201111 -0.65559614 0.16054305 0.7860897 -0.07396424 -0.04626227 -0.7253586 -1.4465046 -0.18007475 -0.47874314
470 -0.45084628 -1.2490433 -0.45693976 0.27013752 0.45990768 -1.1454638 0.33471006 0.34540188 -0.0483644 0.6514989 1.3310696 -0.50988567 0.1474777 0.11192628 -0.073521115 0.40157074 0.44185928 0.32473075 0.08894748 0.04288002 0.64814585 1.0993836 0.65478426 -0.8854338 0.24691607 0.36397398 0.25738257 0.18181817 0.6211237 -0.24006514 -0.5249118 0.8001468
893 -0.54716074 -1.2980251 -0.5961128 0.20248623 0.31672162 -1.5143623 -0.013516061 0.20660332 -0.020110792 0.694486 0.84524554 -0.4799241 0.2693427 -0.13049917 -0.16324718 0.30429122 0.4681163 0.20911539 0.17530388 0.29308096 0.36541268 1.2269155 0.40621114 -0.6383945 -0.010978777 0.08332419 -0.16345881 0.47343966 0.7819897 -0.4798644 -0.70152956 0.76331633
820 -0.15593433 -1.6251897 -0.34201178 -0.13121636 0.25348857 -1.1327938 -0.022598105 0.5263365 0.7108777 0.57351357 0.7335204 -0.99091595 0.5464514 0.3765631 0.30574486 0.05790183 0.610182 -0.27625975 0.20433281 0.64972764 0.34586692 0.6891948 0.5174183 -0.5722335 -0.12340409 -0.0041520395 -0.26333833 0.30608127 0.70678467 -0.6022345 -0.04156996 0.66936845
52 0.12346602 -1.9607189 -0.7175476 0.042998966 0.34229118 -0.6900587 -0.42511773 0.79462534 0.5953649 0.032463875 0.35825047 -1.0469488 0.45139074 0.27589604 0.037711404 -0.23948711 1.0566509 -0.07083967 0.3947159 0.8904615 0.47304344 0.6910951 -0.07333818 -0.26226953 -0.4122814 0.35693255 -0.13771819 -0.11569135 0.24723263 -0.05038764 0.25847542 0.4056497
410 -0.41234344 -1.6616975 -0.3894147 0.09791087 0.31272966 -1.3657426 -0.027504722 0.56911325 0.20520772 0.61858857 0.7783055 -0.48099697 0.4680631 0.43802613 0.039151642 0.23406677 0.5642193 -0.101618536 0.12114778 0.3850435 0.20435613 0.90207005 0.7833345 -0.5912599 0.12105376 -0.033028793 0.16476941 0.46556267 0.8104728 -0.47385404 -0.49193975 0.47365487
6 -0.6462351 -1.2251651 -0.40918258 0.21175998 0.26011652 -1.3932558 -0.0963408 0.6635752 0.072107576 0.66789347 0.95940244 -0.46674314 0.09021999 0.3411122 -0.20523593 0.43965304 0.42992276 0.2380199 0.11451372 0.33744678 0.0589908 0.9187355 0.44552693 -0.8281928 0.20181434 0.08175265 -0.035881218 0.0388923 0.8990055 -0.8355563 -0.7908316 0.73688436
51 -0.37618613 -0.779623 -0.7491584 1.4881247 -0.19315153 0.24590296 -0.23932818 0.008287699 0.2168824 1.2623479 -0.31786236 0.77520233 -0.4272519 -0.08392105 -0.33964953 0.6883882 0.7744829 -1.4411805 0.5053774 0.79585356 1.6735379 0.9986051 -0.7140198 -0.7518522 -0.40389383 -0.83152884 -0.038788863 0.42535722 0.57444984 -0.5233806 -0.39183047 0.45238248
864 0.66894627 -1.2115194 -1.3837006 1.5124897 0.5530519 -0.48511255 -0.6544114 -0.08442501 -1.0811651 0.13296086 -0.631692 0.120665334 -0.98790795 -0.089583114 -0.06093688 1.1031077 0.6323481 0.29662785 0.2169752 0.16996402 0.72171116 1.4880786 0.14971672 -0.59564036 -0.3538217 -0.09462077 -0.094706714 -0.7673465 0.16088992 -1.0730121 1.0117329 -0.017593477
282 -0.47482494 -1.1429914 -0.3976433 0.2555984 0.12056957 -1.5178806 -0.02600857 0.7315303 0.04757947 0.52057844 0.9958179 -0.5909618 0.24184376 -0.02536242 -0.39933917 0.39436617 0.3818928 0.11375688 0.16981986 0.23488574 0.34028733 1.1700363 0.47479615 -0.80823356 0.1850552 0.23216842 -0.13581844 0.46601942 0.8856654 -0.70791084 -0.7204554 0.98575205
640 -0.18528695 -1.0246336 0.62961894 1.124706 0.3231569 0.4992457 -0.23501365 -0.71195614 -0.43257448 0.5961618 0.64481026 -0.44733298 -0.17597991 1.238209 -1.0112178 -0.25987086 0.74969167 -0.809801 0.33525747 0.22636002 0.46900752 1.341919 -0.05855998 -0.27046806 0.2408442 0.74119973 -0.15049918 -0.31380793 -0.3842664 -1.6723244 -0.074191295 -0.09819101
649 -0.0896962 -0.7156796 0.1551944 1.0022327 1.0241524 -0.63292074 -1.1995189 1.2609887 -0.35403 0.6832524 -0.31208003 -0.2117545 -1.0205834 0.07350383 -0.81131595 0.35429463 0.07621239 -0.91376317 0.21551715 0.8886955 0.44637302 0.57618 -0.7087213 -0.5965799 0.50921625 0.10524892 0.325023 1.2447808 0.34841493 -1.6344658 1.4763659 0.4869853
483 -0.24213642 -1.1546668 0.65041417 1.1729081 0.12053891 0.1161786 -0.33604753 -0.60503316 -0.4682445 0.5180499 0.7315794 -0.075575806 -0.4745391 0.9475272 -1.1870651 -0.14306514 0.6828321 -0.7223524 0.54175013 0.06694829 0.30013913 1.6922758 -0.18376987 -0.43689868 0.32845184 0.7313141 -0.29668155 -0.13219126 -0.48822358 -1.5083705 -0.17674287 -0.1986115
193 -0.34168798 -1.7255206 -0.96773386 0.025562707 0.5464545 -0.39950845 -0.3821468 0.7801039 1.0288198 0.15053044 0.5431038 -0.6243512 0.70149696 0.23499693 -0.32777202 0.30158627 1.2730724 -0.35105622 0.31881392 0.8258205 0.35083684 0.30390283 -0.07211703 -0.40515116 0.019133966 0.2335305 0.2511524 -0.19126706 0.38580358 -0.54480636 0.084986076 0.65914935
463 -0.17104891 -0.9247485 0.007898742 1.0621551 0.857842 -0.7578867 -1.0694486 1.3438263 -0.1863411 0.4433493 -0.42574725 -0.48342463 -1.1699743 0.0957236 -0.9705519 0.3048583 -0.1103422 -1.1048715 0.17625847 1.1463585 0.5174423 0.3270113 -0.6312831 -0.7703428 0.23371433 0.30190292 0.29697236 1.0391548 -0.19882241 -1.721634 1.2281173 0.16922587
123 -0.253235 0.26106188 -0.51416695 1.0382993 0.29078636 0.30152377 -0.35324642 -0.5829023 -0.7556569 0.9604437 1.3863456 -0.54257417 0.6790574 1.3890766 0.08217101 0.29079625 0.8195414 -0.44588366 -0.039834343 0.67199016 0.10542586 1.7334757 -0.37404886 -0.15261067 0.23414414 0.42083073 0.6080386 -0.37111318 -0.21906802 -1.3481416 0.5290557 -0.50365835
402 0.18825755 -1.3899312 -0.64598346 0.22216555 0.39745694 -0.20307131 -0.1840392 0.41311985 0.43346876 -0.10579065 0.6461211 -1.227515 0.7001794 0.16530372 0.30300122 0.011591927 1.3002369 -0.2736811 0.64495915 1.2331696 0.777812 0.5876398 -0.039165143 -0.41924244 -0.36727712 0.042038977 -0.056863114 -0.14904363 0.2851196 -0.19792576 0.5357137 0.8314189
36 0.26608503 -1.272589 0.27618298 0.9375851 -1.3634905 -0.45614055 -1.7738955 0.109402634 -0.6129918 1.0741541 0.30578336 -1.0746446 -0.67892593 0.24964944 -0.21124466 0.4311196 0.17964034 -0.8382283 0.16433422 0.40837502 0.95313567 1.2781291 -0.04444868 -0.23912701 0.5306396 -0.75535285 -0.27562562 0.55387336 -0.7153244 -0.23249266 0.37043887 1.3319598
258 -0.35389605 -1.4241843 -0.34263265 0.08571677 0.38099688 -1.3792384 -0.1861868 0.666266 0.079970784 0.8455831 0.90123284 -0.54314417 0.1759941 0.12291858 -0.3212158 0.19430153 0.5840771 0.23733003 -0.039531227 0.312352 0.11611631 0.9122939 0.29619426 -0.9257483 0.14223756 0.13646573 -0.04917875 0.20743221 0.7845946 -0.74676186 -0.809924 0.98167866
911 0.450319 -0.77416956 -0.0030519017 0.23607829 1.3239163 -0.8950398 -0.3296689 0.35765857 0.35206118 0.33746234 1.6837125 -0.12724887 0.2755623 0.11424116 -1.13034 0.79776 0.6972616 -0.24941078 -0.48986053 0.9154605 0.4680638 1.2121987 0.34147835 -0.28600755 0.4256847 -0.5073317 0.19168171 -0.24257156 0.43019155 0.004455651 0.025935095 0.8016939
146 1.025082 -0.6090209 -0.70220554 1.8436818 -0.30865768 0.0021193174 -1.4305667 -1.1659969 -1.2296858 -0.053043816 0.40890887 -0.5368953 -0.57151693 1.1898041 0.6228309 0.21949069 1.3129616 -0.6277984 0.1541 1.4177223 0.71409905 0.41621128 -1.1638178 -0.64117956 0.21206035 -0.39726782 0.351748 1.0974342 -0.018694198 -0.6328694 -1.1397094 0.597468
69 -0.49325854 -0.5925961 -0.5945088 1.4514766 -0.17912477 0.074007876 -0.17514104 -0.015330254 0.16297835 1.1052349 -0.20625041 0.40194297 -0.7191722 -0.25780407 -0.18872988 0.9125806 0.694438 -1.5195109 0.5441525 0.835967 1.8402506 0.8940516 -0.65837383 -0.7918573 -0.3188693 -0.9339181 -0.11731738 0.3247936 0.5353199 -0.7381468 -0.57323855 0.3170691
238 -0.4929153 -0.9665987 -0.49983463 1.5338056 -0.17895427 0.34666967 -0.29861265 0.059603587 0.16281101 1.2896422 -0.1762681 0.898163 -0.5471765 0.0024447574 -0.26879218 0.7761313 0.55103546 -1.3271005 0.27492353 1.0314993 1.7063384 0.85635924 -0.73586595 -0.82483155 -0.43332162 -0.69011706 -0.037527166 0.3584286 0.44538105 -0.48436764 -0.5340837 0.28320056
520 -0.19573674 -1.3628879 -0.47157776 1.6521653 0.21127579 -1.0620934 -0.18131797 0.20739117 -0.90757275 1.4318665 -0.4909101 -0.22039102 -0.020799063 -0.1550019 0.86145043 1.7003727 1.2561395 -0.66238785 0.02753316 1.7978579 0.47526193 0.8075413 -0.24106589 0.44010013 0.75175136 0.37447056 1.1031961 0.58851653 -0.971248 -1.1688973 0.10054776 0.12365461
549 0.19223754 -1.5929445 -0.6850508 0.3101538 0.7733053 -0.41554493 -0.67661077 0.6946669 1.0882393 0.21285367 0.6444438 -0.5254968 0.6244155 0.27857044 -0.10225181 0.34277052 1.5899719 -0.33999816 0.37961856 0.5900041 0.4653912 0.3246895 0.16283116 0.06976083 -0.099309586 -0.27422392 0.25333124 -0.24957122 0.52710074 -0.41806284 -0.24817605 0.5727655
562 0.18010962 -1.5577172 -0.58838254 0.05043757 0.23643097 -0.19006574 -0.042906053 0.73555547 0.30933538 -0.0043185223 0.268316 -0.94752675 0.3494757 0.3650764 0.20117186 -0.08832915 1.2315996 -0.14824766 0.59705895 1.4445515 0.85572827 0.65842944 -0.2758622 -0.2780263 -0.32087576 0.026172569 -0.28095058 -0.18693614 0.52279043 -0.18078052 0.49968922 0.961807
585 0.5919594 -1.0032382 -1.3593495 1.1512973 0.71418166 -0.4808326 0.36015794 0.848578 -0.11767304 0.36622185 0.84525716 -0.32076758 -1.4148046 1.9116869 0.84993124 1.5114537 -0.24617825 -1.193506 -0.5322171 1.0382214 0.92393076 1.2384735 -0.20718357 -0.43786097 0.09213939 0.8959719 0.058914095 -0.19176693 0.22505862 -0.52408063 -1.2009684 -0.31215873
865 0.65240633 -1.4446572 -1.3614584 1.2012314 0.6373519 -0.42497522 -0.4987834 0.09278082 -0.9885574 0.2930497 -0.52293843 0.004154416 -1.0346743 -0.12189293 -0.48413646 1.2267115 0.71190417 0.2285555 0.31637308 0.1236851 0.73028517 1.5143396 0.017326955 -0.5803358 -0.490787 -0.23188365 -0.2508367 -0.8559782 -0.12573692 -0.7495005 0.8239869 -0.19919202
833 0.7441555 -1.772511 -0.96352416 -0.4330646 -0.02458977 0.008296053 -1.7847263 0.9409653 -0.91985345 1.7271146 0.44888252 -0.052728318 -0.70752394 1.4463581 0.024783656 1.3761793 0.84619033 -0.7268562 -0.07877853 0.018954204 -0.11501633 0.37220374 -0.35866088 -0.6592551 -0.44490755 0.8992804 0.2882216 -0.14924106 -0.794777 -1.7284684 0.09822303 -0.29905072
405 -0.30560797 -1.5222145 0.7088641 0.8207016 -0.038334742 -0.19996919 -0.49379376 -0.7793994 -0.51934505 -0.07640853 0.93041193 0.09229963 -0.53908515 1.133294 -0.9699752 -0.07024262 0.6724078 -0.8573722 0.75930387 0.15549581 0.54602134 1.1310385 -0.16799055 -0.50761545 0.5829734 0.94619334 -0.44482356 -0.095655225 -0.47118792 -1.4814171 -0.0507353 -0.25269938
412 -0.37826052 -1.3596268 -0.47778243 0.20473741 0.47059834 -0.26591566 -0.037649505 0.5083537 0.224511 -0.011605226 0.5617879 -1.0187247 0.4209294 0.3840914 0.06390313 0.085411295 0.8955926 -0.49770802 0.6497705 1.351087 0.59880626 0.49091473 -0.30226526 -0.84704816 -0.86826426 0.43226913 -0.2567302 -0.53969735 -0.03502004 0.12862203 0.3641764 0.79794014
595 -0.48596215 -1.5648034 -0.84876513 0.06106482 0.30977985 -0.22598019 -0.21994334 0.6244263 0.7505632 0.1567366 0.4751075 -0.52128065 0.76770556 0.61408526 -0.06918759 0.21503557 1.0493513 -0.5505104 0.6869024 0.99745345 0.48600274 0.40312943 -0.031284265 -0.90316087 -0.2236226 0.25558314 -0.21966806 -0.3736791 0.22599795 -0.28765497 0.72600424 0.6350998
683 -0.19561616 -1.5193102 -0.7097181 0.004228702 -0.19630668 -0.6167163 -0.21741615 0.6025887 0.20284723 -0.049700685 0.28906718 -0.81592643 0.5057656 0.2890086 0.20197403 0.14350784 1.1632444 -0.26705617 0.5103135 1.320067 0.34191087 0.3914535 -0.026843244 -0.57573396 -0.06822646 0.78307164 -0.059959717 -0.16862696 0.3956722 -0.14881013 0.5701106 0.94565225
816 0.93462586 -1.4709564 -0.40110785 1.0439543 -0.49968067 -0.42980587 -0.30292588 0.98891145 0.6175226 0.7448728 1.4505231 0.1835094 -0.49955738 0.20477639 0.6318155 0.40588677 1.2565156 -0.26854128 0.9827007 0.28441024 0.90887195 0.8554698 -0.86256075 0.6917813 0.05604229 0.4758882 0.38170582 0.022212295 0.3538429 0.027201891 0.7572517 0.15477437
732 0.2780406 -1.3448604 -0.33707193 -0.14004427 0.084561184 -0.31897882 -0.35607603 0.70145005 0.5005728 -0.06649852 0.60494477 -0.885547 0.22793835 0.38560626 0.54705626 0.09447774 1.0199811 -0.5023555 0.7254835 1.0167749 0.7090407 0.90042806 -0.3953061 -0.17690092 -0.74305034 0.4014105 0.030145466 -0.30437356 0.5701947 -0.3297317 0.46968788 1.0743401
273 0.31695044 -1.369212 -0.43297976 1.071238 -0.0014541096 -1.3064467 -0.071749575 0.6638312 0.35759103 1.1660613 1.2573881 0.18574448 0.25797826 -0.27025372 -0.47173735 0.46671006 1.2855457 0.3767174 0.72829473 -0.07477324 1.1005104 0.18481357 0.104283966 0.46456262 0.55263704 0.13211887 0.18289027 -0.13018057 0.5911242 -0.37489697 -0.42555878 0.4145435
298 -0.3812453 -0.86065036 -0.62072766 0.89840865 0.5851634 0.32900393 -0.49255303 0.98755735 -1.1071358 0.15556052 0.72345084 -1.6326759 0.65045476 0.62630117 0.21545972 0.86243236 0.28022966 -0.12517776 0.53616273 0.6861125 1.1016477 0.09373935 -0.5742211 -1.1208056 -0.6334395 0.99269485 -0.29259592 -0.1665784 -0.43088275 -0.24795099 0.18780881 1.0569211
849 -0.4771356 -1.4460832 -0.7715859 0.41357398 0.5464553 -1.1410774 -0.34891835 0.42778045 0.6101777 0.5918338 0.42866915 -0.5641294 0.45836532 0.7473422 0.06818706 0.12791628 0.88244283 -0.030759767 -0.26731828 0.5253589 -0.05335315 0.7008399 0.4845496 -0.2059728 0.11544968 -0.26828897 0.08466296 0.42833808 0.5324166 -0.5815674 -0.598863 1.3075383
130 0.49272954 -1.3234131 -0.41322336 0.40805757 0.94082254 -0.7833864 -0.60837215 0.47945604 1.0416054 0.38426653 0.7482939 -0.63183105 0.62741524 0.019133147 -0.40606654 0.32571813 1.503602 -0.39892083 0.31393197 0.7220091 0.45317057 0.27299434 0.12025472 -0.055272363 -0.12630606 -0.14811894 0.29703313 -0.35748285 0.38298178 -0.19971173 0.2330379 0.69785285
77 0.61137295 -0.057937257 -0.30300602 0.59219974 0.6117056 -1.7650771 0.57827765 1.0139432 -0.37885875 -0.16211097 1.1722391 -0.7191234 -0.7885436 0.9600499 -1.0654467 1.1884048 0.7090511 -0.2545751 -0.2892221 0.3650426 1.3823383 1.511048 -0.50706756 -0.9842788 0.53322494 -0.6637573 0.24815182 0.08559629 0.080812365 0.3631104 0.62377745 0.6951072
370 0.74158955 -1.3091244 -1.1357778 1.3083932 0.42133746 -0.33635348 -0.9126215 0.29633233 -0.90321326 0.42376906 -0.9508761 -0.47707376 -1.1329161 0.27631637 -0.6599348 1.3681077 0.63048357 0.14051092 -0.23289782 0.051721405 0.88672966 1.5429908 0.37376022 -0.03767399 -0.18699475 -0.24966139 -0.21417229 -0.61764246 0.20839854 -0.6322249 0.7425483 -0.3108707
730 0.68507886 -1.4200182 -1.272724 1.4641267 0.70975494 -0.5505351 -0.54285145 0.047181465 -1.1863317 0.2984131 -0.46991026 0.14858493 -0.8302974 -0.27110174 -0.29107746 1.1970859 0.90092725 0.29761112 0.4218708 0.02976217 0.7324033 1.45325 0.012970456 -0.580061 -0.60817665 -0.1468866 -0.10964442 -0.69702345 -0.052946292 -0.5963367 1.0101633 -0.12186865
253 -0.2113882 -1.3941864 -0.37310824 0.6565468 0.7852931 -0.8156794 -0.5064418 0.658247 0.6932003 0.493082 0.44327176 -0.34664854 0.63957417 0.4353812 -0.12818667 0.40211046 1.1729805 -0.106841005 -0.4199575 0.5156472 -0.43112448 0.7351342 0.61121154 -0.93899363 0.20961192 0.29869995 0.46150354 0.14777854 0.60009336 -0.40789413 -0.32718328 0.90912634
173 -0.26007712 -1.1147733 0.5305112 1.0324891 0.14870775 0.638347 -0.06816977 -0.5360508 -0.47481662 0.563438 0.9567443 -0.4758249 -0.34938556 1.102566 -0.9128991 -0.2766632 0.84504896 -0.72739935 0.293484 0.18607341 0.42892927 1.5269957 -0.10899739 -0.4264434 0.59636414 0.6355853 -0.15837339 -0.48732024 -0.48130116 -1.5286331 0.12418419 -0.27305722
365 0.5877709 -1.4445695 0.7886177 0.8951215 -1.0531821 -0.42917886 -1.6941622 0.30390447 -0.9007941 1.0512081 0.5538513 -0.95340335 -0.3519867 -0.0046975682 0.033339426 0.58873475 0.024674037 -1.509274 0.36949554 0.32915926 0.93039685 1.2859184 0.023527943 -0.29165033 0.52217984 -0.59751606 -0.24324274 0.583256 -0.4669842 -0.040029965 0.05574118 1.2751695
339 -0.68879014 -1.0297453 -0.7635173 0.5483084 0.26531473 -1.1829197 -0.4074681 0.53681105 0.45909852 0.5303792 0.9292693 -0.5301689 0.51092696 0.45611995 -0.034635644 0.22981007 0.32143566 0.20525089 0.045790803 0.38003427 0.13634819 1.0176988 0.38304403 -1.0293043 0.35764554 0.07834575 0.28244802 0.4718069 0.93407214 -0.20275316 -0.7279508 0.64270616
557 0.8000389 -1.5145645 0.6849865 2.4419177 -0.7041802 -0.5918098 -0.46016204 0.46009964 -0.94224083 -0.11308717 0.21560897 -0.6283752 1.1044282 0.43271646 -0.7297837 0.25699237 0.4589053 -0.9424083 0.016425405 0.27152482 0.85766 0.73499286 -0.046070572 -1.0239753 0.6480401 -0.230433 1.671656 0.6015722 0.6306731 -0.813016 0.3710201 -0.39386484
513 1.2572272 -1.3583049 -1.6692535 1.7825688 0.78922457 -0.14630246 0.5887134 0.26313514 -1.6535723 -0.0020562164 0.6646578 -0.67570484 0.039403442 0.5585121 0.47618702 0.14904736 0.07553914 -1.0445927 0.12667823 0.695131 0.6209632 1.0856751 -1.2555104 0.45993236 1.2426702 -0.052161045 -0.6114119 -0.5932201 0.3005178 -1.3017563 0.13772249 1.4196341
224 -0.21714087 -0.016273454 -0.2487374 1.0969164 0.72935706 0.13975468 0.19252884 1.8012029 -1.4719645 1.0533892 1.1923625 0.33513403 -0.27794307 0.9738529 0.9092977 0.03223553 1.0936205 -0.8212334 0.96648747 0.47340125 0.5454709 2.2213397 -1.5776907 -1.2999964 -0.34349546 -0.31907263 -0.07889181 1.1956613 1.5523106 -0.898133 0.16688101 0.24669255
672 -0.223085 -2.8096611 -0.16604343 1.4225341 0.13392486 0.86585397 -0.6138502 -0.026757784 -0.55609936 0.59163 0.87004167 -1.2771344 0.48722193 1.7333066 0.20386551 1.1905761 -0.28955674 0.1050388 0.9391714 0.75320446 0.90392077 0.033448845 -1.0106999 0.07464393 1.2980005 -0.6762306 0.21370232 0.36697972 0.98523694 -1.3401445 -0.48314393 -0.27006298
781 0.26006976 -1.285136 -1.297291 0.77004623 -0.60174274 0.29757467 -1.2526639 -0.24991769 -1.0391281 2.2096057 1.04419 -1.2704498 -0.065123074 0.3434702 -1.7618057 1.3724664 -0.23107027 -0.8420762 -0.5713387 0.32174256 1.0872504 1.2985264 -0.50649697 0.27852795 -0.17867374 0.62636024 0.105660744 -0.682149 0.9185829 -0.27143806 -1.0977733 -0.11218566
159 -0.37566507 -1.6775708 -0.5768573 1.9574447 0.1684716 -0.5740026 -0.61268 -0.66114867 -0.9591651 -0.8041814 1.6330429 -0.5655618 -0.37007925 1.1182705 -1.3738354 0.5776201 -0.5812201 -1.0029423 -0.5919034 1.9208337 0.33077514 0.51760155 -1.163912 -0.24414448 0.63705474 0.055077333 0.6642219 0.6889272 -0.61446446 -0.24211197 0.8720519 1.045543
125 0.51948655 -1.8252981 0.110962614 0.5551441 -0.23746812 -1.584432 -0.267082 0.71038854 -0.8302365 1.5357904 -0.9360087 -1.5949364 -0.089536205 1.7440636 0.2717329 1.2589352 0.83521634 -0.7406714 -0.18952404 0.8521016 0.99439603 1.3720537 -1.0802429 0.15655006 -0.043951634 -0.72810274 1.0843968 0.16812901 1.1157299 -0.34049246 0.3802312 -1.0400908
686 0.18857759 -1.0022924 -1.4304037 0.6090977 0.47377324 -0.27065742 -1.100186 0.78682 -0.7110025 -0.7086222 1.7846823 -0.93282473 -1.4899219 0.18677479 0.05094066 -0.21515927 0.39379856 -0.6044687 -0.4919884 0.30866638 0.90493464 1.9770131 -0.5598657 0.4277441 -0.070013925 0.47168612 -0.34852576 1.2174023 0.22336897 -2.424704 -0.7577019 -0.32561055
901 0.9055238 -0.26072335 0.26076654 0.78542024 1.1501297 -0.81666714 -1.7561533 0.94954944 -0.17812483 0.9425588 0.8054835 -1.7729597 -0.6308423 2.2465205 -0.45690978 -0.5920189 0.4366785 -0.51123214 0.124891736 0.9144371 1.5704719 1.0015955 0.089720674 -1.0506139 -0.49208802 -0.48096323 0.21419658 0.9532584 -0.116685316 -0.9394212 -0.8431585 -0.5689668
209 0.3101929 -1.5541629 -1.2709997 0.7497688 -0.14876737 0.36473784 -1.490189 0.32678503 -1.115212 0.54361504 0.17394087 -0.17649345 -0.576729 2.6798255 -0.12161288 -0.07178188 0.52722055 -1.5006759 -0.8901217 0.2625018 0.4469817 2.1430893 0.5267882 0.31254956 -0.43670282 1.3074526 0.2628387 0.5641924 1.2315192 -0.79264855 0.837155 0.8992643
283 1.2652652 -1.1771299 -1.5256785 0.9030928 0.27198654 -0.12684344 -1.1299124 0.100041285 -0.7010567 -0.020854186 0.6373241 -0.6562729 0.048521448 0.8539912 -1.4513785 0.9147427 1.1149154 -1.181389 1.5404127 0.19358842 1.35861 -0.102308765 0.6689221 -1.542606 -0.2608135 -1.8498417 0.56382143 -0.035501536 0.29034746 -0.944557 -0.05772754 -0.60771483
918 -0.17929257 -0.89184195 -1.0795946 0.5986521 -0.6949611 -0.895202 -0.73356247 0.466361 -1.9071324 0.69226766 -0.4236432 -1.4713506 0.56437314 1.2072039 -1.3781127 -0.1095543 -0.22380379 -0.60685587 -0.50187814 2.0162122 -0.18160483 2.0090435 0.3246269 -0.30063486 0.26896334 -0.85374254 -0.014109894 0.79074633 0.35151854 -1.2500335 0.50428 0.018472971
179 0.4126273 -1.4490421 0.56393725 2.3236232 0.2395294 -0.7600398 0.45528722 0.8876861 -1.4142599 0.77903795 0.696443 -1.0317147 -0.2752946 1.1245114 0.57941747 0.35770762 0.21305804 -0.60715413 -1.1529366 0.32654142 0.3245418 1.3654754 -1.5157715 -0.26435342 -0.5072547 -0.45272171 -0.34499076 1.4708453 -0.6928392 -1.7731745 0.21340275 0.58510345
97 0.6276028 -1.0598719 -1.0084089 0.3660976 -0.015087923 0.85416657 0.17915651 1.1389533 -0.94900966 1.3658276 1.9340827 -0.82903504 -0.5749636 1.3838075 -1.0835344 1.8155532 1.0078564 0.17555657 -0.20085646 0.27309677 0.37290934 0.34753552 -0.71851313 0.34247383 -0.6002931 -0.33058232 0.5972239 0.98175865 0.8145345 -1.6624334 -0.5203888 1.2172029
879 1.2555164 -1.4503006 -1.6826837 0.75883037 -0.48227265 -0.90013635 -0.77304447 0.3722658 -1.097707 0.26447302 0.99500275 -0.600113 -0.74285096 2.1484466 -1.3407992 0.5329478 1.1617038 -1.0947733 0.050147567 -0.45578805 -0.023859728 1.7361863 -0.5676828 1.1736443 1.0401378 -0.25384122 0.42360717 0.5334219 -0.3944676 -0.057297118 -0.49778244 0.53304726
725 0.5438561 -1.3330743 -0.8515627 0.1504889 0.31375033 -0.23596129 -0.48847035 1.0137433 0.7423983 0.20878495 0.5897673 -0.94381285 -0.13615055 0.4788772 0.4719272 -0.06240747 1.0923008 -0.07404531 0.672496 1.2525278 0.23988566 0.71142334 -0.13029413 -0.38547215 -0.54674613 -0.015525655 -0.1713653 0.16180974 0.55708396 -0.1775236 0.60043484 0.7530502
254 -0.7020695 -1.4197769 -1.2690856 0.5472049 0.49334952 -0.65290123 -1.0022721 0.95703936 -1.4538562 0.09492857 1.1757153 -1.0279624 -0.35579357 0.78478235 0.2849659 0.3701252 1.8622006 0.12460855 0.9218918 0.3015394 -0.2595192 1.2102382 -0.7836463 -0.66775805 1.2715871 -0.35506698 0.7767858 1.2318374 -1.5668516 -0.91767794 -0.23430006 -0.26478177
154 0.29311183 -1.317751 -1.1446761 0.7419936 1.3049026 -0.4282848 -0.44662747 -0.20871682 -0.9833548 0.09409152 0.7562181 0.59075356 -0.25016764 0.62677073 0.3175962 -0.2684563 1.5063366 -0.4342954 -0.97928923 1.2415191 1.8462104 1.6161892 0.07769837 -1.430021 -0.74211 0.09935761 -0.25113046 1.481215 0.36641628 -0.65033054 0.15218581 -1.0909463
444 1.3859702 -1.000416 -0.4638017 1.04274 -1.1049813 0.054251388 0.24332677 -0.28964308 -0.2586836 0.63470566 1.267725 -0.5866246 0.13805662 0.25359234 -0.7289496 1.1589029 -0.16997978 -0.94904286 -1.2215266 1.2520715 1.1864122 1.4102085 -0.4233391 -0.7714042 -0.11935395 -0.37008122 -0.7542865 1.3517454 1.5310465 -1.4828999 0.4211868 1.1799753
78 0.57359207 -1.0757229 -0.39310154 0.50930816 -0.9874186 -1.1645818 -0.63131344 1.5738134 -1.9546137 -0.106187515 0.7820487 0.22047298 0.39615178 0.80993676 0.14310506 1.7191613 1.0904493 0.45092812 0.09183025 0.39219 -0.34019396 1.6436692 -1.3271385 -0.84133446 0.23269077 -0.10880936 0.16288309 -0.02773072 0.0023169466 -1.4518015 0.9962005 1.0662191
580 0.11052967 -0.59521204 0.057862837 0.985211 1.0439498 -1.3098187 0.19123322 0.58503 -0.055700302 0.2072589 1.2576325 -0.14927533 0.085947 0.02017528 -0.9583713 0.4994212 0.36553258 -0.09708209 0.13926204 0.49058384 0.5137659 1.2838188 0.20063403 -0.7981039 0.77505857 -0.5526804 0.11281135 -0.27447549 0.7070227 0.22947 0.024182027 0.8869876
1 0.022209525 0.291488 -1.4029824 0.5403166 -0.2272631 -0.3084189 -0.52491176 -0.87416136 -0.8773739 0.3552383 1.3570092 -0.2787243 0.64738834 1.1859374 -0.2800238 0.90319175 1.0911543 -0.5889219 0.3750642 0.8206054 0.4025205 1.5666317 -0.74594516 -0.20253676 0.21720898 0.64466447 1.0365274 0.11277799 -0.36179218 -0.9188502 1.1000259 -0.24216324
260 0.29774806 -0.6451937 -0.08420003 0.31075633 1.5137255 -0.72132623 -0.2235036 0.64629704 0.16106342 0.34594813 1.4325775 0.09381171 0.08862205 0.30043545 -1.2138134 0.93497247 0.44587943 -0.18096828 -0.19354734 0.9035934 0.42777684 1.0617867 0.3050967 -0.9014501 0.44721696 -0.20301607 0.045554586 -0.3539742 0.44060895 0.1654943 -0.028574789 0.8925767
751 0.6311847 -1.2274292 -0.7035239 0.88604146 -1.2319001 -0.7883939 0.33693594 0.52926147 -0.5920628 0.2722322 1.1595644 -1.5089711 -0.24436039 -0.5380816 0.28234443 1.2542616 0.9479823 -2.0078268 0.5484608 0.44740516 0.45019966 1.1889374 -1.1303737 -0.75033677 0.068928406 0.37904444 0.71209943 -0.3542193 -0.046284605 -1.0603324 -1.2645086 -0.6478237
429 0.16874255 -1.2979652 -1.2647924 1.4665054 1.5206302 0.19135122 0.6973768 -0.62026536 -1.5102822 0.47799513 0.9231885 -0.96985424 -0.45442712 0.36890656 -0.2881365 0.72925675 -0.4539002 -0.08473339 0.2847937 1.7549324 0.9377506 1.036419 0.058220547 -0.23900957 -1.2346572 -0.3257146 0.7618641 1.391451 0.021342598 -1.3535347 -0.2058768 0.34637654
231 -0.032555215 -0.7990065 -0.9948252 0.41295266 -0.9070282 -0.2996506 -2.2647896 0.3848855 -1.5624816 -0.015300976 1.4406804 -0.14116389 0.01629328 0.4593905 -0.42703813 -0.4725128 0.5652191 0.14808838 0.6868848 1.3500673 0.6369451 0.7713702 -0.80057186 -0.8252051 -0.070134886 -0.24863093 0.1390703 0.06387839 1.303938 -1.0932603 0.07260013 -0.9102922
709 -0.7416713 -1.4805158 -0.93559605 1.3512853 -0.44884405 1.1369393 0.029159613 0.27528223 -0.3325546 1.4093633 -0.3141747 0.693107 -0.82224923 0.4219069 -0.41276366 0.21243 0.80681854 -1.1924059 0.3775304 0.43655932 0.9376846 0.96832895 -0.34607878 -0.6910137 0.36333182 -0.36717102 0.66852343 0.32358578 0.49309814 -0.48649815 -0.08207247 0.27687898
650 -0.4743906 -1.240063 -0.2822493 0.40196267 0.21405947 -1.4640038 0.22874123 0.5043051 0.3817809 0.66368467 0.975367 -0.61086816 0.31674826 0.07853749 -0.19346446 0.3479251 0.5692629 -0.038259253 -0.0042322953 0.06351364 0.22339846 1.0806478 0.5902226 -0.7514173 0.078670144 0.06184907 0.22689243 0.43312958 0.8328328 -0.62601095 -0.19146207 0.9265414
204 -0.11506767 -1.1518399 0.7612582 0.93950546 0.25681204 -0.313059 -0.5464668 -0.83003145 -0.65878725 0.29674825 0.6829107 -0.08303176 -0.5766341 0.93971753 -1.2578434 0.1969476 0.7727768 -0.62139285 1.0136579 -0.09889013 0.6489322 1.3424327 -0.47912762 -0.15524638 0.40496475 0.8637159 -0.7135579 -0.14144428 -0.3156078 -1.5572665 -0.18056352 0.053428877
116 -0.08885642 -0.71172863 -0.9785318 0.47981083 -0.8508305 -0.3324258 -2.4006574 0.38829884 -1.5437828 -0.0055203075 1.5282896 -0.27808025 -0.008820645 0.4456047 -0.48315772 -0.46232045 0.62872976 0.16472149 0.70215505 1.3492892 0.6206919 0.7629471 -0.77285147 -0.8050354 -0.09111096 -0.2271621 0.11453747 0.050686013 1.232268 -0.9706214 0.06197166 -0.85094446
784 1.0690461 -0.58551973 -0.5629913 0.8390345 0.5781546 -0.14453754 -0.38162276 0.99705416 -1.7424091 1.0454103 1.6464317 -0.14259522 -0.44243342 -0.0040549864 -0.9369672 0.17163615 0.6804931 -0.7805947 0.7517663 0.7149946 1.5874825 0.41163146 -1.2972621 -0.03900232 0.024772048 -0.4336822 -0.7865232 0.9389293 -1.1050367 -0.48735967 0.32756835 -0.03412072
445 0.22636868 -1.6552107 -0.7930088 0.30160582 0.72198397 -0.5831585 -0.33246854 0.5735932 0.83684546 0.113506965 0.52781695 -0.95834863 0.40676364 0.12653334 -0.10806993 0.2039052 1.4004575 -0.27764785 0.24844606 0.82093894 0.19461475 0.57544327 0.23148502 -0.006970865 -0.123518676 -0.085827105 0.19529004 -0.017677076 0.5572533 -0.10542293 -0.23403183 0.44388875
527 0.47555465 -1.3114867 -0.47998893 0.035265896 0.47480518 -0.14021766 -0.47209868 1.1196281 0.21708614 0.07866287 0.59176815 -0.5714404 0.05429729 0.6202203 0.5718912 0.10453435 0.7544438 -0.2715288 0.6059066 1.7038994 0.68060565 0.42822987 -0.31771827 -0.36156762 -0.6138553 0.6870519 0.013660877 -0.043191362 0.6485945 -0.0063822954 0.4889511 1.1413751
719 -0.4503021 -0.6275981 -0.5982144 1.4372835 -0.048949067 0.13029781 -0.19471641 -0.0679703 0.31392217 1.0856644 -0.29108715 0.6061992 -0.6460088 -0.32862273 -0.41928145 0.893962 0.8150311 -1.551148 0.5512366 0.919368 1.7149421 1.0717388 -0.7179212 -0.7437037 -0.31666312 -0.830256 -0.084349744 0.28056428 0.4083813 -0.67925966 -0.60425353 0.40641215
959 -0.10270123 -1.2338545 -0.08959874 1.2256227 0.8025255 -0.9421695 -0.8550352 1.285043 -0.27706382 0.37018865 -0.5517749 -0.4418496 -1.2107828 -0.057899415 -1.1805766 0.39493233 -0.29474995 -1.3152544 0.5370675 1.4043964 0.6425348 0.076544255 -0.45906046 -1.0294333 0.3476905 0.28285262 0.2900124 0.9744097 -0.3406133 -1.6029745 1.0451473 0.1254851
511 -0.56856954 -1.1991442 -0.40207776 0.6224575 0.36524388 -1.438843 -0.5137965 0.4471922 0.27842373 0.5916621 0.74007463 -0.13825908 0.57899445 0.58686227 0.015125616 0.17988528 0.87049174 -0.1583348 0.0017672302 0.30787668 -0.21495229 0.7612921 0.9464983 -0.7847631 0.13120067 -0.20718461 0.16881317 0.38728163 0.5213412 -0.5398849 -0.27872318 0.90149814
731 0.4896905 -0.13864498 -1.9143398 1.3373258 -0.32257512 -1.3012811 -0.4623129 0.9609005 -0.84793836 1.3373855 0.2448067 -1.3215142 -0.18806414 1.1636232 0.13060293 0.9332297 0.34539786 -0.48510227 1.419863 0.91105986 0.8664656 -0.17213139 -0.8087289 -1.236154 -0.4007235 0.62788564 0.36809736 1.4660392 0.035522304 -0.7618821 -0.51976806 -1.0159006
924 0.25518748 -0.3852857 0.16828367 1.0024995 0.74992704 -1.42257 -0.2820703 0.5871383 -0.042576212 0.68024826 1.7432469 -0.095016405 0.18391709 -0.2740037 -0.9358092 0.8599037 0.5971732 0.1927983 -0.32012373 0.589104 0.3929624 0.7786747 0.5901789 -0.6894618 0.629425 -0.20239675 0.2593066 0.20044218 0.14301261 -0.30328438 -0.105077595 0.89983547
449 0.52956253 -0.28046507 -0.1608636 0.5603003 0.7591902 -1.8660154 0.54439235 0.9182032 -0.43121314 -0.12857828 1.0817239 -0.62163574 -0.64204425 0.71986413 -1.1594294 0.9150036 0.6975382 -0.24032138 -0.20367149 0.22810322 1.2227561 1.4106778 -0.023896795 -0.89410585 0.82773864 -0.66232073 0.30469954 0.009241186 0.32444754 0.19672893 0.11639869 0.6181503
111 -0.59144765 -1.8844792 -1.0811834 1.3174886 -0.5359364 -0.36483034 0.24985334 0.63090646 -1.0691578 0.15005383 0.21820365 -0.01017034 0.29794362 1.8351039 -0.8137378 0.549168 1.8918486 -0.4485507 -1.6368946 0.9017553 0.6503095 0.4097592 -0.7248505 0.14878361 -0.7792663 -0.5248453 -0.49535745 0.94096315 1.0941857 -1.6191053 0.16265222 -0.14569654
329 0.51353574 -1.2921833 -0.5846589 0.36639047 -0.067678586 -0.37803093 -0.54159 1.0154989 0.60783744 0.037903953 0.7306031 -0.65396905 -0.12174979 0.53291214 0.7921014 -0.02885191 0.950597 -0.2713648 0.7202564 0.9439838 0.4685817 0.8748131 -0.57851255 -0.13416015 -0.764958 0.30994758 -0.10501553 -0.014578188 0.54774576 0.10000441 0.78109956 0.728006
791 0.4846219 -1.6329861 -0.45119676 0.10730229 0.38353541 -0.24104162 -0.27246395 0.7561712 0.971701 0.013786096 0.4198943 -1.1904716 0.28704932 0.5760313 0.11176346 -0.032934196 1.1361518 -0.42474276 0.67027324 1.3667184 0.37091446 0.7931747 -0.101372376 -0.24143602 -0.27071983 0.17090519 -0.26257542 -0.1430552 0.4392819 -0.37402034 0.04298494 0.6212087
177 -0.06179107 -1.4064716 -0.4195539 1.6183093 0.15434875 -1.1216758 0.004032544 0.16020626 -0.74579716 1.5025272 -0.51007116 -0.07900148 -0.045346666 -0.22372685 0.8220875 1.6241504 1.3814812 -0.82354635 -0.007354303 1.7638834 0.3473503 0.93744045 -0.25157145 0.5547439 0.7365987 0.32016626 1.0524951 0.6477037 -0.8459343 -1.3183836 0.24816501 0.027358891
417 0.2612403 -0.437066 -2.041867 0.7315855 -0.7811254 -0.10055603 -0.2459773 0.724536 0.3416286 0.8839625 2.103709 -0.51216197 0.031189274 0.8252901 -0.9537489 0.4940416 0.3081013 -0.82450116 0.2565506 1.3282838 1.5302459 1.4261072 0.16271156 -0.24729154 0.20428461 0.060344875 -0.2614981 -0.11057023 -1.6855389 -0.9111626 -1.0049509 0.29630128
847 1.0679276 -1.633099 -1.0619304 1.1231196 -0.18314148 -0.104387425 -1.0238762 1.2730296 0.70864934 0.52911335 1.912235 0.6934879 -0.8480878 0.380713 0.1064248 1.3742259 0.65111876 -1.0018961 0.9953462 -0.23562479 0.65852636 0.83362985 -0.8828631 0.310105 0.2143002 0.10894765 0.33705166 0.5689849 0.46198392 0.15306588 0.2386925 -0.12108841
117 0.3486293 -1.4049965 -0.14900956 1.2519827 -1.4600717 -0.45330456 -1.6127495 0.09691633 -0.293934 0.62507725 0.2418463 -1.3079095 -0.38829774 0.09963699 -0.12778935 0.7144228 -0.04309527 -0.81314206 0.16292678 0.105801195 1.1907699 1.2328945 0.08530809 -0.18057033 0.6329832 -0.5092356 -0.18274058 0.65051454 -0.9853397 -0.61873716 0.4831944 1.3881093
95 -0.07321051 -1.5356461 -0.5797459 0.049926225 0.14207718 -0.20223352 -0.17540005 0.2560083 0.20080821 -0.08321832 0.34930784 -0.7447984 0.39781764 0.50648934 0.26495367 0.039577164 1.3001416 -0.5466721 0.37230995 1.6445534 0.63916653 0.53516227 -0.14823419 -0.65003514 -0.30394217 0.54432493 -0.060587686 -0.20496339 0.14610358 0.11121223 0.50191283 1.0811193
787 1.486541 -0.90118194 0.60594666 -0.13716859 0.37090823 -0.57495236 -1.1099025 0.022138836 -1.4831468 1.5034212 0.8065238 0.49790153 -0.83596134 1.2377284 0.18849942 1.2674643 0.9023833 -0.23621236 0.6504887 1.9953735 0.89194655 0.9273689 -0.52595264 0.29414612 -0.32485446 0.1406892 0.6431419 1.4133495 1.0119699 -0.85765135 0.29673085 0.22825396
537 0.15381053 -0.7105688 -0.21868701 -0.21059678 0.16386539 -1.7726122 -0.6704218 0.5594537 -1.4026692 0.6408218 2.0739138 -0.76264435 -0.6848863 0.6286058 -0.34366715 0.4983449 0.4857586 -1.7723601 -0.1101797 0.9047135 -0.060870353 0.5065929 -1.4983693 0.5088171 -0.1304239 -0.5756223 0.77429974 -0.30590674 0.32168806 -2.0600526 0.2983408 0.49320096
37 0.45774963 -1.0970435 -1.2902783 1.2062411 0.7909386 -0.45745376 0.38215205 0.8800706 -0.052246436 0.22818306 0.86306703 -0.42668098 -1.3942473 1.7761865 0.9150886 1.4142077 -0.3166846 -1.4565794 -0.6589108 0.98069 1.099926 1.1137073 -0.1555889 -0.47990802 0.1666934 0.80817676 0.057384405 -0.23797826 0.2973096 -0.53936815 -1.0413742 -0.2918107
158 -0.31298548 -0.8390758 -0.51436394 0.4033212 0.09711915 -2.0802245 -0.0806921 0.30814332 -0.1418944 0.35630915 1.0482545 -0.5084505 0.062167026 -0.17522281 -0.7777029 0.4526129 0.49242932 0.45032355 -0.008277629 0.3535826 0.4584918 1.0232682 0.4394009 -0.8598453 0.5059703 -0.19251601 0.036306877 0.27162778 0.41105133 -0.65891725 -0.6175421 0.8330909
109 -0.49498025 -1.5802407 -0.7662061 0.03251497 0.42916644 -0.41077423 -0.49944052 0.61325216 0.98483765 0.089948334 0.40070322 -0.5463494 0.63164926 0.31358936 -0.27492222 0.18555878 1.021453 -0.67704314 0.3840345 1.0517714 0.4627831 0.41956884 -0.14481884 -0.93328303 -0.21854942 0.43196282 -0.067955084 -0.4982014 0.38334635 -0.3213285 0.5744651 0.59206426
122 1.4521624 -0.935195 0.5792633 -0.15244094 0.35862684 -0.5172635 -1.0920118 -0.022699941 -1.489108 1.5960559 0.7809319 0.4877402 -0.7979717 1.2859209 0.25321665 1.2752599 0.96532786 -0.31976774 0.6358586 1.9815221 0.8743033 0.99694 -0.57952344 0.32310256 -0.29638055 0.1571509 0.6010253 1.4487462 1.0229607 -0.8810259 0.31695926 0.26516917
17 -0.7636058 -0.5631852 -1.7813603 0.68098426 0.6781915 -0.84047735 -1.0544989 0.4469059 -0.88447076 0.19361861 0.74901587 -0.055702113 -0.48002443 0.753379 0.2754146 -0.028918494 0.35218313 -1.6104716 0.7317327 1.4484504 1.4218065 0.20062746 -0.35246027 0.4707734 0.68862015 0.7599836 0.08709705 0.39993253 0.93245125 -0.04461035 0.60084206 0.62739384
419 0.21743466 -0.7217236 -0.20444445 -0.30835825 0.14133096 -1.767782 -0.68551236 0.52794915 -1.3588598 0.65422314 2.079299 -0.7775468 -0.6644804 0.67117214 -0.3157603 0.4821167 0.38724104 -1.845163 -0.10612436 0.85631007 -0.050832454 0.5021735 -1.4931421 0.3656425 -0.14259212 -0.5697796 0.6815756 -0.27077964 0.36210185 -2.0483506 0.28969455 0.58163095
540 -0.07735196 -1.1790415 0.33548173 1.0188785 -1.3517287 -0.37405592 -1.4461858 0.36587209 -0.5294217 1.1279732 0.403587 -1.2075979 -0.7131051 0.68260807 -0.24463543 0.51278937 0.29770383 -0.7855547 0.27653244 0.24391952 0.942237 1.3384212 -0.14786051 0.053198133 0.72979146 -0.84435403 -0.44495773 0.6943566 -0.703347 -0.2974615 0.4060775 1.5881706
398 -0.2828495 -0.09062788 -0.1489342 1.0195271 0.26303497 0.515432 -0.38716972 -0.5706486 -0.61435646 0.95605576 1.2423735 -0.8214049 0.6821744 1.3512185 -0.24497367 0.09859059 0.9395386 -0.35222584 0.02239781 0.5104914 0.040145915 1.8223389 -0.2951469 -0.07032526 0.25028735 0.55653524 0.32792413 -0.5934513 -0.18648031 -1.513606 0.38722965 -0.32059956
552 0.5773686 0.38982427 -0.22267854 1.1299164 -0.30860406 -1.3106999 -0.87313545 -0.2132074 -0.69482756 0.5848344 1.122649 -1.4971932 -0.7845106 -0.17011802 -1.0262672 0.00015840116 1.809246 -1.311892 -0.61724776 1.2244465 1.1497955 0.75212324 -0.59245586 -0.50647855 -0.624427 1.1512048 0.8726142 0.719452 1.2984682 -0.8957589 0.39695278 0.5025254
773 0.60518545 0.39456198 -0.22681074 1.221749 -0.31522757 -1.2918973 -0.8437888 -0.2012548 -0.6622958 0.6165085 1.1542009 -1.5233071 -0.7727314 -0.10116929 -1.0304685 0.075236924 1.7443464 -1.3714598 -0.5994857 1.2388624 1.1110948 0.710135 -0.5085236 -0.567218 -0.60411686 1.210685 0.8540194 0.72152853 1.3092192 -0.83931124 0.4078997 0.51703715
563 -0.63873094 -0.79702514 -1.1908067 0.58086485 -0.45099217 -1.610092 -1.7177833 1.6022178 -0.88427067 1.1718688 -0.15984526 -0.65289795 -0.59274596 1.3915017 0.47610354 0.30337816 1.4889785 -0.6335918 -0.23982395 0.4565112 2.3048184 0.5034142 0.73007506 -0.5584502 -1.0168874 -0.5584074 1.6401602 -0.029044002 -0.119534396 -1.0381286 0.1421566 -0.10696934
166 -0.207536 -1.0451951 -0.5977979 0.73433423 0.71182626 0.2022602 -0.60433334 0.9269565 -0.7352215 0.34092215 0.49423015 -1.5728711 0.74714446 0.57853067 0.2973658 0.75580823 0.30408213 -0.16477725 0.42164248 1.0039444 1.0871325 0.026301362 -0.52857614 -0.9724007 -0.7928532 0.640096 -0.512621 -0.15555638 -0.2972908 -0.08075005 0.2075987 1.3197365
376 -0.28915718 -1.0821645 -0.8783579 0.3168364 0.43192855 -0.4804262 -0.34730068 0.47710806 -0.017371682 0.16919409 0.5832466 -0.41111186 0.36089307 0.638086 0.6013338 -0.31804022 0.73270285 -0.42648423 0.6132756 1.5350833 0.6238513 0.24704067 -0.34514508 -0.40230554 -0.5530024 0.72506905 -0.08902501 0.2411407 0.46165764 0.14554378 0.6438223 1.3805807
733 -0.5501387 0.053845976 -0.28064808 1.1949401 0.3698379 0.51506287 -0.24170606 -0.6719198 -0.5359324 1.0450935 1.224663 -0.40438643 0.4116063 1.4494066 0.10741144 0.20132849 0.94682086 -0.4709983 0.20035839 0.6022184 0.076765575 1.7730219 -0.3942931 -0.18756728 0.24223448 0.4463622 0.42302796 -0.35400552 -0.20794857 -1.4248599 0.21512681 -0.35557774
632 -0.027503751 0.41378665 -1.3194449 0.61770666 -0.23928972 -0.27683857 -0.5663376 -0.7115976 -0.9465601 0.5097028 1.4878198 -0.4274484 0.8433855 1.1224314 -0.17024228 0.862958 1.1559951 -0.62040466 0.36071372 0.7600524 0.4447604 1.6170684 -0.74275196 -0.08306949 0.29485103 0.5305982 1.1322428 0.059205327 -0.30733824 -0.8841896 1.0944424 -0.15009128
512 0.37994105 -0.58798563 0.035132743 0.8037596 1.2405494 -0.9801471 0.01399266 0.4253645 0.058405798 0.36075184 1.8627001 -0.15211461 0.097220495 0.008324036 -0.9249702 0.73357004 0.49498793 -0.009751455 -0.20063697 0.8416801 0.34504282 1.0721909 0.30431116 -0.6854569 0.52214324 -0.5382933 0.16977775 -0.13253763 0.60145843 -0.013108179 0.20977278 0.7502175
75 -0.65552866 -1.8411224 -1.189869 1.3885492 -0.40228543 -0.3542913 0.2335935 0.6234951 -1.1161536 0.08446732 0.28409606 -0.09009662 0.3127956 1.7224603 -0.79062694 0.56787765 1.8610157 -0.4572101 -1.6563041 0.8336752 0.6915493 0.4113433 -0.7358007 0.17012224 -0.74489874 -0.56115055 -0.4409849 0.87927854 1.0676185 -1.5416794 0.14827347 -0.20371369
465 -0.30116192 -0.91077346 -0.55906177 0.34823707 0.1497026 -1.708068 -0.22138272 0.3438269 0.12149164 0.33416778 1.3335212 -0.9586472 0.53486973 -0.12309244 -0.19511375 0.504277 0.22702715 0.22740087 -0.04102761 0.24651526 0.41820008 1.5414944 0.3422182 -0.76832896 0.53668624 0.15721199 -0.26955333 0.386615 0.59037745 -0.7865073 -0.90630436 0.80860907
883 0.45475152 -0.08121567 -1.8402466 1.2879571 -0.3827116 -1.298682 -0.4091989 0.99111915 -0.8382163 1.258802 0.2726252 -1.2837737 -0.27236807 1.1355511 0.046646804 0.9569275 0.3854034 -0.43478322 1.3753693 0.8111537 0.89143974 -0.13330545 -0.78331625 -1.2466233 -0.35432607 0.6080599 0.30437422 1.4666556 0.11670503 -0.7403753 -0.49194857 -0.99225634
783 1.0975931 -0.65310675 -0.5514538 0.7969912 0.5482497 -0.26966348 -0.3114389 1.123535 -1.6823539 1.1182374 1.600455 -0.24111989 -0.4032786 -0.077867635 -1.0261788 0.2389458 0.706005 -0.7292718 0.8172508 0.8005119 1.5970806 0.41147125 -1.122156 -0.013861911 -0.08884032 -0.436709 -0.8411822 1.0221566 -0.9770113 -0.33982033 0.5306571 -0.090630256
407 -0.53242767 -1.7041144 -0.873886 -0.21485828 0.5531709 -0.46061802 -0.4583443 0.57948273 0.7879649 0.38551673 0.62204933 -0.13923688 0.5498101 0.5439471 -0.63898504 0.52011305 0.9956982 -0.35826817 0.41246578 0.95700073 0.42655462 0.6744921 0.20794854 -1.2626412 -0.36228818 0.11422526 0.04831076 -0.42431226 0.20253855 0.19820437 0.58122325 0.43626073
5 -0.12813367 -0.7748287 0.36482555 0.9603242 0.04492102 0.5509939 -0.26936635 -0.43255424 -0.6464883 0.6346554 1.0727062 -0.78380245 0.26097125 1.232583 -1.0720346 -0.16239695 0.8604071 -0.57074726 0.2521169 0.2600475 0.25420088 1.718119 0.023588344 -0.009059062 0.49119943 0.7677295 -0.05077991 -0.6014619 -0.37857282 -1.593392 0.2600721 -0.47270197
295 0.33439907 -1.6338365 -0.47389898 0.21061783 -0.11316312 -0.17574468 -0.45432523 0.91975576 0.7007086 0.0052598678 0.563284 -1.1355889 0.23692335 0.22267817 0.48893654 0.086464 1.0300052 -0.27798808 0.64379317 1.2214733 0.2064429 0.8920236 -0.308194 -0.24973418 -0.68982947 0.010742169 0.008730498 -0.05919275 0.7980313 -0.39093614 0.62951034 0.61490303
712 0.3640668 -1.2944878 -0.6764583 0.021528875 0.16574232 -0.21790314 -0.49416745 0.5588101 0.31178513 -0.040924218 0.78057826 -0.79017466 -0.064958595 0.61346567 0.89996 0.082358904 1.0083966 -0.14731841 0.5904564 1.4342154 0.47694102 0.6489281 -0.16613252 -0.43412575 -0.3735476 0.39158282 -0.09746415 0.069340855 0.5636869 -0.044476934 0.8004431 0.9523844
49 -1.0291816 -0.8324952 -0.5740643 1.3239394 0.22224271 0.26475456 -1.2451043 1.3047184 -1.6187246 0.9534896 0.9113897 -2.1486511 0.48874876 0.27097154 -0.17911966 0.37082502 0.06251138 -0.80430806 0.8004961 0.3992114 1.3620657 -0.22328998 -0.30269173 -0.86918724 -0.68904513 0.28898272 -0.4215639 -0.23965283 -0.040898096 -0.71524554 -0.018388374 0.95200723
851 1.0922966 -0.6268555 -0.5771155 0.7968198 0.4456289 -0.30421925 -0.3342319 1.0191561 -1.7250456 1.0993325 1.5988712 -0.28389952 -0.5156695 -0.08339739 -1.0161105 0.26443037 0.6127144 -0.7445769 0.83025175 0.78761464 1.5805315 0.42261437 -1.099896 -0.060584072 -0.11305396 -0.41879478 -0.8769897 1.0403925 -0.91758204 -0.26633105 0.60575116 -0.122630365
828 -0.26241088 -0.88340884 -0.6908739 0.91318923 0.61853623 0.18772665 -0.7926366 1.1537045 -1.047232 0.3690789 0.5894939 -1.696546 0.6875062 0.56071407 0.347902 0.9161153 0.2763134 -0.13138443 0.5180936 0.7761561 1.2479666 -0.01369392 -0.56515515 -0.8895918 -0.6813206 0.7284174 -0.4517633 -0.15780075 -0.38183123 -0.15956403 0.17246537 1.0881039
921 0.54127824 -1.2204558 -0.24895018 0.38978857 0.9194409 -0.5750351 -0.38289028 0.5592885 0.9816338 0.2608725 0.75200886 -0.57027346 0.44166467 0.38542497 -0.30674013 0.38249916 1.5858489 -0.5626639 0.39775318 0.63318086 0.08464127 0.55430657 0.21722148 -0.042724922 0.012357071 -0.35903338 0.18212931 -0.10645105 0.6441769 -0.08302192 -0.018398069 0.81391495
190 0.56265455 -1.7211092 -0.40312576 1.7285373 0.9412144 -1.1198713 -0.47723678 1.2019087 0.13908093 0.7577314 0.7340756 -0.7193345 -0.33672896 1.4112915 -0.9108687 0.9861053 0.62061787 -0.9516313 0.23188175 -0.6539276 0.26673758 0.18564136 -0.8521361 -0.6027423 -0.2970923 0.12218091 -1.8752809 0.35699314 0.88328224 -1.4705316 0.73774904 -0.9999761
815 -0.5355416 -0.9182832 -1.5995369 0.42137122 0.48197567 -0.685884 -0.8331203 0.20911008 -0.75659287 -0.09305411 0.5148636 -0.3589449 -0.34167024 0.6258807 0.5332693 -0.29769224 0.64309347 -1.5337048 0.77670383 1.9055015 1.0688745 0.33568597 -0.38092828 0.32913 0.28121126 0.9450244 -0.1350699 0.4628597 0.73064494 0.09035787 0.7106832 0.6695657
13 -0.57408357 -1.8810072 -0.76900196 0.34517232 -0.3844721 -1.396956 -1.0680045 0.024682585 -0.10039908 -0.39290133 0.3109309 0.17855667 0.7336559 0.39011812 -0.2981615 0.054875214 1.1267514 -2.0352304 -0.37762275 0.36000317 0.98557496 1.7841331 -1.893407 -0.46603912 0.3978629 -0.93507594 0.23809424 1.2833397 -0.7899532 -1.1594292 0.3810056 0.24248935
578 0.24348903 -0.19348602 -0.14598481 0.65756404 0.95381504 -1.7343782 0.31223574 0.8239614 -0.32092375 -0.0539215 1.2982188 -0.43172634 -0.407148 0.49716422 -0.93883395 0.66564167 0.70560217 -0.24635364 -0.089574344 0.1633678 0.83792496 1.3865972 0.23737794 -0.8579243 0.7935744 -0.49516457 0.14386243 0.11111431 0.3115554 0.18186527 -0.084634654 0.7101199
789 -0.22892302 0.12279877 -0.3021515 1.2000858 0.5250639 0.4789671 -0.46688968 -0.39824685 -0.7273026 1.0280428 1.5799614 -0.6285323 0.4013723 1.4307492 0.25683758 0.3539964 0.68562526 -0.3567575 -0.05259725 0.7606829 -0.09471308 1.7932671 -0.24799538 -0.10007017 0.16745177 0.42481378 0.5050268 -0.37111905 -0.25364682 -1.5079306 0.2510539 -0.45781934
792 0.015348097 -0.5015885 -0.10904444 1.017639 1.2415609 -1.1215789 -0.047030974 0.37303278 -0.2454638 0.17643768 1.8810892 0.05862964 -0.13563398 -0.15341537 -0.8097406 0.7679022 0.4386663 -0.10343652 0.15751305 0.5804545 0.29506072 1.1937081 0.1740808 -0.8955138 0.4841025 -0.62736565 -0.039657924 -0.45534915 1.1960224 -0.18835174 0.36410022 0.668789
452 0.33644688 -1.4394112 -0.60758424 1.187377 -1.531589 -0.46687683 -1.7263936 0.0018752463 -0.23459753 0.5212163 0.37914008 -1.1743816 -0.37138605 -0.01700027 0.14741212 0.7617105 -0.24490482 -0.5689835 0.07774802 0.43408996 1.159589 0.9897752 0.041838806 -0.29597294 0.4758363 -0.5792573 0.1323442 0.5897692 -1.1480305 -0.99664086 0.54854405 1.313263
195 -0.43252084 -0.9626119 -0.6244565 1.4205499 -0.19709681 0.29409933 -0.10736107 0.029035594 -0.075187 1.3553447 -0.19273278 1.1558862 -0.4552541 0.19163024 -0.2603018 0.71542805 0.5112243 -1.3136251 -0.09156269 0.8749203 1.6609383 0.95065457 -0.84288234 -0.87770444 -0.30770743 -0.80340457 0.17853159 0.3163836 0.42511705 -0.3598276 -0.38025492 0.59587187
782 1.1182722 -0.6126834 -0.5849316 0.8487011 0.4926244 -0.25690848 -0.33106145 1.0863228 -1.6875848 1.1024134 1.571799 -0.2539519 -0.4476908 -0.100062974 -1.0481873 0.28115365 0.63707376 -0.77013975 0.8310879 0.7769191 1.6311655 0.44960272 -1.1152182 -0.016580578 -0.09519149 -0.4228623 -0.8154669 1.0079474 -0.94157207 -0.31748086 0.5602682 -0.06494148
933 0.005969477 0.3963729 -1.5035944 0.56606084 -0.31045848 -0.39246684 -0.5116501 -0.7917069 -0.8887426 0.31941316 1.4510146 -0.1114598 0.5840428 1.1670169 -0.25302356 0.9592719 1.0678378 -0.7261377 0.4700957 0.75538474 0.45751613 1.5046179 -0.84556615 -0.2601675 0.21091709 0.5698392 1.1894706 0.19450542 -0.3588453 -0.832271 1.1011724 -0.16602331
99 0.7342396 -1.465139 0.9525688 0.7260296 -0.88754916 -0.5729013 -1.8455164 0.30410156 -0.8468547 1.0986239 0.71106625 -0.7900028 -0.17731442 0.11965944 0.07876008 0.49064595 -0.17734933 -1.7078526 0.35817465 0.4573715 0.8483575 1.3879101 -0.21498033 -0.51248145 0.24460214 -0.72309923 -0.48476842 0.26690072 -0.28865984 0.014369003 -0.10677433 1.0933266
371 -0.23641862 -0.69862115 -0.30993375 0.64365757 0.48628756 -1.691451 0.20370303 0.59347856 0.042077236 0.52850896 1.2873403 -0.15939863 0.17365225 -0.13856179 -0.43062153 0.6154719 0.56097984 0.27216712 0.4054695 0.13054304 0.67046297 0.9460993 0.47300553 -0.6400025 0.523355 0.026480248 0.101370655 -0.0008220881 0.91132665 -0.44640172 -0.4044702 0.60564375
755 -0.44115934 0.08092013 -0.40657464 1.1319282 0.46294433 0.4683096 -0.16412479 -0.37290108 -0.5176479 1.0411444 1.1459486 -0.6233464 0.8308208 1.594655 0.13335921 0.24920574 1.02894 -0.33454078 0.0038018979 0.6881333 0.11347131 1.8559573 -0.4310281 -0.302513 0.43406242 0.29034868 0.28232482 -0.64668286 -0.08099588 -1.5797272 0.4232865 -0.34806368
786 0.88124996 -1.3355047 -1.2675204 1.2266665 0.7940881 -0.47985888 -0.5797731 0.0563864 -1.1186969 0.47567162 -0.42131102 -0.16225944 -1.0213679 -0.14457168 -0.44602755 1.3971391 1.0006056 0.384588 0.5596629 -0.046044532 0.63783467 1.6450337 0.018499952 -0.47863707 -0.518748 -0.2809785 -0.07089798 -0.46834353 -0.07698565 -0.3448367 0.976872 -0.1755203
748 -0.543133 -1.8978561 -0.8222791 0.3724862 -0.4394457 -1.3807532 -1.1261686 0.014433948 -0.042584147 -0.48832297 0.30184093 0.16809696 0.81317985 0.3767428 -0.2604771 0.09186051 1.137722 -2.0494246 -0.32051495 0.29226637 1.007849 1.7013274 -1.9271307 -0.5888735 0.43707922 -1.0346193 0.28346708 1.3628376 -0.74786276 -1.1595578 0.3375366 0.19457892
89 -0.42334142 -0.83797413 -1.055103 1.5688629 0.48364797 0.057823785 -1.5544 0.6856584 -0.32203126 0.06516306 0.24703367 -1.0199312 -1.3684229 0.7219367 -0.7189584 0.45990488 1.0971236 -0.5030453 -0.38512692 1.56317 0.1363145 1.489238 -0.1358506 -1.2939087 -0.30325657 -0.53009534 1.6621294 -0.5098529 -0.82591206 0.16537932 -0.75937545 -0.37352207
888 -0.6913086 -1.672763 -0.381071 1.3059415 -0.20129685 1.0778289 0.34200343 -0.29633927 -0.22639403 1.0198492 -0.09837985 0.44193912 -0.684711 1.0751017 -0.88653576 -0.28887445 0.77619857 -0.89624226 0.43614614 0.38941222 0.8134964 1.381678 -0.5381629 -0.38059777 0.21187453 0.5300277 0.8792387 0.10778923 -0.06802477 -0.80745333 -0.31285816 0.10097547
213 -0.5666831 -1.3675604 -0.22414023 0.5936631 0.4751499 -1.342992 -0.75800896 0.23522006 0.2760496 0.59067243 0.8644841 0.022207502 0.6640283 0.78463954 0.3965467 0.25141993 0.96938974 0.022839397 -0.15795216 0.4082158 -0.06220286 0.516894 0.70652205 -0.51102006 0.025056316 0.16474319 0.41048166 0.85312253 0.52055347 -0.66870505 -0.23981938 1.2789438
616 0.3521317 -1.6134642 -0.6089864 0.17551854 0.62144613 -0.44474158 -0.28604847 0.5457998 0.9223324 0.22357365 0.6718983 -1.0501541 0.35452244 0.23344539 -0.120148376 0.30886647 1.438945 -0.39732918 0.397662 0.9639281 0.35813648 0.35984775 0.20240143 -0.18055587 -0.10569898 0.038363233 -0.267005 -0.36774707 0.41876605 -0.35839123 0.15144289 0.6850775
440 -0.36998466 -0.8205287 -1.0879802 1.6575844 0.5103237 0.094011925 -1.5872757 0.6783707 -0.3498148 0.12777634 0.31288368 -0.9253368 -1.3687034 0.6900512 -0.7333651 0.47683024 1.1145184 -0.4935474 -0.3298433 1.5942767 0.13609111 1.4028268 -0.09117682 -1.3592283 -0.33104384 -0.5239572 1.6067919 -0.47067222 -0.82266915 0.13217187 -0.7567596 -0.3371869
885 -0.15386224 -1.6672422 -0.3325462 0.24850889 0.41800022 -0.77888626 -0.04195909 0.42574614 -0.37249696 0.9334095 0.45907003 -0.26197857 0.44051528 0.04252312 -0.079054214 0.3430506 0.45999372 0.59095126 0.1509525 0.58179986 0.6272151 0.7528436 0.8893088 -0.63382643 0.09904769 0.3333313 0.37136397 0.09776991 1.0866688 -0.9883996 -1.185456 0.49036708
53 0.5521689 -1.151605 -1.3560609 1.3239582 0.04560043 -0.3859918 -0.5763752 0.0064473543 -1.2252804 0.28286538 -0.6809676 -0.16487706 -0.9681948 -0.12225855 -0.41006935 0.99633265 0.68944615 0.35889447 -0.29932976 0.39249104 0.9484352 1.5678436 0.2557625 -0.2580553 -0.28121743 -0.042223014 -0.30900666 -0.85820675 0.27128217 -1.3026451 0.89863265 -0.1704504
275 -0.90948486 -1.9866424 -1.4529608 -0.42576745 0.38210803 -0.32796183 0.14174135 0.5399296 0.6565792 0.28668883 0.561591 -0.7627507 0.032665044 0.91459876 -0.55190057 1.1530976 1.242364 -0.6705281 -0.14454988 0.5964402 1.441287 -0.04420743 -0.4014792 -1.0878956 0.19873892 0.025107708 0.3884553 -0.4175735 0.034238037 -0.8116208 0.8185013 -0.4876264
337 -0.3844146 -0.9099683 -0.5405337 1.3966858 -0.09686219 0.3282012 -0.34663606 -0.015977131 0.2626813 1.2225972 -0.13973074 0.8643824 -0.5897624 -0.19864063 -0.19661725 1.0390828 0.6355378 -1.3591334 0.36391526 1.0973761 1.6097373 0.91929364 -0.77134365 -0.8865966 -0.5011061 -0.8274202 -0.09731366 0.3164463 0.42995238 -0.598606 -0.51670295 0.30904594
184 0.5525558 -1.6945813 -0.35921708 1.7123325 0.8552093 -1.0731763 -0.48867357 1.2160739 0.11314041 0.76170313 0.7278017 -0.73478544 -0.3145223 1.409184 -0.8342761 0.9596381 0.64750713 -0.93078506 0.20166208 -0.6506978 0.24165717 0.16971917 -0.81157154 -0.62077594 -0.22554103 0.056150697 -1.876894 0.3045342 0.8586262 -1.4672806 0.7707142 -1.0091015
180 -0.21873581 -1.5288254 0.6595451 1.0151962 0.069246635 -0.2875274 -0.34765697 -0.87497985 -0.4312629 0.011390929 0.67741233 -0.08032707 -0.7650388 0.81536734 -0.9894024 0.053842444 0.7800714 -0.7349065 1.0023077 -0.068391256 0.6119657 1.6749758 -0.42776924 -0.44059083 0.6200316 0.901501 -0.305151 -0.24171735 -0.4911909 -1.3572059 -0.20530829 -0.05979726
606 -0.13082379 0.21394922 -0.22900495 1.2867649 0.48365003 0.32259667 -0.7634734 -0.47934303 -0.8164376 0.9706616 1.6500397 -0.7318446 0.33362988 1.3266863 0.368977 0.5655413 0.46518368 -0.30330592 -0.20521559 0.78021914 -0.17016746 1.7494491 -0.10990554 0.027228728 0.019751105 0.45322144 0.40049604 -0.19574168 -0.33800456 -1.2847816 0.38859865 -0.50956166
466 0.17090213 -1.1011095 -0.30345917 1.0640613 0.2126512 -1.3860083 0.04993474 0.65433156 0.12720086 1.160625 1.2034582 0.13175488 0.0982556 -0.0899973 -0.30173483 0.30565187 0.8873476 0.48489133 0.56106967 -0.12895904 0.90288377 0.40197217 0.2743878 -0.008210232 0.66680473 0.16293243 0.28571928 0.020612303 0.77731997 -0.20664454 -0.45129514 0.7111388
528 -0.7325569 -1.5752757 -0.2349869 1.1147594 -0.13059165 0.99908364 0.2982348 -0.41734573 -0.28930476 1.0592378 -0.014849236 0.18059757 -0.693074 1.1860435 -0.9978828 -0.2880761 0.8340974 -0.66157687 0.5474879 0.36626628 0.82943666 1.528282 -0.5219272 -0.39135113 0.11158793 0.7085053 0.90755606 0.1950833 -0.18814197 -1.0185045 -0.37694374 0.035934124
79 0.008975406 -0.7180463 -1.1667091 0.3841437 -0.95471144 -0.39199153 -2.354055 0.32868776 -1.4407743 -0.0026760045 1.5374415 -0.19023159 -0.033066448 0.37323612 -0.5150164 -0.46924716 0.64293647 0.11659252 0.64020926 1.2919228 0.6476305 0.7949625 -0.6606763 -0.8075039 -0.12459603 -0.20320553 0.09188516 0.004003569 1.2417493 -1.014595 0.009704173 -0.7995068
328 0.3538548 -1.3436276 0.16666973 1.050402 0.46236694 0.17002483 0.3137953 -0.40984228 -0.47343022 0.05773633 1.0062288 -0.3968362 -0.45631737 1.0011173 -1.272678 -0.17658572 1.1635545 -1.3757023 0.34466234 0.046712074 -0.04887561 1.1707088 0.023022234 -1.3131815 -0.048078693 0.5944571 -0.04310166 -0.05716369 -1.0789455 -1.4374278 -0.2784615 -0.5172204
40 0.5647969 -1.4670779 -1.2859309 1.2926888 0.64469653 -0.5528709 -0.47834533 -0.0893274 -0.88351256 0.21838963 -0.49708587 0.26257944 -1.0497049 -0.2876583 -0.30338737 1.185819 0.5805544 0.28738552 0.49762338 0.20293705 0.7812739 1.6090875 -0.0788566 -0.71241134 -0.34549922 -0.13688867 -0.1558055 -0.9483593 -0.028385887 -1.1424717 1.0987403 -0.019331094
629 -0.00072342996 -0.7839482 -1.0712224 0.36628765 -0.94265056 -0.39927015 -2.3965669 0.35332024 -1.545436 0.07073837 1.5042553 -0.16824026 -0.0033207724 0.41649845 -0.39010787 -0.43010566 0.64545125 0.19825707 0.67229265 1.301478 0.6562701 0.7660548 -0.6741007 -0.73638874 -0.005547813 -0.24493465 0.16888767 0.04498097 1.3038895 -1.0318164 0.05573879 -0.82738787
303 -0.95714736 -1.5414152 -0.7879634 1.4387081 -0.283222 1.0971715 0.017577177 0.36450657 -0.5436079 1.3441038 -0.13866927 0.69227237 -0.7697102 0.53166205 -0.73434436 -0.009358909 0.6621006 -1.3644055 0.19289196 0.38141432 0.76692873 1.0021466 -0.43507358 -0.57418066 0.5655658 -0.24177623 0.7362994 0.10484209 0.3511591 -0.44900966 -0.04234691 0.0319266
433 0.7257971 -1.2690763 -1.3763062 1.3085638 0.82688016 -0.33120972 -0.47457266 0.11807403 -1.1856911 0.48936242 -0.20974383 -0.084707394 -1.0333234 -0.24202135 -0.3527224 1.5552022 1.0569934 0.32609743 0.5362086 -0.13722114 0.57638925 1.5018609 -0.08699341 -0.5707065 -0.6025653 -0.10005621 -0.09695189 -0.60484385 -0.22674377 -0.3933421 1.1056287 -0.07157778
699 0.65072244 -1.88239 -1.0427707 -0.4894844 -0.26252025 0.22358014 -1.6683638 0.67661744 -0.91754 1.7642082 0.38134947 -0.32128435 -0.60897803 1.3006415 0.19566289 1.3662746 0.7028019 -0.7250034 0.04751876 0.1241813 -0.16843703 0.5533232 -0.42481664 -0.6052985 -0.5145844 0.766542 0.2686127 -0.26447064 -0.7890731 -1.623785 -0.04746584 -0.21381994
55 0.052083347 0.33304006 -1.4863535 0.53333807 -0.32187477 -0.48738256 -0.54153717 -0.8541727 -0.87057203 0.22230269 1.4500648 -0.17867965 0.64661735 1.2829905 -0.32993942 0.9642478 1.0211844 -0.7023197 0.5393329 0.67553574 0.48273447 1.5046461 -0.8754154 -0.24985522 0.27806863 0.638075 1.1096393 0.24860281 -0.33144692 -0.860758 1.0540942 -0.1862571
861 0.25593984 -0.36120182 -2.0110261 0.71135455 -0.69735837 -0.09203406 -0.30337328 0.73341966 0.36467633 0.88254154 2.1056025 -0.5159266 -0.059018403 0.9189493 -0.936028 0.52502763 0.2892994 -0.8261717 0.30291468 1.2935907 1.4861933 1.3692416 0.05396554 -0.2816344 0.30469513 0.08843579 -0.29141614 -0.113913886 -1.5713229 -0.87565434 -0.9673946 0.39513412
285 0.7426751 -1.5054278 0.8268209 0.79567385 -0.88297987 -0.4987203 -1.8653587 0.26651362 -0.81145465 1.1195884 0.6468522 -0.8317797 -0.33965605 -0.010719412 -0.065622516 0.47486144 -0.08001099 -1.5641242 0.43656552 0.4170299 0.90795416 1.412428 -0.027307771 -0.4989784 0.31383112 -0.5881951 -0.4584174 0.47685313 -0.31201696 0.10989737 -0.043436762 1.1700393
18 0.4109969 -2.1714315 -1.2842344 -0.37334293 -0.66883326 0.3800256 -1.6364523 0.27052474 -0.76776433 1.6807357 0.22056115 -0.6169905 -0.43798307 1.290608 0.5041492 1.4303175 0.51445264 -0.80981684 0.37821835 0.1731525 -0.11736271 0.8980764 -0.74313873 -0.44386083 -0.5647346 0.5707523 0.26841247 -0.3138654 -0.6815278 -1.5760701 -0.34613737 -0.28327197
710 -0.3581629 -1.1868596 0.7810084 1.0818732 0.24516296 0.16760975 -0.37863395 -0.7445133 -0.5849228 0.42775714 0.8385812 -0.37010512 -0.40614274 0.85843164 -1.1111627 0.0011753474 0.8184738 -0.66712016 0.98872095 -0.07096863 0.6176583 1.5992996 -0.4142838 -0.18075457 0.5649009 0.71780026 -0.46599355 -0.17534606 -0.31686518 -1.5050343 -0.2145317 -0.044800323
21 0.12223429 -1.6071244 -0.509732 -0.1207064 0.20474117 -0.46482015 -0.16592018 0.49857226 0.18736494 0.019958314 0.6542796 -0.96238905 0.31746763 0.64262205 0.44854438 0.021989645 0.9582775 -0.1926249 0.6830425 1.2102034 0.8869496 0.80330276 -0.28855804 -0.36247635 -0.69406486 0.2888104 -0.198257 -0.19496222 0.4252206 0.012317396 0.8951284 0.837215
375 0.4916582 -1.1661657 -0.79098904 0.051708106 0.3143293 -0.3832154 -0.42879832 0.8050319 0.7333053 -0.08804944 0.5822992 -1.3154619 -0.05439145 0.49882028 0.47276 0.046919413 0.9502477 -0.22622904 0.5920969 1.3249484 0.26656172 0.74927485 -0.2800837 -0.37792066 -0.6825014 0.10511868 -0.19365683 0.12552044 0.50464934 -0.38148558 0.6889082 0.4344282
101 0.71175855 -1.5013931 0.7015234 2.413551 -0.67494476 -0.53903514 -0.47124788 0.6011239 -0.9503939 -0.0343364 0.22133058 -0.700674 1.09959 0.44378713 -0.4843296 0.15308468 0.6014401 -0.9296203 0.056720927 0.15675335 0.9783415 0.6923319 0.1312896 -1.3137963 0.61196434 -0.30426106 1.6534666 0.5044089 0.51905763 -0.94254345 0.23987083 -0.44447994
842 0.033333693 0.29836395 -1.4577336 0.44128746 -0.33400294 -0.42650905 -0.5027416 -0.88516575 -0.8678111 0.2612858 1.3993055 -0.118148096 0.6028445 1.2865145 -0.40873283 0.95690674 1.0977367 -0.73236597 0.5811874 0.7895953 0.48693597 1.5002575 -0.9143605 -0.29309925 0.21559368 0.66549087 1.1507804 0.25823373 -0.36395907 -0.8478283 1.0834705 -0.10474169
892 1.034706 -0.573872 -0.5864008 0.8135796 0.4870655 -0.28442532 -0.30200458 1.0238278 -1.7153771 1.0210209 1.660501 -0.24962902 -0.44533935 -0.06278761 -0.97552013 0.2903229 0.6178753 -0.829067 0.91433775 0.77142286 1.5637957 0.4198563 -1.0440329 0.023110947 -0.116443664 -0.3898281 -0.8875925 1.0277839 -0.9061971 -0.3924289 0.5719372 -0.07805651
765 0.6680649 -1.1968791 -0.6846018 0.698189 -1.1170418 -0.66329664 0.3414077 0.5722614 -0.72559845 0.19887248 1.0837001 -1.5065812 -0.21045509 -0.47147426 0.22614689 1.2316154 0.8912156 -1.9684831 0.51386017 0.5495706 0.4738813 1.25339 -1.0882367 -0.73201054 0.23595613 0.5138515 0.7268871 -0.27819303 -0.011919281 -1.0495973 -1.1815996 -0.7213391
546 -0.66949004 -1.7568836 -0.98260707 -0.1792094 0.49094617 -0.33657658 -0.15877949 0.7372772 0.9155836 0.20607102 0.5013958 -0.5615438 0.568714 0.6372945 -0.29984295 0.56486803 1.0623353 -0.48619235 0.20362957 1.0367771 0.522611 0.3331684 -0.060798157 -0.95396 -0.11276672 0.21447678 -0.015700217 -0.38411438 0.09440524 -0.3654659 0.6250236 0.14414178
414 -0.1320402 -1.7187436 0.6031974 1.1365424 -0.3575437 -0.8475645 -0.6253212 -0.28218478 -0.48810807 -0.112269506 0.8665622 0.75002426 -0.4569014 0.929636 -1.0607069 0.1444567 0.66964984 -1.009825 0.5945822 0.5054318 0.19979464 1.4060856 -0.065688014 -0.39032456 0.4668862 1.0112447 -0.7337047 0.008313685 -0.5313847 -1.3623245 0.042734902 -0.6056735
50 0.4974217 -2.0646389 -1.248233 -0.44847873 -0.48339692 0.26532137 -1.6672574 0.3888055 -0.76766306 1.6205876 0.21609813 -0.40293753 -0.5088324 1.3244039 0.39178166 1.4178913 0.57084805 -0.74800235 0.3204052 0.103093244 -0.101292804 0.7641269 -0.6530574 -0.45999712 -0.51736575 0.6121783 0.2910523 -0.26973492 -0.7190785 -1.660822 -0.26077062 -0.35444358
668 0.9997846 -1.5087805 -0.659454 1.2301713 -0.30734402 -0.42306122 -0.5821276 1.2794129 0.81112957 0.6221859 1.506099 0.4097185 -0.4261573 0.101691104 0.23199648 0.8797401 1.1584955 -0.46085626 1.0289259 0.11626104 0.7211494 0.58527696 -0.77987033 0.51396173 0.16974631 0.23907334 0.43979433 0.18985385 0.4455611 0.09887992 0.5539708 0.11392016
694 0.7537459 -1.429885 0.6697034 2.3522487 -0.70939654 -0.5343774 -0.4684622 0.5773854 -0.9708548 -0.023109607 0.32534364 -0.66784155 1.0603367 0.466792 -0.50702363 0.13383341 0.561433 -0.91762924 0.071927994 0.21446864 0.9372341 0.6707601 0.06922721 -1.1918049 0.5998622 -0.27364358 1.697645 0.50425375 0.54653126 -0.8998423 0.26405683 -0.37024882
912 -0.24931644 -0.9806851 -0.38337007 1.569556 0.6217971 0.32011014 0.12304174 0.8406277 -0.9877923 0.08462557 0.28581834 -1.2998598 0.64399123 0.6575068 -0.33761722 1.3639072 0.33018875 -0.13831457 0.10641215 0.5711419 1.3611763 0.5170896 -0.78648216 -1.4423075 -0.62843335 1.5040835 -0.0078181885 -0.39015815 -0.627881 -0.36282638 -0.36196932 0.75146055
147 -0.5829526 -1.2335163 -0.51186526 0.06823316 0.6501 -0.7190944 -0.55919874 0.8198208 0.053345907 0.6473685 0.8491826 -0.011577015 0.6280739 0.051110957 -0.46456915 0.8134525 -0.03451977 0.017087521 0.38964778 1.171586 0.07631675 1.0344774 0.38270018 -1.6324867 -0.19911103 0.12512426 -0.10903543 0.19671915 0.6082264 0.3277284 0.0015048082 0.6842593
387 -0.93785614 -0.46141654 -1.7736652 0.88749963 0.8986469 -0.90104806 -1.1693794 0.37963516 -0.91828203 0.3391298 0.90167964 0.08006378 -0.4501647 0.80348235 0.059788186 0.09191111 0.32888064 -1.6533254 0.66223174 1.270961 1.5185415 0.1818855 -0.298317 0.55088615 0.8108796 0.85176593 0.24933644 0.36750597 0.9191769 -0.11825043 0.44733846 0.6987887
214 0.3691681 -1.5775532 -0.5554961 -0.059276786 0.23418416 -0.21878427 -0.37702325 0.9608735 0.29950404 0.03113325 0.5348376 -0.6868847 -0.0438448 0.75388557 0.77468026 0.036806226 0.8831116 -0.07515543 0.4585436 1.5001571 0.55542135 0.81905156 -0.31805226 -0.19358988 -0.5640022 0.34572962 0.025674824 -0.017214743 0.5475694 -0.041537434 0.74780977 0.75640374
278 0.9371652 -1.3846985 -0.269463 1.1257902 -0.5410398 -0.4048975 -0.34988627 1.0761856 0.7131893 0.41509157 1.2047715 -0.14924826 -0.6238245 0.35137835 0.66836786 0.1547348 0.98201936 -0.1041642 0.95638937 0.89603007 0.86022234 0.8944561 -1.0510361 0.10081488 -0.17469399 0.6880263 0.34761056 -0.026595954 0.3949671 0.28890258 1.017829 0.27358407
740 -0.26963285 -0.8820983 -0.50497764 1.397346 0.6502455 0.38966957 -0.073429085 1.0496126 -0.99001336 0.14361215 0.46700662 -1.3995205 0.57655126 0.61972487 -0.25885862 1.1464722 0.22269893 0.019739911 0.3392547 0.58486307 1.307073 0.3600632 -0.77726805 -1.3025768 -0.69299597 1.3045567 -0.10904758 -0.3799462 -0.6021836 -0.31896538 -0.21490493 0.81368285
721 0.18040222 -0.39547214 -1.9874296 0.6874242 -0.7019885 -0.1827574 -0.33137727 0.6838096 0.31995726 0.89419186 2.0574286 -0.49836615 -0.01688275 0.87191415 -0.93921316 0.40620753 0.28550452 -0.7804664 0.3127143 1.3417573 1.609514 1.3695319 0.101196334 -0.20204896 0.33661103 0.14204581 -0.3626756 -0.039826233 -1.6649605 -0.928122 -0.999537 0.36396676
357 -0.3833711 -0.9028185 -0.586804 1.4365621 -0.15443353 0.22670946 -0.27686706 -0.038873877 0.35907808 1.0976919 -0.24908748 0.57199144 -0.7618223 -0.37958074 -0.21528561 0.98556525 0.8813011 -1.5209377 0.6736966 0.9623703 1.6939411 1.003872 -0.68975717 -0.8002279 -0.4460878 -0.81007 -0.15158483 0.37864822 0.4425483 -0.74906486 -0.6082708 0.2960909
742 0.742256 -1.5052323 0.75184774 2.4327765 -0.67441726 -0.5201074 -0.4982378 0.5811313 -0.87461287 -0.07290167 0.2637673 -0.67540866 1.1024551 0.51173615 -0.43359017 0.1894694 0.5764844 -0.9344067 0.037137717 0.11999535 0.98196685 0.62981427 0.16951682 -1.3479397 0.5895224 -0.22279736 1.6419533 0.4907704 0.59132737 -1.0563439 0.2730226 -0.36888206
571 -0.91857845 -0.47984192 -1.8687574 0.7859655 0.8266923 -0.93038607 -1.1886212 0.43478218 -0.97308284 0.31512702 0.91416234 0.055053927 -0.48901245 0.7764934 0.029015403 0.119137876 0.32699388 -1.6344157 0.678916 1.2275776 1.575005 0.23832251 -0.27793017 0.6511023 0.87516326 0.8037717 0.16015254 0.3801126 0.97340775 -0.113208316 0.45622778 0.58644456
293 1.0401284 -0.9530983 -0.84451294 1.7527645 0.8816186 0.21067883 -1.3903219 -0.04438815 -0.4924105 0.61971784 0.746519 0.5510505 0.6775064 -0.16167535 0.27536815 -0.4408684 -0.10998589 -0.88074696 0.565727 0.50768805 0.6821846 1.0737332 -0.25773883 -2.1638126 0.3860473 -0.4993953 -0.048040695 0.32719114 -0.35637656 -2.1473088 -0.2662017 1.0545704
98 1.29934 -1.0085831 -1.325519 1.206419 -0.29878554 -0.9488064 -1.3377007 0.16663909 0.02669965 -0.02736079 0.4766515 -0.5302887 0.2987842 1.2270796 0.06232678 0.6201149 -0.33263367 -1.3883969 -0.20809068 1.2919394 1.9541696 1.3442037 1.4053144 -0.3788917 0.5870021 0.5718833 0.7033701 1.6602352 0.09631951 -0.24895905 0.029333696 -0.5706922
372 0.0072386526 -1.8313947 -1.1128554 1.5100836 -1.25982 -1.8923278 -0.7062945 0.22937559 -0.80856055 0.33288392 1.0375733 -1.6779284 -0.03933786 0.46514273 -0.41282406 0.77079004 -0.32496658 -0.471172 1.5821868 0.83986175 0.49618483 0.659643 0.0025770396 -0.1766292 0.21410248 -0.3717907 -0.44644284 -1.4307549 0.22884409 -1.3060277 0.87509304 -0.81649977
909 -1.1841221 -0.1364375 -0.39403248 2.1064346 0.5431873 -0.5993099 -0.3249579 0.51438284 -1.480522 0.124154896 0.29580852 -1.0077099 0.6611854 0.65132964 -0.71203613 0.44077396 1.4074975 0.291238 0.37596935 1.9991915 1.3407843 0.32873884 0.60274434 -1.0387266 0.8807665 0.39634 0.060021844 0.6507615 1.0063053 -1.7627524 0.6838381 -0.55696905
534 -0.18593313 -0.52215064 -0.4219245 0.020668224 0.19177802 -0.28406647 -0.8815837 -0.4726588 -1.0447282 0.46700075 0.8853663 -0.38602096 -1.1531498 1.4099824 -0.6415476 1.5631388 0.16031893 -1.2613015 -0.15034069 0.84547645 2.4814694 1.581425 -0.04761013 -0.5206794 -1.3306617 0.68516606 -0.95184296 0.4623097 -0.11478467 -0.2842971 0.5566861 0.6677084
300 0.9168632 -2.050366 -0.056523737 1.0955188 0.74216306 -1.2145343 -0.7424241 0.21945314 -2.457954 1.2206026 0.654604 -0.50830257 -1.086262 1.2959789 0.0861595 0.98041314 -0.8164559 -0.5869601 -0.29080018 1.0392996 0.23120172 0.12893917 -0.046443947 -0.6546002 0.8482778 -0.69067353 0.71827245 -0.35410297 0.045046125 -0.47573903 0.098419435 0.03666545
743 -0.29228067 -1.3076413 -1.1148574 2.1530201 -1.2839352 -1.1847107 -1.4252738 -0.96221805 -0.7549141 1.2681328 0.4701681 0.067654036 -0.5191704 1.4000558 -0.93038595 0.91840386 0.81711787 0.6101228 -0.14091444 -0.11638354 0.6720656 -0.030947125 -0.626983 -1.7044665 -0.6279337 -0.056796078 0.23706102 0.45763808 0.19320215 -0.55546844 0.22648989 0.20722276
929 0.40656033 -1.2365797 -2.255981 1.5296854 1.3670207 -0.33233225 -1.4444788 -0.3040654 -1.1233104 0.57612497 1.553642 -0.51010317 -0.6478909 1.2901781 0.08892953 0.017496109 0.050151445 -0.05802409 0.05353484 -0.69124216 0.83394694 0.7556784 -0.90606177 -1.131098 0.026664233 -0.9958753 1.1017809 -0.32695425 0.34164336 0.0694323 -0.35773858 0.55386543
353 -0.4115162 -1.8365341 -1.2065239 1.5160897 -0.38720262 -0.13354711 -1.3764502 0.8169567 -1.6184556 0.5828349 0.81039816 0.16649759 0.5477612 -0.7081051 -0.7907511 0.15728137 1.4724286 -0.79167926 0.35703668 -0.14608437 0.276625 0.5403558 -1.1639651 0.26940677 -1.2760075 0.30842948 0.49784613 1.4415547 0.1961993 -0.9384671 -0.31258094 0.72931165
93 -0.88943356 -1.4835371 -0.78202593 1.344884 -0.54550695 0.88549894 0.08240675 0.10966527 -0.2172192 1.1739157 -0.32207143 0.7223049 -0.95768684 0.77139497 -0.5634084 0.024827737 0.54273903 -1.2418479 0.24006204 0.60618454 1.255218 1.0975676 -0.50211996 -0.56527394 0.08300509 -0.16918913 0.6267135 0.27698267 0.53627044 -0.4219526 -0.4328968 0.12503088
539 -0.44302547 -0.92549455 0.56932634 0.91671526 -1.2867553 -0.41707847 -1.1526192 0.5065417 -0.50210834 1.3504275 0.52652425 -1.0841212 -0.9770562 1.3550173 -0.22952724 0.67744076 0.55465084 -0.4773263 0.2796777 0.5256737 0.82220745 1.2832153 -0.41361487 0.029033989 0.6389638 -1.1094905 -0.4082217 0.64904857 -0.5676892 -0.47126082 0.47810647 1.7491657
529 0.89132327 -1.9675021 -0.08479928 1.0631675 0.76165867 -1.1509551 -0.73698014 0.23434307 -2.3836722 1.2244557 0.60697675 -0.5349678 -1.080325 1.2740471 0.053003002 0.9762843 -0.81629646 -0.66266483 -0.25234884 1.0419632 0.25018558 0.10816998 -0.04225912 -0.65106106 0.85193735 -0.71536005 0.7464144 -0.36100906 0.035579987 -0.44826117 0.077810846 0.07637319
960 -0.41521478 -0.4093079 -0.101302706 1.2060869 1.0998663 -0.46734482 -1.2605484 1.4499215 -0.45913836 0.6344562 -0.14386393 -0.737926 -1.4057281 0.09294244 -0.82222116 -0.006022326 0.30154625 -0.62422866 0.0009386999 0.77720094 0.43641853 0.7859232 -0.8333967 -0.6547993 0.39929175 0.08270299 0.13900147 1.31157 0.40425524 -1.5533544 1.3727639 0.38340122
925 0.15185936 -1.2249249 -1.2592659 1.4898701 1.5263513 0.17748845 0.7855758 -0.6204361 -1.4315218 0.49602312 0.92699546 -0.8545258 -0.40490785 0.3361289 -0.26031104 0.816579 -0.36462444 -0.16402772 0.2717353 1.7806116 0.838721 0.9258066 0.07050366 -0.35294858 -1.1941348 -0.37996823 0.7021252 1.3947847 0.048080124 -1.286042 -0.09630998 0.3582673
500 1.3177679 -0.5743103 -1.7869213 0.484245 1.0511353 -0.110360034 -1.0001614 -0.019538643 -1.2484128 1.1571735 1.3039205 0.10659775 0.2817306 0.22083828 -0.94685066 0.4367639 0.7463158 -1.145399 1.2758458 -0.45005542 -0.32582077 2.426749 0.20806074 -0.4805149 -0.49449125 -0.56942505 -0.15821928 1.2634863 0.6255711 -1.0636477 0.09589923 0.008301492
723 1.1837265 -1.3773563 -1.6416926 1.6749318 0.7086293 -0.11122956 0.57251143 0.35086486 -1.6175174 -0.052639168 0.701157 -0.6527684 0.010373038 0.45543462 0.44912976 0.26127964 0.13938197 -1.0483975 0.1061316 0.5694819 0.7060174 1.0193123 -1.2404772 0.45707563 1.198217 -0.05006281 -0.62054783 -0.48237833 0.29527366 -1.3392912 0.19200954 1.4574262
188 1.0781517 -0.6937457 -0.71046937 1.7824751 -0.25689292 -0.03054448 -1.4835203 -1.1946992 -1.2219864 -0.004220079 0.24931148 -0.50257796 -0.57205856 1.2256 0.68938774 0.17523567 1.1878263 -0.6021765 0.16310267 1.4114914 0.7018577 0.5285612 -1.1806277 -0.74918836 0.13866346 -0.34730652 0.4369347 1.0945252 -0.08678449 -0.5338283 -1.097332 0.4593089
867 -0.5968213 -0.92274576 -0.51087844 1.0345528 0.4280843 0.41366145 -0.8820924 1.183559 -1.2846708 0.5586817 0.69445497 -1.7951487 0.63727087 0.40793347 0.09575325 0.6499608 0.10070477 -0.32059523 0.63775855 0.69592005 1.2698742 0.009001265 -0.5610411 -0.9758022 -0.7425947 0.69559765 -0.4285793 -0.18410124 -0.3141586 -0.36005434 0.14818984 1.0515722
538 0.22704613 -1.2622584 -1.0389093 0.65459853 1.2829952 -0.4624326 -0.51262635 -0.2000223 -1.0251651 0.17622414 0.7430574 0.6418495 -0.27642497 0.5656203 0.28299993 -0.3330298 1.4204352 -0.4675854 -1.0159303 1.1883678 1.8117498 1.549678 0.017713822 -1.4233092 -0.7582769 0.030506019 -0.20313558 1.4974287 0.38578308 -0.6455446 0.19033228 -1.0699805
760 -0.70297754 -1.3737785 -1.1985972 0.521575 0.4495045 -0.58177066 -0.938178 0.90540814 -1.3671744 0.08014258 1.066958 -0.9922354 -0.39244005 0.7943321 0.25732285 0.27286696 1.8419629 0.1249064 0.87627864 0.34690168 -0.19599693 1.0723004 -0.7575485 -0.6094976 1.234462 -0.37024876 0.71908635 1.1954573 -1.5216694 -0.8777452 -0.22757544 -0.21562181
43 1.0558048 -0.95102495 -0.8878524 1.7594007 0.89754057 0.19983931 -1.4003614 -0.10288325 -0.4835956 0.6697361 0.77190244 0.5365861 0.6894251 -0.11649567 0.29814836 -0.4468681 -0.085418075 -0.9464267 0.58579856 0.48343313 0.72448593 1.038853 -0.2080113 -2.184259 0.3429089 -0.49125227 -0.043805227 0.32034922 -0.37304106 -2.1013284 -0.2448496 1.088365
522 -0.30277568 -1.2642497 -1.0563658 2.1550298 -1.2698485 -1.1514431 -1.471757 -0.94988596 -0.708266 1.2675802 0.44193304 0.0684018 -0.5196192 1.4204175 -0.97564054 0.98125654 0.8013589 0.5779356 -0.16136234 -0.06846353 0.6583014 -0.090702556 -0.6230519 -1.6654938 -0.6314926 -0.02176862 0.24434716 0.42330045 0.16671933 -0.5126707 0.2604076 0.2575845
219 1.2921946 -0.9754409 -1.2775862 1.2016287 -0.3273453 -0.9227043 -1.284661 0.15849154 0.08786325 -0.0326197 0.40284336 -0.49728414 0.20161593 1.1888905 0.028701674 0.6023354 -0.2775376 -1.400635 -0.19178848 1.3066603 1.9532832 1.3829868 1.3573942 -0.3913585 0.5050455 0.5378795 0.68416774 1.6784594 0.1351722 -0.3034495 0.05102453 -0.5463039
553 -0.8795142 -0.4069959 -1.7650652 0.8687921 0.9111368 -0.8578294 -1.145311 0.49871007 -0.9320138 0.30838335 0.9636065 0.041858234 -0.49750108 0.7845636 0.07509084 0.17901191 0.25328723 -1.6223189 0.70104635 1.2829229 1.5316209 0.20517968 -0.27462158 0.62972087 0.9097632 0.7933617 0.2515057 0.32437375 0.9397949 -0.0900673 0.48923516 0.61277854
797 0.025462592 0.25671548 -1.4638728 0.4881388 -0.40269753 -0.3855004 -0.5175659 -0.87822276 -0.8532994 0.24740103 1.4190902 -0.12760153 0.66321576 1.2306876 -0.39927092 0.9547637 1.0821764 -0.70371 0.5135556 0.6383353 0.5274456 1.4876713 -0.83242834 -0.23640239 0.28938982 0.5792255 1.1385635 0.23086461 -0.3041879 -0.8226406 1.1232879 -0.11364852
728 0.7079397 -1.2308986 -1.2453158 1.3413246 0.62266845 -0.39656898 -0.46884468 0.054914676 -1.1638529 0.30101398 -0.29217514 0.046203624 -0.92641944 -0.28877667 -0.32157466 1.257533 0.8533943 0.44522327 0.49436286 0.02111063 0.7210295 1.5050313 0.007382169 -0.62727535 -0.5079315 -0.053596605 -0.0701042 -0.663097 -0.15421475 -0.69130266 1.058787 -0.064255096
843 1.019931 -1.488275 -0.08421394 1.2749742 0.60816824 -0.3313862 -1.4134798 -0.79279906 -2.3999412 0.8380035 1.3059616 -0.6026322 -0.033303488 -0.1768106 -0.6464242 0.41445532 1.7072786 -0.79706717 0.21691248 1.1985527 -0.21616127 0.58875877 0.22801587 -0.23044881 -0.39047158 -0.19853894 0.72845954 -1.2343081 0.5004413 -0.9737812 -1.1675147 0.39356968
385 1.0391488 -1.4570881 -0.08714983 1.3537669 0.6099588 -0.33383834 -1.3843232 -0.7346776 -2.425007 0.81058 1.3023496 -0.55094403 -0.029590184 -0.18616736 -0.6097949 0.38944003 1.6813291 -0.78919774 0.20934509 1.2216179 -0.18536569 0.6189041 0.23227042 -0.21058331 -0.42588046 -0.16080546 0.7685522 -1.2620786 0.49445197 -0.97193784 -1.1715055 0.4147497
322 1.3554404 -1.0205047 -0.45072562 0.9779783 -1.0498433 0.105800144 0.20024213 -0.2467874 -0.23214294 0.6848838 1.2708043 -0.54215175 0.19966921 0.20278658 -0.7601331 1.1225595 -0.1517013 -0.8339317 -1.1787531 1.1759062 1.2233831 1.4615525 -0.39758322 -0.75075567 -0.0785247 -0.3332786 -0.7298868 1.3166991 1.4495151 -1.4162928 0.4284681 1.0678087
868 -0.7142408 -1.1052005 -0.94121814 1.295721 -0.5304845 1.1096101 -0.14385983 0.060454432 -0.3089086 1.3639957 -0.4710601 0.7426907 -0.52807677 0.42014763 -0.17660472 0.5194822 0.7958057 -1.0985204 0.39158425 0.6467862 1.1898077 1.0011536 -0.28612164 -0.8996437 0.2764911 -0.7562742 0.6460572 0.5258966 0.69410944 -0.51746064 -0.06342614 0.2605672
86 -0.9283904 -0.4670195 -1.8331473 0.8661781 0.86468923 -0.8329899 -1.15323 0.4664714 -0.9258623 0.26485446 0.9037739 0.10347487 -0.5002686 0.80956733 0.04765854 0.12444152 0.31607074 -1.6953528 0.6570694 1.2865431 1.5550283 0.18545794 -0.33051482 0.67023677 0.91046745 0.78778404 0.22700569 0.37323868 0.9594078 -0.1490612 0.42302048 0.59662396
291 -0.8103007 -2.0450895 0.1759131 0.65631354 1.0166378 -1.3361199 -0.7530199 -0.019890843 -1.0847061 -0.65184885 1.2182977 -1.1490105 0.14306009 0.59942544 -0.39662236 1.2590591 0.89341867 -1.5387211 0.85504955 0.7608299 0.24172312 1.5245265 -0.5209381 -0.47248632 0.7462747 -0.46810782 0.8507783 0.39175338 0.4611857 -0.17690744 1.0287455 -1.89404
436 0.6740737 -0.79928386 -0.4049669 0.09251827 -0.8016943 -0.6220797 -1.3355896 -0.20571697 -1.2798294 0.7272092 0.67366564 -0.5679754 -0.14538419 0.9514433 -1.8439957 -0.18974008 0.32069635 0.5958424 -0.46849787 1.320306 1.9447094 1.1121273 -1.4817265 -1.6513885 0.82208407 0.62520134 0.7937673 0.21112561 -0.3612061 -0.47026208 -0.34988904 1.3273736
164 -0.8118399 -2.082384 0.1852874 0.6296245 1.0371403 -1.3433353 -0.78733367 -0.076909445 -1.0851836 -0.6567659 1.1972572 -1.147482 0.11074 0.62863624 -0.4290963 1.2712256 0.8978801 -1.5515741 0.8930658 0.7262498 0.24359263 1.5578815 -0.5142056 -0.46031183 0.7034752 -0.4936286 0.8610685 0.4566084 0.44090044 -0.1559971 1.0601782 -1.8940127
641 1.580049 -1.2676945 -0.50606436 1.1211643 0.16925004 0.2706135 -1.4665959 1.3804893 -0.2272901 0.109409474 -0.22071302 -1.32728 -0.059040185 1.8227857 -0.6522379 0.5167049 0.3903892 -1.148026 -0.3639952 0.5867206 0.5976287 0.09567973 -1.6187197 -1.2802836 0.44898903 -1.0517367 0.37735713 -1.107375 -0.41102934 -1.5481449 -0.32388097 0.69441384
619 0.39564887 -1.0925905 -0.6728016 0.43986446 1.6246706 -0.1206707 -1.4052514 -0.47826564 -1.304751 0.07593674 0.24620968 -0.277028 0.45584795 1.4887222 -1.6836346 1.8110832 1.2427219 -0.26913342 -0.072764225 0.58514 0.7158695 0.29486153 -2.1338427 -0.16868436 -0.9626712 -0.41657388 0.23830904 0.27709833 0.6684648 -0.7346411 0.6213694 0.5685468
247 0.34063905 -1.105047 -0.59080416 0.45554465 1.5466279 -0.13208811 -1.4434267 -0.55294806 -1.2972304 0.033850666 0.2797072 -0.28223655 0.48915803 1.3875083 -1.6910124 1.7900923 1.3167907 -0.2996892 -0.043867525 0.55983025 0.70835865 0.28438225 -2.1163738 -0.19988953 -0.9384852 -0.43707192 0.17840415 0.28673533 0.66093194 -0.6886105 0.5677032 0.53192365
701 0.32029873 -0.1461245 -1.458739 0.89598334 -0.08735586 -0.41440883 -1.2380892 0.25188032 -0.0116242925 1.1690274 -0.6410817 -0.89722157 -0.59394497 1.8227344 -1.2628697 0.6461345 1.4592462 -0.93549514 0.3034006 1.7296559 1.5526233 0.4603305 -0.18533318 -0.8712063 1.927813 0.0702184 -0.42292017 0.044461597 -0.7089851 -0.15333094 0.68826604 -0.1904747
403 0.77569133 -0.8394602 -0.45826742 0.07014856 -0.7954715 -0.61662847 -1.2848173 -0.15161695 -1.2359424 0.7391997 0.6940651 -0.5885995 -0.11159159 0.976291 -1.7730628 -0.12306261 0.2898859 0.5788478 -0.43250817 1.2949281 1.9317746 1.015476 -1.5591295 -1.628002 0.8142765 0.60421646 0.7505066 0.18726146 -0.33557713 -0.48214218 -0.41609943 1.3435011
374 0.29363978 -0.16733293 -1.4582906 0.8919337 -0.08790011 -0.49386764 -1.177896 0.28565186 -0.071143605 1.2400912 -0.6692196 -1.0017674 -0.6230144 1.847364 -1.2285343 0.52294254 1.4709266 -0.98996246 0.27229357 1.6990558 1.5700521 0.4698493 -0.17587769 -0.8012167 1.9119178 0.041470997 -0.4017301 -0.00856962 -0.699798 -0.2136462 0.6293619 -0.23063761
377 1.5120559 -1.3131471 -0.510461 1.0300492 0.17754474 0.21131755 -1.4348552 1.3301169 -0.23847304 0.036288608 -0.17713304 -1.3200842 -0.071629345 1.8307875 -0.6134628 0.55873096 0.38748312 -1.1421447 -0.33210605 0.5372536 0.5790234 0.19249652 -1.6024702 -1.2981282 0.48517844 -1.051645 0.40575135 -1.0913718 -0.39443314 -1.51959 -0.3573846 0.7189376
586 -0.40680966 -1.4786038 -1.0473827 1.0771588 -0.5499722 0.7788741 -0.72974473 0.215863 -0.70639336 -0.99964106 0.3763698 -1.9951744 -0.33856404 2.5661056 -0.2775722 0.1760821 1.2055514 -0.20718853 0.021802193 0.053053968 1.5171804 1.4878937 -0.67219806 -1.2734355 0.14158459 -0.86788505 -0.058477182 0.9673699 0.07670959 -0.3936953 -0.00066103076 -0.54181075
716 0.9674691 -1.0744381 -0.9091507 1.7784963 0.20573021 -1.7821698 -1.1050448 -1.6767492 0.086399294 0.94829696 0.2760853 -0.91195846 0.31651804 0.32806885 -0.46696338 1.3126119 -0.082940824 0.17514268 1.3084213 1.4861906 1.5085065 1.4545078 -0.87122256 -0.73142105 0.39736685 0.038581554 0.1960838 -0.14288141 -0.41037345 0.42159244 -0.10327527 -0.05803239
448 0.11340729 -0.7116947 -1.5084369 1.1604258 0.2291875 -1.0888796 -0.9464138 0.97726786 -1.1442261 -0.33734974 0.839784 -0.99694 0.398009 1.7980223 -0.8664615 0.18836705 -0.80219704 -0.96228546 1.0688587 -0.66108346 2.3603468 1.3765436 -0.34484288 -0.28520498 0.72330964 0.40782094 0.4640261 -0.9741634 -0.19457875 -0.9620533 -0.9573693 0.3242127
397 0.7365939 -0.66118103 -1.5595384 2.3863516 -0.37804985 -0.8606373 -0.45659122 1.2849933 0.15085346 -0.6695244 -0.0936604 -0.672753 -0.577541 1.0090067 -0.35745835 0.18896206 -0.67768055 -1.1420616 0.058954068 0.9011761 0.7110518 2.047851 -0.4619234 -1.0919343 -0.5717557 -1.0205592 0.90237164 0.07429478 1.5878835 -0.58297867 0.04298034 0.65129167
280 0.70181435 -0.6533989 -1.5807419 2.4586334 -0.42452395 -0.85934764 -0.45726016 1.2497976 0.19351302 -0.69662124 -0.13915588 -0.653502 -0.48845765 0.9482641 -0.2527922 0.24033312 -0.7022951 -1.0583197 0.0032187277 0.9004451 0.67282605 2.0636575 -0.55134684 -1.0966884 -0.51267 -1.07584 0.96303546 0.053669147 1.5426711 -0.5364524 0.045686726 0.6980561
266 0.028626308 -0.047676407 0.26005515 1.1487331 1.0672867 -0.8920751 -0.9244789 0.08086186 -1.6656373 0.705409 0.29514575 -1.1457989 -0.9848401 1.1247104 0.7871804 0.6520637 1.8221937 0.06947416 1.0136867 0.051985025 1.8341345 0.4083744 -0.8899708 -1.3877239 0.37432644 -0.18437651 1.1130772 -0.57541496 0.85668665 -1.058521 0.33924577 -0.018486826
142 0.7271846 -1.0258348 -0.36263338 0.24945842 -0.17085664 1.2186109 -1.8219855 1.54262 -1.3784063 1.65642 0.27741474 -0.80334055 -0.8597321 0.8357784 -0.7531932 0.12752159 0.24091631 -0.065404475 0.86225706 0.49285838 1.2682515 1.4620739 0.8241927 -2.3472488 0.6561649 0.16634783 0.68620867 0.34527674 0.21497665 -0.85680765 0.44713286 0.072068125
346 0.11944082 -1.1821434 -0.70059437 1.0630305 0.19845967 -0.49128655 -0.6935352 0.30310237 -0.6410635 0.6315148 0.7306843 -0.41117114 -0.11743248 0.7244222 -0.33279616 0.603846 0.7278389 -0.63748497 0.30540437 0.7674367 0.8040558 1.0409691 -0.3659256 -0.6173515 0.14917538 0.10287927 0.17173466 0.21931146 0.2933717 -0.8777026 0.086326614 0.24856688
492 0.70956385 -1.0919292 -0.38503698 0.24158593 -0.13101308 1.1895542 -1.798106 1.5236013 -1.3675823 1.6203066 0.2711581 -0.8211123 -0.8437392 0.84356517 -0.72163904 0.15208167 0.2082855 -0.017210215 0.87966025 0.47298166 1.234589 1.4882619 0.7842918 -2.333626 0.62305677 0.16018301 0.6473211 0.39831516 0.18182744 -0.8510386 0.43925685 0.06421922
281 0.07131183 -0.7339256 -1.5250796 1.1326367 0.2645518 -1.0634757 -0.9096192 0.94849443 -1.0797895 -0.352696 0.82543504 -1.0290585 0.40093172 1.8172282 -0.87500536 0.25669125 -0.81189066 -0.940261 1.062849 -0.6464767 2.3889828 1.3515621 -0.35245672 -0.2581593 0.7646587 0.37338674 0.5074043 -0.99786997 -0.20565777 -0.9906823 -0.9146744 0.35827735
652 1.0142609 -1.0659508 -0.8644505 1.8290194 0.13495813 -1.7331432 -1.0356734 -1.6367584 0.08269124 0.9538766 0.28374138 -0.8949673 0.30792052 0.32857704 -0.45777526 1.3028969 -0.09796464 0.19629173 1.328472 1.5267874 1.5468246 1.4531944 -0.82501334 -0.8095298 0.35117164 -0.030287335 0.2465959 -0.18100278 -0.4269808 0.42886674 -0.16183034 -0.06805721
334 0.17287639 -1.2210058 -0.6827253 1.0266044 0.28698736 -0.49316952 -0.74312836 0.27013323 -0.6801673 0.6681836 0.7418283 -0.435727 -0.25289977 0.6991136 -0.28260648 0.6402807 0.6933717 -0.59476286 0.30425343 0.7667029 0.7761124 1.0623233 -0.3602345 -0.64598465 0.19254686 0.047900796 0.205772 0.22340317 0.3192439 -0.8135422 0.057757236 0.2984272
464 0.14043432 -1.2286536 -0.63650715 1.0281155 0.28921625 -0.5430644 -0.680111 0.25066724 -0.69948786 0.66026783 0.70621943 -0.41737512 -0.2305517 0.67409366 -0.2669737 0.61549807 0.7222517 -0.62053776 0.28026497 0.77515996 0.8027204 1.0277354 -0.4122446 -0.6463752 0.20024025 0.06658161 0.16269048 0.23390323 0.32999772 -0.86562896 0.07777183 0.2847952
665 -0.1771208 -1.7412996 0.22871292 0.23146002 -0.01283397 0.010695939 -0.12808664 1.6769642 -1.9685768 -0.08395341 1.0560855 -1.113784 -1.1573212 0.6349385 -0.627775 1.4358679 0.81887734 -0.961184 1.9822417 0.9058075 0.8106721 0.3250889 0.83299094 -0.39644453 0.70467556 -0.111629635 1.1009322 0.23664741 -0.19444835 -1.0346493 0.68290466 0.39758477
313 -0.1265883 -1.7840093 0.23557764 0.23736832 -0.014011042 -0.022996966 -0.22400075 1.6807956 -1.9409285 -0.06419001 0.99433696 -1.1942179 -1.1603597 0.6988116 -0.6359721 1.4838752 0.8441346 -0.9610878 2.0004802 0.9592522 0.8179633 0.34960392 0.83297324 -0.46995214 0.6841986 -0.12256187 1.1558765 0.24635322 -0.24481076 -1.014577 0.6636641 0.37040386
216 0.0030262747 -0.02275658 0.25344822 1.1518137 1.0651951 -0.9115689 -0.9020191 0.08899938 -1.6364613 0.77245796 0.28794736 -1.1912242 -1.0284412 1.0604147 0.7706541 0.7176384 1.8089361 0.042225603 1.0426502 0.038839504 1.8483002 0.38758096 -0.8362654 -1.4428492 0.46966588 -0.1578984 1.1442876 -0.559445 0.826819 -1.0988251 0.3244166 -0.06437313
759 -0.40763766 -1.5563704 -1.0665572 1.0860144 -0.57742625 0.74888486 -0.7928595 0.21247508 -0.72384995 -0.9738897 0.39666918 -1.9368522 -0.29143214 2.5788429 -0.2616253 0.18019204 1.2028515 -0.29657516 0.030412909 0.04884583 1.504397 1.4726744 -0.59700155 -1.3203675 0.23681007 -0.80038774 -0.08750091 0.9455207 0.1150951 -0.34331754 -0.017285258 -0.5143157
657 0.12809236 -1.2015895 -0.67864424 1.0319057 0.1448001 -0.48929283 -0.7037537 0.31595042 -0.63864225 0.62398285 0.7649399 -0.41255334 -0.09879875 0.7306177 -0.35299492 0.6249268 0.7210672 -0.64113855 0.28560263 0.7267337 0.8272521 1.0499016 -0.32526183 -0.6490018 0.15624535 0.09269912 0.13025935 0.2694708 0.24893954 -0.83094627 0.07450285 0.21905676
451 0.793335 -1.3982534 -0.7834534 1.6059525 -0.83495873 0.6595914 -0.75419253 0.7745177 -0.5574625 -0.47377148 0.6549714 0.13680959 -0.5458348 0.6877527 -1.289462 1.8230094 -0.15764444 0.6785248 0.32690653 1.263861 1.5553515 1.6659888 -0.29467246 -0.31386155 1.1571906 1.1581304 0.3675792 0.6113273 1.2254559 -0.15192766 -0.12314266 0.47153914
700 0.1606965 -1.487171 -0.8062176 0.59139854 0.4102233 0.24824241 -2.3564286 1.1507846 -0.280302 0.177404 0.25571388 0.4654792 0.80449754 1.2101307 -0.97705746 -0.08166947 -0.10871019 0.23117068 -0.33576262 0.9843047 2.0459816 2.263911 -0.20512125 0.20528944 0.66139907 0.05563151 -0.84952587 0.079749785 -0.22990038 -1.0694734 0.1990882 0.3114315
155 -0.0053930976 -1.527929 0.65802944 1.08115 1.0987009 -0.104265176 -1.062285 0.31026453 -0.71709603 -0.35613376 1.3157955 0.448951 0.98535234 1.2173696 0.7091758 0.20696752 -0.064491965 -1.2228593 -0.34186822 1.3800436 1.8697817 1.5183161 -1.2198353 0.24590866 0.17066546 0.07974327 1.0209355 0.8737507 0.73721033 -1.0889279 -1.1948842 0.28743598
844 0.027202029 -1.5703816 0.59852165 1.0664132 1.0530908 -0.11081983 -1.0609188 0.32859206 -0.7930176 -0.32962897 1.3602035 0.48682147 0.9548163 1.1066337 0.67515266 0.13425618 -0.045987748 -1.1726025 -0.308394 1.434987 1.8174342 1.4846336 -1.2162907 0.28455144 0.25754088 0.027375681 1.0331653 0.8530889 0.69652593 -1.0378544 -1.1746043 0.2512318
215 -0.16497356 -0.86502504 -1.5603664 1.8655233 -0.8864996 0.5426441 -1.0716358 0.32047227 -1.3985606 0.3338312 1.2197944 -0.22347091 -0.46431845 0.4223545 -0.9819293 1.6145567 1.5735092 -1.4150687 1.0945369 1.0016217 0.10093931 -0.3130211 0.33650413 -0.1325898 0.7893137 0.44823346 -0.7691105 -0.838111 -0.11007705 -0.7192857 -0.15735985 0.2154291
309 0.5311879 -0.3632949 -0.3157654 1.8433518 -1.2459148 -0.03417397 -0.4421864 1.0735824 -0.45600447 0.41039056 0.64803904 -0.21388784 -0.3430823 1.1727118 -0.77459157 0.22061987 1.8179711 0.0902682 -0.20230846 1.1080312 0.6648044 1.563587 -0.7456584 -2.0702786 0.6005331 0.17854229 -1.5143495 -0.36519766 0.7993645 -0.26384905 -0.66999424 -0.07640086
493 1.2672112 -0.554178 -1.767135 0.46027207 1.0370532 -0.1865004 -0.98471355 0.0089171035 -1.2569891 1.1425639 1.2747533 0.0884435 0.24740878 0.24555804 -0.9855389 0.42812216 0.71738213 -1.1668626 1.2915766 -0.4011683 -0.30736908 2.4481015 0.21125562 -0.46148974 -0.48660955 -0.6284195 -0.16365723 1.2803184 0.64806956 -1.08196 0.13841902 0.018782388
389 -0.11782562 -0.868139 -1.5352426 1.899824 -0.8964205 0.48333263 -1.1231884 0.32184422 -1.3835161 0.31656072 1.2448381 -0.21044141 -0.47117698 0.40640494 -1.0135143 1.6203443 1.6105635 -1.4491917 1.1620377 1.030001 0.10696973 -0.30316895 0.30314055 -0.10097282 0.7632894 0.5290653 -0.7657603 -0.82312196 -0.11394943 -0.67664945 -0.17721139 0.20193459
625 -0.034124963 -0.9426543 -0.5023956 0.62626946 0.29916027 -1.1319377 0.05408054 0.9433894 -1.6503385 0.006362508 1.0003352 0.51717615 0.11130697 1.888872 0.041366987 1.7103465 1.1185862 -1.4430892 1.404452 0.26336747 1.1500441 0.55955946 -1.0408014 -0.41216335 -0.9303862 0.17811377 -0.46530032 -1.3526849 0.78694445 -0.86068195 0.011595689 -0.6068803
617 0.035842817 -0.96052027 -0.46757403 0.5590508 0.29828194 -1.17882 0.007659916 0.9889694 -1.6432804 0.04134895 1.010055 0.54974276 0.098798975 1.9510852 0.028943187 1.7150531 1.1379501 -1.4733568 1.4611506 0.25693965 1.1988074 0.49423918 -0.99387234 -0.39659142 -0.91493315 0.13436858 -0.44449604 -1.3874317 0.81471884 -0.9113987 -0.00037965507 -0.6313988
392 1.2034186 -2.1329317 -0.59149206 0.7091461 -0.4925116 0.40795577 -0.16546682 -0.7706132 -1.0226015 -0.22126782 1.0346498 0.43459946 0.23183613 0.893819 0.17244998 1.4400611 0.12873903 -1.17633 1.0511452 1.5083389 0.8368169 2.2628226 -0.17124137 -0.30771837 0.14271331 -0.8358974 -0.4177714 0.28813887 0.8945274 -0.18801694 0.66879475 -0.9119012
222 0.11534428 -1.5275635 -0.753026 0.6390267 0.44901776 0.28984684 -2.3883336 1.1837302 -0.28790814 0.14285022 0.23111476 0.44230843 0.80358464 1.2347913 -1.0172441 -0.1116249 -0.08019431 0.27451026 -0.28817144 0.99732023 2.1333644 2.2608693 -0.23389944 0.22643946 0.6410081 0.02379205 -0.8396317 0.088242106 -0.25906852 -1.0564135 0.20038137 0.3200467
943 1.1743336 -2.123907 -0.6263724 0.6842874 -0.5715627 0.3989934 -0.09063577 -0.7998699 -1.0665034 -0.26317456 0.99259794 0.43856266 0.16716951 0.9956998 0.27386072 1.4565526 0.12835975 -1.2356287 1.0711192 1.5698475 0.92184037 2.2453012 -0.20228349 -0.3224283 0.10860616 -0.79350656 -0.39887995 0.2739451 0.94986707 -0.21021383 0.6191802 -1.0009753
0 0.0687333 -1.1689472 -0.18678677 1.7382462 -0.029574681 -0.642507 -2.0298738 0.13769996 -0.29984203 -0.2863711 1.2026484 -0.25689855 -0.40214708 0.61593455 1.4618969 0.57263 1.4417706 0.036092874 0.7400304 -0.49521428 1.7070976 1.5554588 0.42879796 -1.4997761 -0.35663658 -0.4618887 -1.2133417 0.45591912 0.27734044 -1.5373485 0.025431337 -0.5140251
301 1.0986124 -1.0398805 -0.8522551 2.438519 1.8541023 0.7968722 -0.76568645 1.0850037 -0.6899607 0.6622015 0.844916 -1.4040823 0.19106607 0.00012816802 0.59182054 1.483936 0.52151895 -1.0675095 -0.0122536635 0.652906 0.7952088 0.63722765 -0.32322592 -0.4849576 0.8188422 -0.40218905 0.9438085 0.05414577 0.47905388 -0.21977423 0.18016289 -1.173284
456 0.8561551 -0.5111919 -1.007843 0.2692569 1.2799889 -1.592457 -1.8582143 -0.053622 -1.0378649 1.5702081 0.93586355 0.8194289 0.9960111 0.39272183 -0.036298096 0.4586854 0.6189653 -1.2186328 0.24486262 0.46505237 2.0431201 1.0199572 0.40403408 -0.7264267 -0.29007292 0.40700343 0.2582261 -0.7548496 0.52681834 -1.2447804 0.93383074 -0.82295585
478 1.0705975 -1.0522419 -0.8468776 2.4226248 1.8326838 0.7438518 -0.7292262 1.1057097 -0.7061694 0.6526622 0.79085124 -1.4721391 0.19254708 0.043992117 0.58863777 1.47841 0.59065366 -1.113691 -0.003472796 0.6767524 0.82412535 0.6458904 -0.3125539 -0.48570916 0.7805749 -0.43799698 0.96801865 0.03104945 0.46487924 -0.18541701 0.1417322 -1.1957024
472 0.7992437 -0.42581627 -1.0301819 0.24388526 1.2210313 -1.5689982 -1.8505082 -0.038032234 -1.0341523 1.5577742 0.9046555 0.8002412 1.0038465 0.34159106 -0.07420112 0.43645594 0.64224046 -1.2027928 0.28837892 0.43800962 2.0289993 1.0098996 0.40959913 -0.7156114 -0.30421397 0.3240076 0.24179967 -0.7884124 0.4533376 -1.2014358 0.86954045 -0.83613455
63 1.7762477 -0.85761005 -1.3008472 1.9065733 -0.042403243 -0.0635121 0.08815038 0.06530923 -0.5923656 1.218171 0.6833184 -0.7538727 0.99725294 0.112577975 0.16893381 0.18701276 1.2525772 -1.242344 -0.3309728 -0.6176044 1.67395 1.8890005 0.06797702 -0.42688763 -1.0844713 0.65194494 0.9944424 0.7939974 -1.0847441 -0.7448275 -0.3484991 0.644546
942 0.55350304 -0.307871 -0.30771372 1.8387332 -1.3116479 -0.012862376 -0.41859362 1.1173941 -0.4311668 0.39432293 0.55925375 -0.14225487 -0.3313508 1.1616684 -0.78027064 0.21753581 1.8643564 0.14447746 -0.245298 1.1352626 0.59881413 1.5717584 -0.78877145 -2.142412 0.61460817 0.07920161 -1.5743732 -0.33994862 0.8410697 -0.2620705 -0.6719065 -0.09991788
548 0.083457194 -1.0769867 -0.13508944 1.7780877 -0.0120488005 -0.62571245 -2.0205083 0.160407 -0.32299516 -0.29201135 1.1766471 -0.26101893 -0.31757855 0.5689415 1.4339416 0.6479527 1.4017385 0.06212143 0.80336696 -0.5455977 1.6789783 1.5407102 0.38894963 -1.5247171 -0.40228313 -0.41717502 -1.1288698 0.44951382 0.29462802 -1.5388557 -0.003518969 -0.4962405
666 0.20760491 -1.482596 -0.2292749 0.6962273 -0.09115984 -0.024314618 -1.6371492 0.97441894 -1.2110385 -0.19671337 1.4900274 -0.6714987 -0.5190333 0.82811826 -1.088046 1.5941824 0.40400916 -0.5812651 -0.18656802 -1.030963 1.2072814 0.8797009 -0.64035964 -1.9747955 -0.66023517 0.3791694 0.67440784 0.34616417 1.5444347 0.20774847 0.36255583 -0.38782266
327 0.24697879 -1.4877937 -0.21024299 0.72463983 -0.12352499 0.011785573 -1.6432439 0.99020994 -1.2336922 -0.21891803 1.5469576 -0.63896006 -0.46875808 0.8833466 -1.0831252 1.6420211 0.31853873 -0.51576895 -0.1519732 -1.0964689 1.1876484 0.8726982 -0.6112536 -1.9949149 -0.69339746 0.39878824 0.6464791 0.3543223 1.5327784 0.24429472 0.3559348 -0.4016861
110 -0.76759976 -1.8319794 0.047420003 1.6210935 0.300919 0.876636 -0.20302501 0.0048596305 -0.5120085 0.9123851 2.1661003 -1.2433075 0.25653803 0.74390376 -1.0243143 0.29914266 0.5359399 -0.95066357 -0.33758485 0.06364179 1.4426737 1.254591 -0.44981194 0.05663174 -0.8667493 0.021852387 0.5378386 1.6532732 0.77852255 0.30446628 1.2288835 0.37139633
536 -0.788236 -1.8178661 0.034684774 1.5959902 0.29134968 0.90106845 -0.2164518 -0.08589387 -0.5518286 0.85714954 2.2129004 -1.2555836 0.27392247 0.76910955 -0.9881 0.23395942 0.5499474 -0.9825331 -0.36169475 0.09954322 1.4473441 1.2718295 -0.43196914 0.0060986523 -0.84121966 0.07106101 0.53613675 1.7299896 0.8589052 0.32893082 1.2290369 0.38709232
566 0.8304551 -0.9406369 -1.1514993 0.66338354 1.5501093 -0.10452944 -1.254081 -0.27273905 -0.4977049 1.6101906 0.61536527 -0.4319074 -0.22036403 1.1034292 0.14095135 1.0016059 0.7328651 -0.11431755 1.0155175 1.6366608 0.09275052 0.47320917 -1.6399572 -1.5773207 1.2851266 -0.32977915 -1.0606304 0.32809463 0.8036307 -0.4295576 -0.061226636 -0.8372253
484 0.82826924 -1.449783 -0.739636 1.5952576 -0.84858966 0.6524353 -0.7871512 0.8399678 -0.62873054 -0.45012107 0.61963594 0.18529955 -0.56775284 0.6721765 -1.2874852 1.8874136 -0.1503171 0.65647525 0.31261674 1.2497995 1.5245402 1.6838789 -0.27868533 -0.3490007 1.1998371 1.244068 0.35046494 0.6301521 1.224597 -0.18594617 -0.16352306 0.48725948
779 -0.681475 -1.2043005 -0.8635163 2.7073069 -0.29790327 -0.05765787 -0.97999287 0.27780068 -0.12975666 1.0172328 0.6914647 -1.1077306 -1.2780312 1.4564217 0.6574965 0.94437057 0.77292114 -0.72135806 0.3679895 -0.06546033 -0.056541163 -0.26785696 -1.2682649 -0.26107177 0.8661703 0.8392023 0.45777407 -0.6954458 0.61888427 -1.4321496 1.1536429 1.4677161
