966 100
15 -0.283073 -0.002805444 0.1749021 0.10766182 0.120535046 -0.11164923 0.3987834 0.26870248 -0.6228293 0.0814413 -0.053053826 -0.09485362 0.2057618 0.2106584 -0.15585302 -0.45092952 0.52700627 -0.29422235 -0.6266885 -0.6843319 0.07444316 0.3007047 0.45474258 -0.1271367 0.07852933 0.16120365 0.01480026 -0.059263296 -0.42207047 0.0091791125 0.26294723 -0.19041291 0.26986 0.20926885 -0.95778894 0.32357284 -0.055279423 -0.7019776 -0.27475706 -0.25500023 0.024450708 0.06083606 0.29124737 0.2202579 0.292146 -0.20772891 0.08889498 -0.22206232 0.12842058 0.077676505 -0.029291874 0.11163091 -0.22820649 0.1914159 -0.111638434 -0.23259453 -0.027464915 0.19913812 -0.111427166 -0.24519709 -0.13700548 -0.4263903 0.23707625 -0.29318532 -0.2573932 0.4336606 0.19078757 -0.05841789 -0.550499 0.17846303 -0.4113423 0.2379753 -0.08989088 0.15399322 -0.16867366 -0.036585473 0.108417556 0.3339961 -0.48297223 0.32589996 -0.0074281273 -0.7190322 -0.30153993 0.30360022 -0.3533809 -0.46242556 -0.04832867 0.3989296 0.17739089 0.123916835 0.29549518 0.2688386 0.13048014 -0.0008485311 0.546169 0.3702104 0.11972016 -0.0105903605 0.31794584 -0.11277988
468 -0.39576164 -0.12033204 0.29145133 0.26924968 0.5231803 -0.23922753 0.0905926 0.009294364 -0.5444543 -0.037788633 -0.0290268 -0.22191386 0.1698091 0.13307838 -0.10743148 -0.11652003 0.5452369 -0.18176222 -0.356676 -0.772478 0.2138454 0.31955245 0.3083537 -0.07715218 -0.07533994 0.19910873 -0.30021733 0.11977418 -0.63883597 0.29766232 0.5546636 -0.060528193 0.046787594 -0.1684826 -0.74123466 0.5156236 -0.1024509 -0.707295 -0.12246737 -0.36901426 0.31844616 0.2898848 0.21119337 0.0688098 -0.06817246 -0.29005715 0.015283472 -0.20082846 0.13448298 -0.1364452 0.010284106 -0.08873867 -0.19044079 -0.011682731 -0.54577976 0.08814262 -0.04937778 0.36464444 -0.14469908 -0.4241215 0.051583268 -0.17671196 0.18700653 -0.2514499 -0.76600325 0.7943203 0.2821839 0.3591841 -0.38444516 -0.14623408 -0.1861358 -0.032564215 -0.15594597 0.17756383 -0.15999015 -0.29285902 -0.015291371 0.35370612 -0.53690225 0.09015585 -0.4512667 -0.51317996 -0.21157521 0.15122987 -0.022972012 -0.3049518 -0.037949875 0.36270916 0.27546373 -0.052375518 0.11151728 0.07786948 -0.058696207 -0.18345942 0.6246522 0.41070846 0.28202865 0.07719474 0.14686738 -0.085574344
399 -0.3668577 -0.1672051 0.16042535 0.19685254 0.40848857 -0.20246124 0.5006571 0.19984604 -0.48440957 0.11463985 -0.28120086 -0.20102645 0.41893485 0.02034383 -0.16080318 -0.34951982 0.4605373 -0.023484025 -0.4023276 -0.67713696 0.14962815 0.26285756 0.3402733 0.1206134 0.24036121 -0.09665789 0.029260717 0.1489265 -0.55491376 0.37066266 0.44914028 -0.320903 0.24155411 0.13796444 -0.7486269 0.28949937 -0.14862302 -0.6419079 -0.11044023 -0.31270698 -0.040597018 0.058774468 0.32308683 0.41556218 0.26494664 -0.1002122 -0.18250239 0.057778668 -0.14373006 0.19458127 0.33981165 0.007030004 -0.16036308 -0.096595675 -0.52037233 -0.28746223 -0.0056384476 -0.024612878 0.14650077 -0.23830111 0.12372875 -0.51037633 0.32708806 0.014332057 -0.39436042 0.1426476 0.21054813 -0.0835933 -0.6308708 0.1039376 -0.3417211 0.38683942 -0.42269886 0.28703612 -0.34823278 0.01798821 0.13099912 0.26759684 -0.6058187 0.49066886 0.31970918 -0.4828735 -0.3100298 0.23453318 -0.23423554 -0.5768902 -0.011810134 0.5199313 0.49887365 0.087466165 0.26481226 0.060717717 -0.0015168848 0.120446764 0.4130692 0.38309827 0.37977192 0.19827999 0.18259633 -0.24725392
644 -0.53821915 0.12967874 0.12765534 0.18792105 0.1919951 -0.005596581 0.42007807 0.2262238 -0.5888079 0.1296185 0.19894779 -0.3696581 0.21420361 -0.08065484 -0.2927918 -0.35470933 0.70614475 -0.36314738 -0.27627596 -0.5516745 0.09165641 0.32675818 0.4164684 -0.11941988 0.12168523 0.15107608 -0.18912509 -0.12212897 -0.6417735 0.3144099 0.54555386 -0.24678627 0.18210146 -0.001990737 -0.63847345 0.6379661 -0.25503454 -0.70714355 -0.15564053 -0.33216846 0.029763678 0.15917961 0.25107834 0.27078414 0.2772862 -0.0013383194 0.10362152 -0.120673634 0.052276686 -0.1155555 0.31201217 0.20835029 -0.49673823 -0.060092982 -0.5361175 0.12112476 -0.17111836 0.13377222 0.25233784 -0.40428987 -0.025335418 -0.33979538 0.2439582 -0.12497121 -0.6842899 0.39730167 0.038136996 -0.13565819 -0.7801057 0.09310106 -0.2048118 0.21527027 -0.0761202 0.42726183 -0.31570417 -0.19681157 -0.1442127 0.32836226 -0.45001027 0.041869983 -0.4168671 -0.5467865 -0.17419033 0.20198604 -0.20718697 -0.487759 0.055119917 0.41611102 0.2799344 -0.0851276 0.25049832 0.03105092 0.04096389 -0.059357427 0.45156306 0.1913119 0.23683427 0.008182197 0.26324922 -0.050969638
555 -0.35876352 -0.06609277 0.0501889 0.1889088 0.31877849 -0.12231856 0.35601225 0.30723915 -0.6608765 0.14749686 -0.052536547 -0.17995052 0.33687526 0.042068213 -0.021809544 -0.40300894 0.38931623 -0.39478168 -0.4143641 -0.72711 0.34475517 0.16262536 0.18244714 -0.03524119 0.052944094 0.20886724 0.084690996 -0.14866552 -0.48400888 0.34043345 0.45970094 -0.373765 0.19365671 -0.055897575 -0.5707933 0.3753687 0.014386163 -0.7090924 -0.13238055 -0.46196464 0.3198999 -0.10354157 -0.09151889 0.134333 0.43453985 -0.20296365 -0.09557942 -0.045097485 0.32542536 -0.07038559 -0.017963324 0.12893693 -0.37747684 -0.048459616 -0.37418395 -0.28913793 -0.1179688 0.35496393 -0.1018607 -0.4260343 -0.17285839 -0.45050582 0.31462637 -0.04107507 -0.46321988 0.36841494 0.18952008 0.068731405 -0.50013494 0.1832502 -0.3198479 0.18477547 -0.2983704 0.4477757 -0.34035593 -0.24535856 0.013377684 0.12673528 -0.4342481 0.18135455 -0.38150328 -0.9034512 -0.05690764 0.33658418 0.042025615 -0.4667174 0.025834044 0.3381304 0.07626953 -0.058256492 0.25861868 0.2046392 -0.14278026 -0.20007811 0.5429088 -0.13657576 0.44555718 0.344944 0.26158226 -0.18593627
82 -0.7014457 -0.15278353 0.46933654 -0.20962484 -0.21488664 -0.44059685 0.5567802 0.28408644 -0.39184114 0.4290555 -0.14659756 -0.35839584 0.19862054 0.24265108 0.07438654 -0.38147724 0.11006061 0.11402532 0.037734594 -0.2857753 -0.07522536 0.29801598 0.016159333 0.15643749 0.18197584 0.2449991 0.034037307 -0.786345 -0.63474745 0.06777329 0.6515258 -0.28203934 -0.106394805 0.064533055 -0.34358075 -0.11467387 0.3304941 -0.5914027 -0.04965419 -0.37466988 0.43392202 -0.4511194 -0.016431822 -0.14806466 -0.047145195 -0.41747925 0.17917734 -0.031152377 0.011925985 -0.17198619 0.23522341 0.28638086 0.14534922 0.3622094 0.16315196 0.20057532 0.03428206 0.26967943 -0.09462737 -0.17945004 0.2798099 -0.26011077 0.17773339 -0.45492566 0.007660293 0.22504388 -0.070113 -0.37700438 0.048774783 0.41351578 -0.1360099 -0.2661124 -0.037501875 0.26891267 -0.078211024 0.13769202 -0.20889108 -0.12745683 -0.08588362 0.5710015 0.3007775 -0.74190557 -0.4502209 -0.08146122 -0.34883255 -0.33916932 -0.037661113 0.25923118 0.6808747 0.76420474 0.33856675 0.1786837 0.012604793 0.512878 0.26659212 0.064566664 0.1431508 0.022949586 -0.087543495 -0.5214891
410 -0.34714088 -0.13795772 0.24122494 0.18149243 0.27081293 -0.16337125 0.36438468 0.36980549 -0.6194464 -0.02018625 -0.15001835 -0.28228605 0.33748075 0.190723 -0.10192626 -0.50541264 0.5130778 -0.09626212 -0.49106434 -0.6009794 0.09044144 0.29453236 0.3213501 0.16859843 0.029905532 0.19694485 -0.13477847 0.00274161 -0.58169204 0.07217444 0.5089919 -0.15267809 0.19052505 -0.028446056 -0.7565119 0.13327795 -0.32538804 -0.37071177 -0.26204747 -0.21925314 0.27837768 -0.11104631 0.2486695 0.20835772 0.3375958 -0.24581382 -0.09624579 -0.2874351 0.1259321 -0.20646939 0.045508843 0.020746864 -0.37895975 0.16886795 -0.19437516 -0.14050648 0.02965895 -0.17365365 -0.009663154 -0.393081 0.08569236 -0.5280315 0.29007837 -0.13246621 -0.33228958 0.34406066 -0.10936722 -0.098800026 -0.72698516 0.14299159 -0.48289806 0.2192914 -0.14088248 0.27302602 -0.22750835 -0.11453868 0.17355217 0.2545221 -0.39661554 0.36938214 0.03323881 -0.66407955 -0.38862988 0.08167091 -0.20924672 -0.52401793 -0.043083847 0.2985933 0.26826382 0.36632445 0.3354968 0.22833697 -0.03186207 0.0084386505 0.5723031 0.3861781 0.41337833 -0.1401583 0.31258082 0.057048336
200 -0.25172716 0.08588537 0.14873725 0.34515527 0.35263124 -0.08074827 0.49596065 0.34584254 -0.6549881 -0.053208012 0.019033205 -0.013596286 0.5128955 7.22497e-05 -0.07287725 -0.17068572 0.5159148 -0.5388178 -0.29687026 -0.7666052 0.18764517 0.17170656 0.09440815 0.005468834 -0.0034346553 0.3203093 -0.121935464 0.009928136 -0.61728436 0.13180718 0.5376869 -0.0859635 0.22613104 -0.16969906 -0.5218915 0.18238877 -0.012710542 -0.70490664 -0.26730657 -0.40624338 0.28094798 0.22593553 0.16484387 0.17427933 0.34203535 -0.40999907 0.1813845 -0.32697827 0.16363855 0.20671992 0.26477998 -0.04598983 -0.30351168 0.20797195 -0.28573528 -0.023702025 -0.011904352 0.18006097 0.10506364 -0.16814932 0.17604858 -0.2201989 0.37900397 0.22173566 -0.39013684 0.54356027 -0.007149529 -0.11850581 -0.50863326 -0.17890956 -0.52642524 0.2978975 -0.30113867 0.20506053 -0.15765664 -0.16435426 0.034766484 -0.0746383 -0.30722594 0.27072057 -0.24886474 -0.56483275 -0.54380286 0.06921875 0.090399675 -0.45270142 -0.12344934 0.5947287 0.15809949 0.1565707 0.37701368 0.31639832 0.059789453 0.2324168 0.69748276 0.36512324 0.098449446 -0.06904762 0.41649002 -0.017096668
838 -0.6839928 -0.009514984 0.18055019 0.22502665 0.29652733 -0.021504989 0.57796764 0.1780354 -0.57635105 0.20610052 -0.22030023 -0.16380268 0.41841692 0.029333053 -0.18446979 -0.04806472 0.41186064 -0.32324222 -0.38139263 -0.81234086 0.24145234 0.37547708 0.21438605 -0.035051767 -0.006569519 0.2967935 -0.074480124 -0.07642093 -0.43735936 0.25678137 0.48028925 -0.24218746 0.2649119 0.1326502 -0.58915645 0.32591003 -0.06977566 -0.52813834 -0.18348634 -0.429143 0.1736389 0.057474624 0.046632968 0.14619906 0.28766555 -0.16065104 0.22520798 -0.29003322 0.15620469 -0.031824157 0.02258398 -0.04817087 -0.2544088 -0.08172251 -0.33622298 0.07756137 -0.019893803 0.18562105 -0.08107848 -0.18074213 -0.13003674 -0.34338564 0.32470116 -0.22276941 -0.48639923 0.5436092 -0.047450658 0.096585765 -0.6781826 0.05705175 -0.3142202 0.18643008 0.006238862 0.3799672 -0.32102704 -0.047419187 -0.13240302 0.31853706 -0.55409 0.19274443 -0.3679499 -0.6852152 -0.259398 0.06149023 -0.0727438 -0.4364477 0.10629589 0.26363808 0.2433999 0.12505847 0.17396723 0.24234158 0.10887078 -0.041207325 0.5583466 0.18138818 0.37705517 0.13698255 0.22395696 -0.13690896
6 -0.38260525 -0.13565762 -0.05361377 0.14555581 0.4751707 -0.0815623 0.32874507 0.35199836 -0.50926614 0.021580445 0.050271906 -0.32000756 0.4743687 -0.06224867 -0.046986297 -0.18269724 0.73623425 -0.32240286 -0.45139393 -0.68373424 0.17762822 0.3307249 0.20508619 -0.13155699 0.17464617 0.09707216 -0.1543065 -0.117323935 -0.5339746 0.2192292 0.52686584 -0.22663856 0.48918796 -0.099965796 -0.72940135 0.49795806 -0.10089288 -0.51766557 -0.31986663 -0.45020583 0.31875423 0.06997656 0.07378352 0.36441925 0.13704774 -0.22607939 0.19172643 -0.22141944 0.011345039 0.21641012 0.028724002 0.17144074 -0.45511404 0.090415604 -0.3297173 -0.21405365 -0.15645495 -0.0029132315 -0.016712084 -0.33538294 -0.1494223 -0.3883991 0.17764851 -0.16138585 -0.6124781 0.5889979 -0.08480989 -0.009674428 -0.5471221 -0.031463895 -0.5277474 0.1516061 -0.1371801 0.242805 -0.2666069 0.016201515 0.08141788 0.21690556 -0.375004 -0.0044010105 -0.2097741 -0.6688801 -0.15858762 0.24026 0.18628766 -0.44838303 -0.1024514 0.23621728 0.17860654 0.13369687 0.27730808 0.38035905 0.074101396 -0.029724255 0.4031939 0.32528403 0.11056555 0.012609141 0.22727846 -0.004277402
68 0.27032083 -0.11753496 0.4750479 -0.45133772 0.013122044 -0.35929304 -0.21545726 0.7429369 0.048256863 0.13212797 0.03198802 -0.36365592 0.00046697332 -0.37240714 -0.30930844 -0.23949954 -0.27864254 -0.5848243 0.3732535 -0.8044524 -0.008212936 -0.30717838 0.30969274 -0.10330466 -0.22473317 0.056415252 0.15122171 -1.4008 -0.14394604 0.20315658 0.09434456 0.089978226 -0.07368117 0.5953794 0.016230825 0.4568227 -0.4415535 -0.25652564 -0.5022908 -0.58240706 -0.4146306 -0.08131373 0.21780187 0.3808686 0.21221896 -0.22677065 -0.40646985 0.0116527835 0.37454578 0.5202071 0.36591014 -0.38049257 -0.08926023 -0.09949264 -0.41556555 -0.016485713 -0.24935809 -0.1484844 -0.43679556 -0.5029836 -0.1958724 -0.05903179 0.038119204 -0.049149252 -1.3652136 0.20466235 -0.20578738 0.1871011 0.101953246 0.07506155 0.33775112 0.075864434 -0.26106963 0.5131902 0.16248773 0.14655603 0.4642144 -0.022934977 -0.18544447 0.22366808 -0.25458983 -0.13782452 -0.5910992 -0.060083784 0.14653808 0.47750434 -0.52766335 0.6694347 0.04239275 0.49765536 -0.051051743 0.38870028 -0.38220063 0.049184784 -0.40079674 0.23885638 0.057862546 -0.60541505 -0.6351513 -0.20676099
65 0.26598427 0.13105866 0.5333151 -0.045045912 0.276672 -0.32600972 -0.052358564 0.8107758 -0.022460701 0.44823924 0.020596486 -0.36726958 -0.5910056 -0.26835352 -0.3765946 -0.39805117 -0.20247318 -0.583164 0.19662778 -1.0429809 0.038782466 -0.16175093 0.14665511 -0.23692048 0.058908936 -0.047384877 0.13148656 -1.1511313 -0.02454842 0.011770564 0.1578624 -0.039716635 -0.19536906 0.6095149 -0.012101916 0.31953427 -0.518363 -0.29606274 -0.72900695 -0.6555367 -0.5010135 -0.15005983 0.18647939 0.3024851 0.08239342 0.15170124 -0.108213685 -0.012132161 0.4040009 0.57269454 0.5904758 -0.753002 -0.039532244 0.12673678 -0.4662431 0.017759169 0.076850414 0.0054203826 -0.44064227 -0.46065482 -0.17757004 0.096992396 -0.037338804 -0.29824752 -1.0823612 0.20946088 -0.09831944 0.20291834 -0.013716658 0.12563087 0.1923381 0.057436086 -0.35975245 0.37359834 0.03043579 0.5175615 0.05195811 0.32407126 -0.026765157 0.289249 -0.32998383 0.13731816 -0.5734423 0.029187167 0.22105376 0.29133627 -0.5727813 0.40272966 0.06624212 0.55063045 0.13133554 0.12600596 -0.27794734 0.25920177 -0.20330173 -0.22309716 -0.29543212 -0.5933311 -0.5364637 -0.058122788
820 -0.3062169 -0.22365154 0.32137823 -0.04714225 0.29201776 -0.14388567 0.642142 0.20510392 -0.60986143 0.24303555 -0.16701032 -0.3862256 0.17771126 0.33602363 0.30784693 -0.46095458 0.26266962 -0.031686973 -0.087735504 -0.82416195 0.08021827 0.4673071 0.43129456 0.19294061 -0.0702023 0.21623862 0.10101495 -0.2204935 -0.7832512 0.089625046 0.36399603 -0.25129247 0.20016322 -0.0460757 -0.5432684 0.07412431 0.22110215 -0.6069304 -0.20365192 -0.24911799 0.09440999 -0.19223337 0.15818638 0.29568237 0.0062207724 -0.46587488 0.5269387 0.06741258 -0.030944508 -0.05961941 0.106584534 0.10728852 -0.27496335 0.33656472 -0.31253132 -0.38152727 -0.049419694 0.3412966 -0.034271516 -0.17366755 -0.24792518 -0.5665887 0.3887656 -0.28606847 -0.051562306 0.14066878 -0.25155923 -0.11670658 -0.45007005 0.33798194 -0.2718882 0.10644506 -0.19680496 0.3603292 -0.16601121 0.01401785 -0.18089053 0.19837898 -0.28718457 0.3459669 -0.08397448 -0.49467668 -0.30712134 0.043224208 -0.1519689 -0.44088444 0.39619875 0.08319481 0.5832732 0.26805001 0.5362317 0.122707315 0.13259633 0.42987806 0.40977395 0.15537184 0.37925115 0.07888243 -0.054640405 -0.0173263
864 -0.70648026 0.9079094 0.17281303 -0.23562858 0.35455573 -0.942826 -0.28020996 -0.015948284 0.048646078 0.07413009 0.027882641 -0.11940093 -0.776508 -0.15476473 -0.33102253 0.24827144 -0.18811524 0.35153714 -0.09918387 -0.8626403 -0.16647404 0.6890839 0.22671714 -0.19504207 0.52634025 0.16309436 -0.37602413 -0.7887401 -0.26786506 0.07286502 0.3552302 -0.08583947 0.19379766 0.18653102 0.15046342 0.4829154 -0.25207776 -0.09006467 0.022462226 -0.7274726 0.14022064 -0.14977327 -0.030194584 -0.5053276 -0.072427735 -0.28846827 -0.04827252 0.22718918 0.34993774 0.2609788 0.13120139 -0.13334936 -0.24302426 0.5456694 -1.055914 -0.29423228 0.6587852 -0.15316021 -0.47694695 0.044207733 0.48239937 -0.07569445 0.027921498 0.08035901 -0.09301103 0.24319825 0.35346124 -0.21209349 -0.4593824 0.726541 -0.5354823 0.17083283 -0.17294106 0.30753973 0.15607798 -0.0860421 0.13571176 -0.015490554 -0.5182241 -0.6444475 0.71962017 -0.5188445 -0.49385798 0.19450547 0.117063954 0.061280847 -0.45088157 0.72862685 -0.28616184 0.08151257 0.41712436 0.58177185 -0.09812622 -0.2455943 -0.23134795 0.022322575 0.22880106 -0.6849027 -0.17858763 0.49814743
649 0.04145104 0.61958164 0.4198717 -0.20048572 0.19669382 -0.44929153 -0.09554981 1.1901292 0.3507224 -0.24478517 -0.14404161 -0.32189298 -0.5701163 -0.68099904 -0.32454246 -0.23451526 0.54725295 -0.31880185 0.05708577 -0.82492524 0.5613991 0.59339094 -0.2818076 0.027075378 0.25578356 0.017396197 -0.2807044 -0.7555678 -0.14969158 -0.31109524 0.016858011 -0.4247231 -0.22341108 -0.09603597 -0.57895863 -0.07800271 0.4104475 0.07215593 -0.13186024 -0.6539116 -0.003738371 -0.15351857 0.8663252 -0.24422918 0.29819497 0.0469145 0.25474596 0.17731239 0.17353137 0.5707033 -0.07713539 0.06478293 0.11223672 -0.5625636 -0.8541945 -0.22552298 0.013805338 -0.3958146 -0.2495458 -0.6908182 0.13275793 0.061996207 -0.47204402 0.07053287 -0.115541905 0.69501144 0.114686176 -0.8685114 -0.14346282 -0.16481528 -0.5776733 -0.6107026 0.5620696 0.1263812 -0.0025128108 -0.16754988 0.19412863 0.006184748 -0.3113107 0.23270576 -0.09510685 -0.49028262 -0.6592273 0.36215723 0.053238362 0.7176506 -0.17380443 1.0504643 0.43468925 0.17177342 -0.0018734534 0.4772434 0.4569305 0.23024644 0.25928804 -0.3669162 0.3522572 0.28908002 -0.5696619 0.5548115
905 -0.2969439 0.09147119 -0.21836212 -0.6109534 -0.090620905 -1.0408471 -0.23640175 0.6065313 -0.33231667 0.46249738 -0.3853744 -0.62713516 -0.16099237 -0.11593279 -0.18121462 -0.55111957 -0.013289689 -0.417526 0.9282151 -0.1615718 0.2471254 0.18619442 0.13183562 -0.063366316 0.080528274 -0.13108085 -0.18932445 -0.36715668 -0.438921 -0.44458553 0.28984833 -0.6196309 -0.12163899 0.5960035 -0.14462793 0.7766497 -0.002600526 0.025040973 -0.40055895 -0.43490407 0.21307552 -0.09754337 0.1578959 0.7172708 0.28557014 0.5081575 -0.16329645 -0.35795015 0.15393692 0.42920136 -0.15394878 -0.35877892 0.46048358 0.67234313 -0.26863357 0.14026165 0.3600966 -0.45814982 0.21838735 -0.45535085 0.68497056 -0.30335015 -0.34013802 0.25664932 0.06535726 0.23277247 0.10392587 0.39160055 -0.27338132 0.64269537 -0.34632865 -0.2918726 0.38493887 0.31231904 0.5180679 0.17379963 -0.17160675 -0.037193224 -0.58601093 -0.22730446 -0.39784807 -0.80194575 -0.2667353 0.4796922 0.6304923 0.4678922 -0.12012935 0.53503627 0.40959117 -0.27246743 0.2514172 0.23952827 -0.03869106 -0.52790153 0.094218574 0.68746436 0.18205497 -0.07324103 -0.097974 0.013116775
483 -0.029224494 -0.089205295 0.44563082 -0.24934861 0.4135674 -0.23051147 -0.115138255 0.8902231 -0.033768073 0.35431314 -0.14925551 -0.36004505 -0.40922067 -0.36420342 -0.7112299 -0.53897905 -0.32072133 -0.51362354 0.14644702 -0.9876653 0.33365452 -0.18100418 0.23873338 0.048571736 0.058588833 0.18754788 0.538954 -1.2299883 -0.12811537 0.08710208 0.32584718 -0.15221843 -0.07745808 0.23949224 -0.10272468 0.28504342 -0.48692277 -0.13982289 -0.42727545 -0.56905955 -0.3770276 -0.12376501 -0.010900851 0.2721272 -0.10046817 0.06545775 -0.2808747 0.016526619 0.41911653 0.4729524 0.39165878 -0.613873 -0.050206434 -0.008482143 -0.30300215 -0.01583776 -0.1470385 -0.35788253 -0.63416564 -0.23821716 0.079494625 0.059932597 -0.117721885 -0.25029412 -1.1433934 0.46478885 -0.09882169 0.18492268 0.019116165 0.15789025 0.36398512 -0.002905375 -0.38191792 0.20587257 0.22477634 0.29279217 0.3894564 0.13691099 -0.3436956 0.31343788 -0.17384498 -0.017895933 -0.52965724 -0.17356679 0.19369616 0.26734087 -0.4645496 0.39310956 0.12327454 0.2578366 0.0699729 0.3841752 -0.28021517 0.27734515 -0.32937998 -0.001931256 -0.37938613 -0.50126797 -0.5124407 -0.05021011
123 -0.29575962 0.8927994 0.19451156 -0.4747378 0.32397026 -0.5544727 0.57226884 0.5555546 0.114264 -0.34716767 -0.20270684 0.11656704 0.3336285 -0.42489955 -0.08658253 -0.08607886 0.259704 -0.40541947 0.3022916 -0.45496014 -0.28156668 -0.03803012 -0.20410527 -0.34420758 -0.21365406 0.3684396 -0.038302492 -1.1190552 -0.9351856 0.11027594 -0.1506554 -0.27901062 -0.19279052 -0.054217376 0.08797518 0.85717046 -1.2932752 0.25909844 0.004876054 -0.4909738 0.15460527 -0.48016354 0.119733684 -0.20737116 0.111023344 -0.10534588 -0.47806188 -0.15000546 0.17032316 0.32657853 0.23205474 -0.11711677 0.20083673 0.069845445 -0.48061892 0.29388303 0.18861921 0.20082735 -0.47260535 -0.122086 -0.50199074 -0.5259579 -0.069604926 0.22352989 -0.4794394 0.16576208 0.46359664 -0.32280195 -0.042793714 -0.34977734 0.015829835 -0.09779095 0.12140513 0.48648456 0.54980636 0.2256808 0.30274236 0.64242095 -0.38645077 0.60352707 0.078831404 -0.11547072 -0.3799312 -0.04125599 0.7443099 0.6139547 -0.04278876 0.70898974 0.67425936 0.17755073 0.36835274 0.34501633 -0.021761697 -0.058615144 -0.26175356 0.26526496 0.22523828 -0.19027804 -0.19677274 -0.1281259
51 -0.22183819 0.2489684 -0.31591204 -0.6568151 0.124372505 -0.8621498 -0.3058755 0.4301743 -0.42768794 0.29247245 -0.19675542 -0.3486962 -0.21266894 0.1277031 -0.13950711 -0.7453229 0.1065726 -0.37951803 0.95742136 -0.1789102 0.39999595 0.13846748 0.10212308 -0.1926751 0.6269242 0.051142205 -0.3315347 -0.50616944 -0.52280825 -0.37886614 0.4354963 -0.13202234 -0.08383753 0.47266895 -0.0056581176 0.42893642 -0.20587236 0.28783834 -0.2953272 -0.5523865 0.20977934 0.027279988 0.25245455 0.59141743 -0.04904726 0.5015951 -0.2692447 -0.39593402 0.20022628 0.37602055 -0.022702258 -0.2811723 0.38255438 0.6689828 -0.21695706 0.40575442 0.38592407 -0.20189421 0.076445736 -0.67072624 0.49667066 -0.10846886 -0.090065554 0.15650025 -0.16123235 0.28363296 -0.0028270723 0.15315363 -0.24562122 0.5360413 -0.12188315 -0.59064925 0.3237332 0.3339997 0.60827017 0.09111407 -0.12378418 0.12707476 -0.39628392 -0.26547906 -0.52095693 -0.9289896 -0.440083 0.5936326 0.68723094 0.3125905 -0.15296148 0.6741573 0.09212535 -0.5043926 0.6982965 0.20956841 0.3262878 -0.059269205 0.3028209 0.43830198 0.19000553 -0.13396333 -0.26106748 -0.05122451
258 -0.35525903 0.08000543 0.05635936 0.23468657 0.5608319 -0.09779716 0.36005622 0.1531899 -0.36948872 0.10463939 -0.04254845 -0.09837055 0.3780811 0.06715693 -0.16652499 -0.40196407 0.5778479 -0.4532342 -0.39065373 -0.67578584 0.11581168 0.37729096 0.03334802 -0.19227993 0.03682906 0.18901998 -0.0958841 0.063805215 -0.6249077 0.41704953 0.50341386 -0.27880943 0.35972446 0.06269001 -0.7339516 0.54111844 0.088002026 -0.5788221 -0.3233671 -0.33493546 0.015171136 -0.014437571 0.2715339 0.33397242 0.17956793 -0.12577002 0.30966917 -0.34087026 0.012651832 0.13776836 0.08301829 0.13761291 -0.559944 0.17761242 -0.2643345 -0.20413464 0.09470334 0.088585325 -0.09255198 -0.49167088 -0.06392088 -0.31224266 0.27056453 -0.04524719 -0.64013857 0.5925064 0.007819899 -0.16123486 -0.6165779 0.047169033 -0.60996544 0.2601345 -0.14370874 0.33206943 -0.3283245 0.0036275394 -0.03205981 0.37924168 -0.35121158 0.10555589 -0.3981418 -0.67123514 -0.19512068 0.2904258 0.038081437 -0.34752315 -0.16460907 0.30990005 0.21788865 0.07657755 0.18554679 0.22494072 -0.14051495 0.112672575 0.38081765 0.32924634 0.13259077 0.14547046 0.060635865 -0.18270268
640 0.034539375 0.13618143 0.27530056 -0.067918174 0.32136583 -0.53847593 -0.013977603 0.91588485 0.32583842 0.35126886 -0.14504702 -0.15135464 -0.32960364 -0.25874385 -0.5821302 -0.4211631 -0.2587581 -0.27973855 -0.033117566 -0.6673211 0.35529542 -0.10544846 0.35831976 0.23616856 -0.10295535 0.18539463 0.27333114 -1.2292172 -0.24450241 0.08095658 0.14174734 -0.07914989 -0.11012564 0.5644273 -0.09429134 0.46683496 -0.6824009 -0.16044329 -0.53327036 -0.34938562 -0.16757216 -0.17767926 -0.10421419 0.22036909 0.13261594 -0.11071839 -0.3558939 0.12390862 0.34637234 0.62278014 0.5822651 -0.5968608 -0.07403823 -0.007375193 -0.36791393 -0.04798362 -0.10610551 -0.19645111 -0.5147474 -0.4777591 -0.16507266 -0.008300359 -0.27625737 -0.3967296 -1.0874838 0.40125954 -0.08622659 0.119539715 0.043192595 0.37982064 0.40424955 0.16041689 -0.4019954 0.2465932 0.111677766 0.52764505 0.46286377 0.26696086 -0.31320113 0.28064653 -0.48526248 -0.0011052168 -0.6677789 -0.10606464 0.36868012 0.45158207 -0.2907914 0.4212669 0.19065057 0.6812415 0.136744 0.29178545 -0.36563605 0.163698 -0.1656708 -0.015733888 -0.12488151 -0.45392957 -0.52343994 0.094608836
470 -0.2380244 0.0173822 0.1661547 0.37463853 0.41160655 -0.32442018 0.42212006 -0.14660253 -0.62798166 0.13352807 0.15604568 -0.03474123 0.49548295 0.13918118 -0.35374087 -0.17717761 0.52588683 -0.083194554 -0.38570198 -0.6406365 0.44986454 0.16860433 0.047371756 -0.15895613 -0.09425416 0.37050188 -0.13206875 -0.04374457 -0.4283616 0.24047193 0.55819255 -0.33042315 0.26227173 -0.02460115 -0.8690116 0.55232346 -0.29176322 -0.7958831 -0.36176917 -0.51766497 0.20140827 0.016653266 0.33140165 0.054857958 -0.055533174 -0.2641621 0.20321064 -0.26868019 -0.023585096 -0.07515295 -0.008099791 0.14943668 -0.3201076 0.01966866 -0.43753126 -0.073894255 0.04985748 0.33686408 0.034539744 -0.6760162 0.07074693 -0.088850215 0.20030276 0.37014148 -0.4455054 0.8158488 0.12690437 0.3567028 -0.49321324 -0.16751799 -0.17324188 0.23748133 -0.057846714 0.10462303 -0.21324 -0.33486348 -0.059098896 0.11334167 -0.19562672 0.062657245 -0.5012016 -0.6654085 -0.41610208 0.50895417 0.11830015 -0.01526162 0.0025037716 0.40590113 0.06479857 0.3054799 0.1293548 0.0334973 0.14593811 0.004027447 0.39065036 0.3843434 -0.05222051 -0.07099464 0.18558705 0.2064113
52 -0.82811606 0.090514615 0.28630093 0.041206293 -0.03921617 -0.27767757 0.59877235 0.48287854 -0.59165156 0.36076972 -0.36509117 -0.3344873 0.26781338 0.29678035 0.15530044 -0.09006401 -0.021596508 -0.17465493 0.11833808 -0.49169505 -0.059194572 0.38834697 -0.16859992 0.07481465 0.30154702 0.33375126 -0.16492103 -0.60856074 -0.39739123 -0.06543596 0.343908 -0.05327685 -0.07372456 0.06773999 -0.20953606 -0.033647235 0.14091201 -0.8253554 -0.34106076 -0.52846324 0.24193588 -0.3521791 0.018465512 -0.0645716 0.20778102 -0.47115982 0.42780775 -0.06380057 0.30123696 -0.19071947 0.14509232 0.13673866 0.073524304 0.5210374 0.13685746 -0.062336534 -0.069688134 0.16990334 -0.17279463 0.066238634 -0.07773436 -0.31100303 0.05619839 -0.3927616 0.0871945 0.008025803 -0.22188665 -0.1356642 -0.22040494 0.4617554 0.07477978 -0.12908663 0.052219283 0.33342552 -0.16938321 0.28231335 -0.22256501 -0.08236845 -0.07484996 0.45424652 0.1725372 -0.753341 -0.33525252 -0.24953331 -0.47458276 -0.30425134 0.29885894 0.5912433 0.9189319 0.48335662 0.21934128 0.22338878 -0.02740172 0.3233257 0.22349882 -0.09454773 0.20454262 0.11578509 -0.13954656 0.021061067
816 -0.057844896 0.11780962 0.579368 -0.46356148 0.24957065 -0.26715973 0.22788139 0.33008203 -0.1792042 0.69645834 -0.45441103 0.12730317 -0.15236905 0.07079809 0.3264542 0.036585893 0.093050905 -0.4225804 0.34845415 0.17490384 0.065365545 0.8367434 -0.069990486 -0.7707329 -0.08782569 0.2333208 -0.017853437 -0.9823376 -0.21202052 0.3516405 0.49645105 -0.45486715 -0.5162378 -0.07398999 0.10706003 -0.5117035 0.20366737 -0.46106297 -0.39634785 -0.6391721 0.1856193 0.32198423 0.33627173 -0.60654527 0.010665015 -0.51794934 -0.671333 0.26624933 0.011094191 0.27240536 -0.22058888 -0.13230866 0.24815083 0.5932667 -0.5129718 0.49678573 0.17446572 0.5669875 0.42581728 -0.58860976 -0.116212904 -0.29535878 -0.5315032 -0.16587533 -0.60803634 0.18879336 0.62174964 -0.32403195 0.34494254 0.50150555 -0.14742735 -0.34487703 -0.1948033 0.05884051 0.48313668 0.49799046 0.0851952 0.16491266 -0.88656604 -0.06252186 -0.058062017 -0.9902592 -0.54193914 0.37532765 0.28435993 0.34656325 -0.89595824 0.5956965 0.29558495 0.63127804 -0.14427036 -0.04091721 0.055439398 -0.05170376 0.1547079 0.35519123 0.14841494 0.110792026 -0.316849 0.65493435
193 -0.90218 -0.043041658 0.5781169 -0.094389156 -0.07716542 -0.5757326 0.31220025 0.8188533 -0.22176158 0.30667034 -0.032559954 -0.24081644 0.5121987 0.16393918 0.1641608 -0.31503382 0.096107535 0.03051883 0.26806498 -0.3014457 -0.20117965 0.30952334 0.10931572 0.12760016 0.14952108 0.30682874 0.14056714 -0.44093016 -0.61147684 0.07109264 0.7141318 0.09250325 0.11061462 0.020498108 -0.46220374 -0.046309296 0.22347532 -0.9140455 -0.34686399 -0.34198093 0.15358382 -0.3608259 0.44982424 -0.02518797 0.05687428 -0.51478744 0.29650027 0.17967272 -0.096779644 -0.30708998 0.58383423 0.36813474 0.024486005 0.36186066 0.008123237 -0.02924144 0.2096375 0.024214892 -0.2490074 0.12980324 -0.24595304 -0.16326348 0.19609657 -0.115339436 0.097707264 0.3656096 -0.26998472 -0.1668747 -0.034272987 0.42943588 -0.13167036 -0.20645575 0.02092101 0.0780416 0.07841981 0.26080167 -0.0042419517 -0.13267496 0.09047059 0.4974666 0.13200222 -0.59042054 -0.43324366 0.27118745 -0.2331163 -0.36654153 0.059257057 0.5045989 0.39478585 0.39767852 0.34362945 -0.12555258 0.23258328 0.09779769 0.4493186 -0.0019871108 0.35891828 -0.14602022 0.107430995 -0.24680367
463 -0.16965865 0.7628464 0.19166239 -0.27596018 -0.015512471 -0.16365388 -0.1897875 1.1157472 0.2748777 -0.059031393 -0.35258007 -0.052037172 -0.47652027 -0.6370135 -0.3159093 -0.31166846 0.31264293 -0.14794649 -0.008667194 -0.93627685 0.42837286 0.44235823 -0.0061721313 -0.23724853 0.34956586 0.021313159 -0.591799 -0.7462543 -0.15493847 -0.21948402 0.21237648 -0.3307911 -0.43662322 0.12224358 -0.45352784 -0.03021735 0.329031 -0.081186794 0.025629953 -0.8081176 0.054722954 -0.17759363 0.82986766 -0.22148465 0.26708013 -0.027061263 0.25333187 -0.053546384 0.28241026 0.30299503 0.25510064 -0.014743297 -0.038978547 -0.59952337 -0.7051607 0.083680324 -0.3117683 -0.6018684 -0.34869406 -0.98488367 0.3800811 -0.022857018 -0.3380583 -0.0021712221 -0.058682323 0.5729802 0.48229802 -0.9410082 -0.37051386 -0.29170525 -0.40782157 -0.5531044 0.060007825 0.035567153 -0.039752007 0.012087799 -0.12758909 -0.004241561 -0.27275345 0.32859287 0.18294364 -0.41435295 -0.5378965 0.6334229 0.032879353 0.73040116 -0.079484686 1.0474696 0.54808056 0.23603517 -0.30314228 0.30035904 0.32757613 -0.16191877 -0.014210545 -0.048098166 0.110650204 0.58711565 -0.5669536 0.4649952
282 -0.3667777 -0.08246644 0.120527156 0.18398516 0.44123587 -0.108732484 0.47973344 0.2776104 -0.6095409 0.26066664 -0.009742171 0.054524917 0.21894959 -0.046616152 -0.060607493 -0.29291204 0.77952003 -0.46484655 -0.36665952 -0.822433 0.15474948 0.33123252 0.06862499 -0.23536214 0.15367433 0.19502251 -0.04685064 0.1690649 -0.5622344 0.3072914 0.3315502 -0.19234002 0.22678056 -0.07843971 -0.84041476 0.5482346 -0.06905567 -0.46095973 -0.26238748 -0.3748572 0.45686433 0.10028767 0.20723905 0.1642978 0.25640848 -0.24894705 0.042979088 -0.31409255 -0.02578805 -0.04059255 0.16277683 0.19074358 -0.4215626 0.09419289 -0.35146415 -0.20373873 0.16794269 0.26883972 -0.068247415 -0.47643676 0.09573722 -0.5199331 0.19148211 -0.23611325 -0.8129966 0.65868723 -0.3267856 0.13329595 -0.56379217 -0.099144705 -0.3317973 0.4930472 0.057199392 0.1339625 -0.3300241 -0.27314928 0.02425072 0.22189528 -0.20362999 -0.058663964 -0.16565287 -0.70527583 -0.11886542 0.33778268 0.029202713 0.055222303 -0.16238205 0.4313601 0.027066773 0.20302261 0.16676852 0.15612034 0.16377954 0.1996978 0.3372526 0.3356853 0.22399592 -0.13554291 0.08645402 -0.001955844
520 0.15741809 0.35118878 -0.025549969 -0.13354582 0.7324851 -0.4149159 0.6880844 0.034537967 0.37430638 0.6801963 0.31846598 -0.57824284 -0.41988242 -0.4026441 -0.2965265 -0.8139167 0.43396634 -0.49227467 0.6519626 0.23326033 -0.27463743 0.623493 0.2461857 -0.30512854 0.19049636 -0.27263263 -0.2403917 -0.8614864 -1.0841986 0.12560369 0.21448098 -0.02194758 -0.3051899 0.33927748 -0.19233374 -0.17806907 -0.06738283 -0.48687592 0.33900568 -1.3365208 -0.39876705 -0.04584788 -0.46639016 -0.41065302 -0.38804495 0.23846819 -0.37572923 0.09015939 -0.16718878 0.42259064 0.55044174 -0.39948824 -0.10597128 0.18728872 -0.073951945 -0.12931094 0.19442946 -0.42370737 -1.0363691 0.022986438 -0.26135734 -0.15867516 0.0017163246 -0.056807064 -0.75543165 0.57265025 0.040232424 -0.06408376 -0.24137253 -0.16140454 -0.021748085 -0.19056855 -0.01873795 0.23541278 0.053590845 -0.29812783 -0.31087914 -0.053105477 -0.6739735 -0.18320622 0.17471485 -0.9947638 -0.16205078 0.95489424 0.3557637 0.10353331 -0.31097856 1.1787593 0.77569604 0.37735984 0.45645377 0.33065456 -0.05496566 -0.5023329 0.21277906 -0.09615721 -0.07858271 0.036081865 -0.60895336 0.20702368
585 -0.33208135 0.032848578 -0.15338774 -0.5735953 -0.29700178 -0.26758936 -0.07226908 -0.062032554 0.23493974 0.478017 -0.42448834 -0.19644201 0.011754252 0.30998373 -0.63436085 0.17125951 0.19818355 -0.0482445 0.92558527 -0.7341954 0.4568454 0.24676509 0.056551915 0.6620307 0.24894734 -0.21535343 0.09862815 -0.69001305 -0.368622 0.50241643 0.9568453 -0.00073168235 0.29353365 -0.038696535 -0.6028957 0.12934494 -0.34321865 -0.13605264 -0.36851937 -0.7813317 -0.39713207 0.5185514 0.48196754 -0.66898483 0.21323119 0.1469054 -0.11822578 -0.31090164 0.026771856 0.6847132 -0.19085167 0.35417694 -0.310727 0.3286663 -0.7187537 -0.34763235 0.28984565 -0.2351545 -0.40867925 -0.3464697 0.5554137 -0.41071993 -0.42941982 -0.3370383 -1.3775631 -0.1128242 0.092301525 -0.7576737 0.35828522 0.11268024 -0.15709354 -0.7395178 0.23591848 0.052865874 0.5873737 -0.5409275 -0.15682034 0.022373162 -0.9521285 0.19883788 0.31505132 -1.0815572 -0.6280283 0.78889513 0.1882529 0.10590541 -0.10274346 0.7780026 0.54510325 0.07326945 0.18058437 0.6488076 -0.19001782 -0.4469574 -0.42978075 0.014085866 -0.037134312 -0.20427883 0.114071116 0.32709414
893 -0.33853412 -0.08779064 0.053134166 0.31274086 0.50794667 -0.09693829 0.31885615 0.24758345 -0.5657676 0.1752628 -0.16437814 -0.049625505 0.23789898 0.070344314 -0.0769948 -0.38831547 0.69846773 -0.4172447 -0.4092247 -0.7554683 0.05016453 0.22417569 -0.02064548 -0.3574417 0.22269464 0.1100915 -0.13305098 0.011344845 -0.5614571 0.3990522 0.5655292 -0.4036265 0.29866436 -0.06764325 -0.72664046 0.42966306 -0.18029155 -0.5474672 -0.22446463 -0.50913525 0.106887914 0.112556584 0.07949332 0.16257595 0.39976335 -0.0014141115 0.018190624 -0.34250522 -0.049665723 -0.24159893 0.0022264128 0.2521285 -0.4670608 0.20014718 -0.29389814 -0.21543072 -0.018625433 0.054127924 -0.0049273064 -0.4301577 -0.08924217 -0.3847115 0.2628859 0.033062186 -0.6407827 0.772513 -0.18041715 -0.019029202 -0.76569563 -0.12702389 -0.3563606 0.32275122 -0.16906819 0.12629206 -0.32108882 -0.15003145 0.22116597 0.22671188 -0.30499196 -0.005267 -0.3152353 -0.54987234 -0.2742569 0.34402055 0.16903198 -0.25403202 -0.07294405 0.40656963 0.16477439 0.09693413 0.19524351 0.30476737 0.025501058 0.16781385 0.33756813 0.4803554 0.2874601 -0.017011989 0.009905254 0.0039938465
562 -0.435645 0.46200722 0.27125016 -0.03106033 0.15534823 -0.407462 0.6644473 0.6107565 -0.457932 0.44498137 -0.21009704 -0.39569935 0.30282176 0.43556175 0.053054146 -0.34385228 -0.37759018 -0.07457309 0.009576003 -0.34895796 0.23818493 0.123486795 -0.18661164 0.12217537 -0.031362392 0.10922228 -0.21403323 -0.90960485 -0.65879256 -0.36746618 0.65260994 -0.13865449 -0.035635054 -0.000368368 -0.02382224 -0.11818002 0.21954878 -0.55043447 0.10720541 -0.23037964 0.054675918 -0.10494698 0.06237544 0.09506238 -0.031155892 -0.37782797 0.9018673 0.259446 0.19637899 -0.032314334 -0.15246128 0.0867649 -0.07341781 0.55895853 -0.1828909 0.28035563 -0.11331341 0.27374572 -0.49219513 0.020877756 0.12191236 -0.1557699 0.027617645 -0.1953309 -0.17805156 -0.10250141 -0.13426356 -0.18069111 0.14518574 0.41082418 -0.05822461 -0.34307456 0.23689583 0.20735496 0.08112167 0.28463778 -0.14937018 -0.17076844 -0.09708988 0.31022635 0.47241187 -0.7506859 -0.5979184 0.026351219 -0.27613577 -0.38562298 -0.07401271 0.3989162 0.7432481 0.43194398 0.3683863 0.14353289 0.10738803 0.4963134 0.16979973 0.044020288 0.33568522 0.05894266 -0.30678084 -0.08846719
549 -0.39354387 0.011812564 0.98545897 -0.09634137 0.17026916 -0.5480396 0.12345576 0.3251463 -0.35225636 0.22683956 -0.043703433 -0.587452 0.18074498 0.22198318 0.27871895 -0.33300927 -0.09867876 0.2003718 0.559631 -0.065000445 -0.08982016 0.5518695 0.11333032 -0.12881598 0.014704663 0.31395265 -0.12510109 -0.34652227 -0.54312927 0.12787212 0.38729206 -0.019765798 0.050773446 0.1379607 -0.4725803 0.18071729 -0.20459071 -0.850313 -0.0011928291 -0.35310787 0.08814799 -0.41874647 0.3534461 -0.020757638 0.058157396 -0.42604056 0.065180995 0.16100217 0.023441946 -0.40630537 0.6399728 0.39001685 0.21860752 0.20412566 -0.110999815 0.22529878 0.011967618 0.12960152 -0.16485962 -0.19710122 -0.05737431 0.062099162 0.19400916 -0.43411455 0.05800879 0.18874018 -0.1726226 -0.48119557 -0.10746687 0.58687246 -0.40122375 -0.55695987 -0.15644415 0.0370735 -0.025093604 0.35532674 0.005225365 -0.065779544 -0.2709724 0.54306424 0.12312402 -0.62793964 -0.55590016 -0.06960618 -0.21916485 -0.16728969 -0.15079443 0.20270747 0.65396786 0.596541 0.33908075 0.3146508 0.08874774 0.29416758 0.5232235 0.24680533 -0.015058197 0.040179882 -0.04139788 -0.5332127
833 0.0664619 -0.3269934 -0.036284085 -0.16650309 0.012012265 -0.78439176 -0.17291193 0.64841825 0.15101658 -0.028512005 0.29353675 0.21422696 -0.75828826 -0.39916268 -0.30564114 -0.46270165 0.07121692 -0.166713 0.0765221 -1.1857244 -0.6681949 0.34033924 0.2152874 -0.49294084 0.5985764 0.3461655 0.23472504 -0.4884281 -0.646945 0.24866046 0.36705667 -0.8513591 0.6486854 -0.00994555 0.18901493 0.44369966 -0.44369304 -0.35075656 -0.008312336 -1.2450205 -0.30068523 -0.53187126 -0.07051797 -0.18102542 0.38632452 -0.18656808 0.0063672503 -0.16416872 0.53339773 0.7531827 0.060834076 -0.23989464 0.6042929 0.3391654 -0.4269348 -0.027661253 -0.051229578 -0.1807947 -0.22270177 0.004753066 -0.35864753 -0.027262347 -0.014669377 -0.33697692 -0.8131104 -0.041783813 0.22421916 -0.024956578 -0.829116 0.15364085 -0.31567028 -0.6957225 0.27345416 -0.20968306 0.32674995 -0.02289017 -0.48295912 -0.13015088 -0.4040519 -0.33327264 0.02256538 -1.0169048 -1.0685571 0.43987858 0.44886577 0.93199104 0.2264923 0.83782315 0.52204084 0.5473047 -0.58373564 -0.24349457 0.47093242 -0.24218242 0.06572248 0.36473823 0.6320441 -0.070925154 0.4896383 -0.05499589
146 -0.10851128 0.07236826 -0.101931155 -0.5373638 0.27088585 -0.98630697 0.15154156 0.8718038 -0.6443546 -0.16918382 -0.6675759 0.19829826 -0.47859368 0.49475715 -0.5744242 -0.33426163 -0.40097216 -0.67905957 0.24533081 -0.10145061 -0.3608216 0.52160597 0.34504172 0.022350408 0.3258954 -0.38774714 0.3407761 -0.6409909 -0.43101105 0.099276945 0.8269611 -0.33497745 -0.24357463 -0.14066719 -0.43127388 0.39677402 -0.34012738 -0.14929761 -0.3731069 -1.0006362 -0.3793265 -0.33719316 -0.17525172 0.045202054 0.40621427 0.029586123 0.026896842 0.40422308 -0.2255193 0.08029083 0.011747115 0.3096885 -0.41057688 -0.17741442 -0.59414345 0.6457417 -0.011310867 -0.3430894 -0.51298225 -0.66087544 -0.27771983 -0.48750377 -0.45895624 0.0037999246 -0.5007242 0.77448285 0.30016598 -0.24233812 -0.028702306 0.19006118 -0.21607499 0.30034858 -0.39214966 -0.0398964 0.53955114 -0.30056947 -0.70618254 0.30934492 -0.59276074 0.050584923 0.2502561 -1.2370615 0.17937918 -0.30176526 0.81451833 0.7728558 -0.096163064 0.38363972 0.7403874 0.4015957 -0.17944284 0.17454763 0.7246343 -0.39899012 -0.23808394 0.051010445 -0.23262239 -0.6303481 0.29853216 0.30326787
911 0.019792616 -0.23748954 0.37207466 0.0129751265 0.018404687 -0.5229561 -0.042173363 0.52846676 -0.42108077 -0.12925272 0.13094582 -0.24690598 -0.26378965 -0.23547244 -0.19374037 -0.023625296 -0.34814885 0.3294698 -0.16157915 -0.22125925 0.09801473 0.74477065 -0.20885943 0.12498017 -0.059994258 0.052463118 0.6391024 -0.17577273 -0.4822382 -0.08265036 -0.021212814 0.026893366 0.40432963 0.24137281 -0.36894438 0.97192335 -0.29143143 -0.8180139 0.15728997 -0.40763554 0.32991868 -0.23621953 0.9354485 -0.42154175 0.117938586 -0.13627759 0.36584264 0.04020719 -0.23969552 -0.30731976 -0.22405905 0.27996948 0.13529563 0.22760406 0.08936112 0.38509056 0.17057928 0.3908237 0.11540569 -0.8725785 0.1661598 0.174224 0.30582452 0.19067875 -0.5152468 0.9323324 -0.14169002 0.3390666 -0.14804198 -0.10213879 -0.20451412 -0.039806124 -0.109060444 -0.0859637 -0.10881488 0.0086623905 -0.45671782 0.02211472 -0.6631915 0.58127815 0.3080466 -0.21270488 -0.84516805 0.65422136 0.30314362 0.14338814 0.095760405 0.5703124 -0.0136134345 0.3594066 0.6896236 0.4520877 0.064414844 -0.25192177 0.5154127 0.38384798 -0.20277813 -0.34811357 -0.18423961 -0.17989396
130 -0.48217 -0.26235083 1.0024084 0.13591802 0.020185323 -0.6147894 0.077663235 0.3413262 -0.4384569 -0.0005804158 -0.06274403 -0.32024857 -0.041689713 0.07246679 0.18077604 -0.077844456 -0.52645296 0.20454775 0.24970609 0.005703892 0.051975563 0.6117462 -0.034986977 0.11535895 -0.1840681 0.007044873 0.16729695 -0.408285 -0.590006 0.027635861 0.14672479 0.04242996 0.034489274 0.006049008 -0.28467903 0.18237571 0.06120511 -0.7425455 0.05367394 -0.574312 0.20994729 -0.4967526 0.15282166 -0.2657045 -0.14730723 -0.17335442 0.11245259 0.24565414 0.03276582 -0.3121741 0.36058196 0.50819784 0.13552192 0.22944458 -0.04394307 0.3827589 0.20277072 0.24314854 -0.3189961 -0.55697006 0.020848539 -0.03301214 0.4022155 -0.27260315 -0.14019854 0.3973626 -0.21648844 -0.048823956 0.12440583 0.55021816 -0.3154226 -0.534656 -0.2296074 -0.0268875 0.009292485 0.353392 -0.012266185 -0.048697274 -0.25760365 0.64259326 0.054777328 -0.7174504 -0.68015313 0.057579562 -0.36834142 -0.19486883 -0.16072467 0.3799033 0.8976015 0.4201236 0.5739964 0.194305 0.39946496 0.15347321 0.3764617 0.2309133 0.13708895 -0.14570028 -0.0720154 -0.6923116
402 -0.33251446 0.33517396 0.19178264 -0.12533824 -0.102825016 -0.6036876 0.5274791 0.5556518 -0.57373524 0.3818082 0.13508886 -0.43536696 0.29014888 0.30523852 0.019240249 -0.36764795 -0.388176 0.05150218 0.1930611 -0.36569014 0.038400702 0.08296533 -0.011785792 -0.0075822575 -0.013302044 0.2841477 -0.043718647 -0.6784014 -0.6698512 -0.27367783 0.53679675 -0.21312764 0.14621536 -0.13494846 -0.23790254 -0.15134159 0.16977441 -0.36980402 0.11140474 -0.3337756 0.047300857 -0.23145016 0.29169866 -0.09168835 0.18242747 -0.21277031 0.73444647 0.5544667 0.44022724 0.070242345 0.14129494 0.32838652 -0.30102104 0.44190025 -0.13931745 0.09648897 0.037402052 0.35193166 -0.3644962 0.10632148 0.22023585 -0.18335022 -0.10543087 -0.14996152 -0.1306124 -0.2793152 -0.28789505 0.043765083 0.06820956 0.3519239 -0.10789967 -0.39344954 0.10275134 0.24345908 0.10804112 0.33750665 -0.16183451 -0.19955873 -0.22477578 0.35204965 0.4112278 -0.85640776 -0.6856035 0.029360753 -0.29892182 -0.15827394 -0.065718666 0.413601 0.8718755 0.69493634 0.25911558 0.20636377 -0.015198981 0.5811246 0.25768283 0.10062782 0.38255718 0.13713914 -0.08816768 -0.23368157
36 -0.049326476 0.20137534 -0.25894517 -0.08758577 -0.17990293 -0.4187259 0.4386101 0.8188631 0.14851145 0.47400358 -0.25796792 0.5812445 -0.73342496 0.14855708 -0.1948366 0.074664004 -0.08570014 0.14428581 0.53711194 -0.034936298 -0.35272312 0.79913807 0.38917193 -0.68263024 0.13276254 0.09852156 -0.269852 -0.79696965 -0.7974076 0.28594851 0.49520075 -0.070376255 0.43175593 -0.4554291 -0.30093253 0.2376116 -0.50403947 -0.8337744 -0.52066827 -0.8853354 -0.08057317 0.30749014 -0.0043148943 0.45486367 -0.4410229 0.18587953 0.02886547 0.019462392 0.29652977 0.032304555 -0.39912823 -0.57799286 0.25777492 -0.22524415 -0.72739744 0.011154929 -0.48607993 -0.17488813 -0.40813255 -0.4407329 0.7758672 0.24613462 -0.11658254 0.2299756 -0.52588004 0.1567393 -0.3346842 -0.10199781 -0.38488847 0.09321993 -0.5108617 0.19667977 0.61552495 0.12550882 0.9178937 0.29427344 0.103796594 0.48414728 -0.55053264 0.7387847 0.32771817 -0.6208469 -0.39014047 0.23367375 0.26684108 0.55163926 -0.18194927 0.45564985 0.15218292 0.07015958 0.04188809 0.69367355 -0.2533441 -0.26754287 0.038844526 -0.4252927 0.4387956 0.10140103 -0.19386551 -0.022616906
405 -0.5556074 -0.01719056 0.42975494 -0.13595518 0.44169387 -0.34252343 -0.027263073 0.7796016 0.24642062 0.47865775 -0.23730814 -0.24213085 -0.6326514 -0.19188783 -0.7352118 -0.8462118 -0.21076265 -0.21281211 0.039560013 -0.7680962 0.6216918 -0.15016676 0.32616636 0.030126806 0.15952471 -0.061197255 0.43330437 -1.1354926 0.22087398 0.09605118 0.44648078 0.11679508 -0.1292928 0.51316875 0.15625739 0.33745086 -0.32489827 -0.29028326 -0.46396375 -0.7119645 -0.48010194 -0.12269409 0.17117846 0.30386713 0.21074736 -0.003796074 -0.2374063 -0.28048107 0.36326915 0.17240201 0.6152895 -0.52874607 -0.029473122 -0.07342713 -0.51478815 -0.035902478 -0.19829607 -0.110346615 -0.74070406 -0.4233196 0.26494977 0.0927003 -0.045256853 -0.38674802 -1.2829589 0.23896155 -0.22781296 0.32424003 0.162277 0.18530026 0.05666963 -0.06411388 -0.4294278 0.24505748 0.08490192 0.47928548 0.1200772 0.029411761 -0.32358858 0.40365613 -0.23514263 -0.15687189 -0.22990331 -0.019194435 0.2943479 0.29090932 -0.4037 0.37915105 0.07206325 0.28685266 0.0057770493 0.3111306 -0.26864395 0.33581868 -0.19095227 -0.1126581 -0.3496442 -0.6169879 -0.4306057 0.31290573
238 -0.2470181 0.27456337 -0.34652835 -0.7519058 -0.013079973 -0.9043705 -0.29362503 0.3966669 -0.5315469 0.4103561 -0.17090705 -0.39011854 -0.26653314 -0.047951933 -0.0828271 -0.7674188 0.14639215 -0.31955123 0.8121893 -0.14217657 0.5076134 0.20922145 0.283593 -0.21510288 0.36363637 0.1062724 -0.37312463 -0.394614 -0.45231023 -0.3984307 0.27915418 -0.35217413 -0.21895374 0.6299291 0.078389086 0.42601782 -0.3679556 0.26145256 -0.4607586 -0.516593 0.098754875 0.046905242 0.30252877 0.5070153 0.14877138 0.30403954 0.034711663 -0.3884224 0.047103856 0.40842804 -0.052846733 -0.096084595 0.50209284 0.7061229 -0.13403857 0.18146412 0.2187009 -0.30858293 -0.23173216 -0.64860636 0.41627666 -0.12220499 -0.37135103 0.22662657 -0.06847507 0.30108985 -0.105928265 0.17678724 -0.27763778 0.47374147 -0.10958259 -0.4935749 0.35753974 0.31919283 0.61450773 0.15715213 -0.10400141 0.16054657 -0.34476596 -0.20346974 -0.399926 -1.0184127 -0.43586785 0.4682073 0.69156206 0.30745587 -0.3214052 0.56992227 0.21313936 -0.58509487 0.56173426 0.27090523 0.046402436 -0.37089652 0.4493317 0.35070744 0.028426401 -0.15947898 -0.2364733 -0.00814067
69 -0.33228344 0.22298668 -0.4446682 -0.8325366 0.30038622 -0.9530495 -0.113695204 0.5828189 -0.41081858 0.37849262 -0.44426155 -0.1628619 -0.39613926 0.095212184 -0.11816979 -0.72415686 -0.13187835 -0.39071575 0.7197441 -0.09659149 0.5249465 0.019509375 0.07914758 -0.39997083 0.7578607 0.1087838 0.00636138 -0.34698126 -0.709327 -0.2365193 0.6320197 -0.06875863 -0.3914024 0.53606135 -0.14703384 0.37689063 -0.40114483 0.44659045 -0.4118238 -0.43067572 0.21704744 0.02122932 0.18865582 0.24960652 -0.058524467 0.32837626 -0.09164513 -0.29181877 0.27075014 0.47584087 0.021424934 -0.35397997 0.41814765 0.66680986 -0.14945926 0.5504295 0.3428305 0.082181655 -0.33735222 -0.70053476 0.43581405 0.019567706 -0.31234524 0.120158024 -0.21440084 0.32998165 -0.18950161 0.023567226 -0.49980682 0.53783077 -0.16018602 -0.28426608 0.4574936 0.296995 0.56087816 -0.051285446 -0.14793085 0.12768011 -0.21014418 -0.14745851 -0.59950864 -0.86813766 -0.4047481 0.7223753 0.532495 0.11886047 -0.15369855 0.5952436 0.16913237 -0.6368697 0.77572274 0.22741382 0.3230563 -0.3099392 0.43289885 0.37357968 0.14798641 -0.19820863 -0.38130724 0.0799116
865 -0.3903865 0.86699766 0.042917382 -0.51055396 0.4906131 -0.81706923 -0.44544825 -0.033560213 -0.02665418 -0.075082235 0.12610921 -0.07916784 -0.4234825 -0.15923376 -0.36545604 0.21711893 -0.21446234 0.10260828 0.04392629 -0.86175984 -0.17589399 0.872195 -0.2715096 -0.39518747 0.40633252 -0.0017101809 -0.18063703 -0.8399712 -0.29407343 0.049836267 0.6642014 -0.3710224 -0.042893194 0.2848139 -0.11675841 0.47231612 -0.23016274 -0.2971695 0.1244542 -0.7222615 0.047817282 -0.1643801 -0.05819457 -0.72950625 -0.19764237 -0.238254 0.0043084677 0.17957567 0.23935503 0.44711038 0.053514443 -0.32498464 -0.06321622 0.18532684 -0.99739534 -0.3494676 0.32289684 -0.18248968 -0.4273567 0.008092513 0.46587318 -0.33515942 0.15558425 0.13542804 -0.10343027 0.10946654 -0.150856 -0.37435853 -0.43129554 0.8753913 -0.3733791 0.20518473 -0.092680484 0.4860553 0.13431656 0.018370653 0.13303411 -0.037876062 -0.42716095 -0.4700501 0.701639 -0.49005938 -0.26728368 0.17625238 0.16566972 -0.0061109844 -0.6487982 0.7609208 -0.49165985 0.041923836 0.43978593 0.3194675 0.018648474 -0.28521046 -0.030645635 0.13588732 -0.09003554 -0.72050965 -0.042156734 0.43833026
730 -0.61523736 0.85669863 0.18972786 -0.4114386 0.70101404 -0.8712974 -0.2990246 0.10262722 0.16328454 0.11256775 0.26077825 0.054932836 -0.5200436 -0.3366817 -0.59789145 0.19610107 -0.20432658 0.25864565 -0.037737735 -0.8470369 -0.20457165 0.69429445 0.07472187 -0.3718968 0.09052598 -0.013108382 -0.21049933 -0.852703 -0.30849588 0.03535979 0.502593 -0.17756371 -0.06944464 0.36445746 0.0305311 0.3206537 -0.19010352 -0.07357768 -0.05084443 -0.79914963 0.18480536 -0.053917725 -0.14671704 -0.6473068 -0.24740885 -0.0372941 0.013466973 0.18574534 0.27272293 0.4778864 -0.020006068 -0.22589543 -0.03540598 0.35850108 -1.1511515 -0.045849696 0.5033415 0.02305889 -0.53463537 -0.04263065 0.5612365 -0.2692906 0.037296414 0.0119802635 0.16824265 0.3536361 0.03853818 -0.30191883 -0.57669824 0.7397361 -0.6830648 0.11124679 -0.47787392 0.29796547 0.29057175 -0.11414379 0.17308347 -0.1395904 -0.5784171 -0.61164725 0.69046754 -0.4245406 -0.34939927 0.13995187 0.2030526 0.009633069 -0.34424433 0.6077337 -0.19964397 0.21350822 0.38886178 0.16498764 -0.062452525 -0.14817932 0.003291456 -0.039476793 0.09718835 -0.682657 0.07857238 0.32358554
298 -0.52107054 0.45243815 -0.3748093 -0.4455451 -0.0028478717 -1.1670907 0.2676369 0.89034694 -0.12626116 0.11530987 0.19735178 -0.31570345 -0.14155623 0.31765836 -0.6576997 -0.5818935 -0.38232353 0.27276888 0.32711533 -1.0060142 0.106652625 0.019193448 -0.3054503 -0.44003576 -0.051899392 0.3920723 -0.051932678 -0.43557793 -0.4915901 -0.077632494 0.15965012 0.053989436 -0.043516442 -0.34933785 -0.09861253 -0.3401746 -0.441902 -0.4775124 0.29462558 -0.61525995 -0.4817089 0.16757211 -0.4459394 0.042862345 -0.018655436 0.34522352 0.48632693 0.5620562 -0.14197433 0.4933704 -0.31070045 -0.22732894 -0.24581555 0.0045857634 0.006235255 0.4066964 -0.04655639 -0.13733435 0.087250724 0.07311745 0.11267045 -0.2726622 -0.2830016 0.39315298 -0.84176165 -0.23495612 0.28607327 -0.289961 0.025769236 -0.056976464 -0.42975733 -0.23607239 0.119108744 -0.10884751 -0.21206412 -0.11891389 -0.06996664 0.2703616 -0.523959 -0.07734397 0.013922759 -0.80989116 0.13854723 0.7472689 0.19472003 0.7371149 -0.2684362 0.9756876 0.63788265 0.37611657 0.16905124 0.29944432 -0.7707399 0.51828027 0.44853297 0.20920166 0.38904783 -0.608524 -0.30995488 0.49513078
77 -0.48770958 0.25652438 0.3297424 -0.4575215 0.11860873 -0.7780885 0.5209141 0.11192037 0.11757352 0.25563806 -0.4849899 -0.4241434 -0.20976561 -0.92645603 -0.6130827 0.13506538 0.051936697 0.07379633 0.822518 -0.5007926 -0.37248096 0.82928824 -0.25917745 -0.076868206 0.43633923 0.19548123 0.32644108 -0.2671845 -0.6465833 -0.3591135 -0.2579377 -0.19363622 -0.42080668 0.46049252 -0.41892162 0.3294653 -0.23128998 -0.10298322 -0.042687085 -0.906142 -0.014193539 -0.121832244 0.017836306 -0.9050198 0.40465856 -0.008497787 0.23865259 0.26068705 -0.11761192 0.025070861 -0.12525627 -0.4061021 -0.14474818 -0.32480654 -0.74844974 0.223721 0.038470007 -0.24944238 0.14988856 -0.58993155 0.74068815 -0.13891748 0.41858116 -0.12526365 -1.1776984 0.62531006 -0.6381694 0.40890548 0.34829947 -0.82227254 -0.12857905 0.18567552 -0.01780053 0.12475758 0.7284743 0.55446124 -0.5952566 0.22411673 -0.61790776 0.067148514 0.5458989 -1.0201085 -0.832725 0.42035785 0.47091222 0.5191945 -0.03966945 0.09287163 0.048375573 0.23110189 0.0070099025 0.3872188 0.0060874806 0.3602539 0.39149037 0.2965654 -0.26786953 -0.10786227 -0.6215009 0.29704326
365 -0.041267216 0.65439254 -0.034416962 -0.096131176 -0.007382005 -0.58982974 0.29909784 0.8849308 -0.060012966 0.62001127 -0.30022255 0.7346086 -0.48489055 0.19612582 -0.2844974 -0.10326025 0.030899892 -0.039020192 0.5375631 0.13200794 -0.2250611 0.7292079 0.5004948 -0.42217126 0.15072575 -0.060774893 -0.40238535 -0.5047038 -0.8148254 0.1123543 0.5598538 -0.27910236 0.30962166 -0.041292008 -0.28681105 0.23881134 -0.46047625 -0.8174194 -0.4361107 -0.62987155 -0.39803734 0.19459169 0.113898136 0.14635447 -0.6854654 0.28637516 -0.031640306 0.14190122 0.1794674 -0.1251959 -0.36351317 -0.43289357 -0.13650382 -0.62674 -0.67298025 -0.008911589 -0.24819145 -0.0625733 -0.19912182 -0.32300836 0.809501 0.057146687 0.07328953 0.24576317 -0.6013592 0.40235674 -0.40165338 -0.089700036 -0.3992748 0.2053818 -0.5827787 0.1342785 0.63239455 0.005084917 0.81679094 0.24543877 0.22436717 0.28779322 -0.64470845 0.7716355 0.23474158 -0.72810024 -0.5017574 0.3217633 0.40026286 0.60772806 -0.36278775 0.51689035 0.22730362 0.10620083 0.2601077 0.32637325 -0.49982396 -0.38700572 -0.46855578 -0.42827183 0.26373404 0.08911577 -0.29705936 -0.28567472
732 -0.38881204 0.102681905 -0.045126587 -0.0047923033 0.16597326 -0.4345874 0.3365011 0.5613185 -0.5184616 0.70863783 -0.21560314 -0.38343573 0.23865592 0.5826156 0.15388136 -0.45406118 -0.2614385 -0.11287188 -0.017201742 -0.22087859 0.016921172 0.37479392 -0.08916417 -0.14266664 0.2569013 0.010088657 -0.012498044 -0.9420356 -0.6292513 -0.17749922 0.4481837 -0.21489492 -0.27772433 0.19160037 -0.011102002 0.03347731 0.31802943 -0.3857267 0.09267692 -0.6289442 0.20716381 -0.24606277 0.15039097 -0.011562 0.07818935 -0.4741529 0.48334438 0.4796211 0.19559981 0.06260959 -0.11618266 -0.1596798 -0.09681592 0.553825 0.11311382 0.01080077 -0.2536507 0.43713254 -0.25131077 -0.12199865 -0.14077125 -0.42866182 0.08304893 -0.29344964 -0.22562236 -0.14000238 -0.09325747 -0.36554936 0.10077155 0.3475933 -0.05013074 -0.41721767 0.25641388 0.12556998 -0.003020941 0.5234203 -0.23010553 -0.48129836 -0.38263223 0.2924105 0.4265386 -0.6820654 -0.76612467 -0.31663704 -0.18625323 -0.053147633 0.08909647 0.370292 0.6068584 0.5345118 0.25415322 0.20506372 0.21529025 0.5319 0.18186527 0.017333228 0.51064324 0.3606888 -0.14556785 0.014641243
849 -0.5238348 -0.21139981 0.4361348 -0.09427277 0.42111462 0.13297677 0.32433677 0.13488443 -0.58178467 -0.016858015 -0.14671014 -0.5516903 0.27405864 0.14160192 -0.18479598 -0.31644094 0.067830004 -0.01869652 -0.36588612 -0.5286271 -0.1446031 0.12345304 0.40005124 -0.114534184 0.303759 0.1129669 0.21540031 -0.16057834 -0.7154212 0.14542983 0.43714374 -0.24253587 0.402643 0.20520708 -0.877307 0.40011412 -0.21040753 -0.804581 -0.2503379 -0.07081757 -0.27622947 -0.16221812 0.27049866 0.45583558 0.21951807 -0.20750983 0.0063740797 -0.09418884 -0.06258065 0.186464 0.42422017 0.5545134 0.2639747 0.11878283 -0.35182258 -0.03993028 0.22127387 0.012071802 -0.28742665 -0.19451661 0.067993 -0.31798843 0.23355727 -0.052155674 -0.072181 0.30635872 0.041237608 -0.35793185 -0.55556035 0.117270626 -0.5920502 0.15351085 0.060607944 0.24702302 -0.13182051 0.07809388 0.03401738 0.10538373 -0.75162345 0.45608017 -0.16123287 -0.6165035 -0.3843486 -0.03586089 -0.22424448 -0.41883808 0.23495981 0.46541882 0.25828338 0.2768372 0.4616856 -0.00032545635 -0.21265848 0.085164785 0.5965871 0.03576778 0.30130363 0.10868441 0.24685135 -0.3551864
683 -0.78436303 0.38755077 0.05243803 -0.40565693 0.18696256 -0.49983758 0.55008656 0.35439807 -0.44521978 0.43519923 -0.26627114 -0.14007166 0.2848769 0.36192852 0.15010555 -0.10685928 -0.091628864 -0.14201356 -0.16595739 -0.69868064 0.20156576 -0.30280644 -0.16626512 -0.029177982 0.19272512 0.23837458 -0.16643037 -0.4819149 -0.45599678 -0.21381535 0.5994171 -0.31528002 -0.23405102 0.37839627 -0.6060605 -0.4145437 0.17155932 -0.5760201 -0.18242393 -0.42949212 0.20798042 -0.18674128 -0.09701011 0.23691332 0.06431832 -0.54660183 0.63883734 0.18553598 0.02493743 0.029994022 -0.038732838 -0.032141417 -0.18413326 0.4648105 0.0007974484 -0.16709171 -0.29149872 0.26805264 -0.34440285 0.010914447 0.029412406 -0.47540292 -0.030421723 -0.02332916 -0.07677361 -0.0016043311 -0.062874705 -0.22472493 -0.09229119 0.2988419 0.12567729 -0.18694338 0.03400581 -0.03331589 -0.12519643 0.2391749 0.005573348 -0.20141172 -0.07526239 0.56823957 0.4690335 -0.9568195 -0.62939274 0.20412016 -0.28694957 -0.2568483 0.33584684 0.02131217 0.6546212 0.5157329 0.24519958 0.03989165 -0.19029637 0.50521517 0.15061538 0.10468759 0.5651039 -0.006130367 0.11734922 -0.16532224
173 0.07926622 -0.049850922 0.3100233 -0.21341352 0.13301004 -0.49901843 -0.09975446 0.8614698 0.28674498 0.4634441 -0.12255394 -0.15677452 -0.23777242 -0.13376875 -0.36675215 -0.3004866 -0.24325892 -0.60864997 -0.15172577 -0.75240225 0.28429645 -0.051075373 0.34902075 0.10987986 -0.036208186 0.12178887 0.35388437 -1.5056616 -0.22931798 0.055235006 0.13039999 0.0502995 -0.24462906 0.48017544 -0.28925565 0.23095231 -0.9070174 -0.26413107 -0.6810416 -0.41460368 -0.31513518 -0.22101684 -0.050612666 0.05238707 0.17929663 0.13556126 -0.30157617 0.15698034 0.4443982 0.64611804 0.35382983 -0.50386447 -0.1809789 0.00013020754 -0.3046493 -0.10239678 0.08303414 -0.14266683 -0.48386374 -0.50274277 -0.17783852 0.08124807 -0.11815554 -0.39819023 -0.998448 0.2113956 0.07372142 0.064371385 0.090420246 0.31996232 0.33535677 0.058811516 -0.28441238 0.27978933 0.082167484 0.32014406 0.5527925 0.22670712 -0.110116 0.20102087 -0.27784166 0.026098542 -0.6080768 0.13933878 0.48431584 0.31708813 -0.26677364 0.56404835 0.032199226 0.5222875 0.041768998 0.11652252 -0.3785982 0.038310923 -0.16087884 -0.008597703 -0.10934583 -0.41667134 -0.55684775 -0.1832175
412 -0.5881206 0.35372108 -0.01882521 -0.32772785 0.17859405 -0.94556665 0.50483054 0.9889141 -0.77678186 0.37447652 0.044590175 -0.033316724 0.19472447 0.57784355 -0.06575477 -0.056214936 -0.4313786 0.043520514 0.113018885 -0.36167133 -0.020040695 -0.07797401 -0.51568085 0.21762033 -0.02592327 0.46938062 0.03389244 -0.5109544 -0.6847436 -0.26744735 0.6091527 0.19494787 -0.1420627 0.3438407 -0.20181546 -0.05959921 0.20430933 -0.5230367 -0.056507707 -0.5138123 -0.0710737 -0.15013489 0.008846462 -0.22073992 -0.079080924 -0.32631412 0.8660181 0.36057213 -0.120701656 0.47106495 -0.016539998 -0.05218388 -0.07917547 0.35874608 0.47258532 0.19870104 -0.2273581 -0.028587243 -0.2575985 0.11411494 0.17874573 -0.450524 0.053847805 -0.17036611 -0.062181164 -0.059855767 -0.015021829 -0.152712 -0.23903497 -0.04938109 0.098921895 -0.2827728 0.28579167 0.19954948 -0.22143552 0.35435152 -0.08223805 -0.3674475 -0.2526918 0.10513499 0.2930853 -0.59861714 -0.5428421 0.027090428 -0.28968585 0.23567377 0.19421197 0.7582558 0.6024805 0.3826903 0.27967742 0.15156491 -0.18747552 0.6804057 0.09846791 -0.13298751 0.3371092 0.020496655 0.17209332 0.097191595
924 0.21621901 -0.12379073 0.2226405 0.13789366 0.058335904 -0.28749666 0.25750846 -0.12751555 -0.36129647 0.14270186 0.06385114 0.06100204 -0.35343477 0.05141261 -0.5954409 -0.22777534 -0.018984826 0.07155044 -0.35890907 -0.8723173 0.3799625 0.43617314 -0.034654565 -0.25441808 -0.10607262 -0.11815152 0.18082428 -0.40138087 -0.24188596 0.43300664 -0.17327559 0.042544916 -0.12591176 0.03190502 -0.6059495 1.0730621 -0.38933852 -0.5214562 0.10234651 -0.4787292 0.5028014 -0.076945014 0.72865045 -0.01584004 -0.059695553 -0.30047226 0.21522568 0.001895201 0.013950885 0.013744187 -0.39467463 0.43197963 0.062258054 0.3663973 -0.07506395 0.1630234 0.13233711 0.20012447 0.23725557 -1.1428502 0.0907696 -0.0231729 0.29572642 0.043646827 -0.56806296 1.2197014 0.067734815 0.23679501 0.06374554 -0.03348985 -0.25876588 -0.16071165 0.22128074 -0.16474664 -0.096897826 -0.3840311 -0.41067624 0.6206553 -0.47730342 0.3081413 0.41527504 -0.456226 -0.8057029 0.67333883 0.43001124 0.078715995 -0.05357577 0.26542237 -0.06857841 0.29617763 0.27699658 0.419847 -0.017975701 -0.26659212 0.59414935 0.3794032 -0.17490497 -0.22170664 0.10144768 -0.118803635
444 0.0012792164 0.5915491 -0.023130719 0.12782417 0.26496738 -0.44581345 -0.08715997 0.66136146 -0.54671127 0.9604312 -0.28585967 -0.4121671 0.0653644 -0.29931453 -0.8986716 0.11392661 0.24997227 0.2066754 0.39603543 -0.9458364 0.13477494 0.8453562 0.18950309 0.12886474 0.041216984 0.259948 -0.23373204 -0.71763563 -0.38019326 -0.204335 0.51383734 -0.1804322 0.73543316 -0.04990581 0.0030849623 -0.04053757 -0.95379937 -0.8635066 0.15192474 -1.6674076 -0.0004218546 0.35035267 0.6957398 -0.15882681 0.019650433 0.05647908 -0.3461124 0.025296375 0.10397711 -0.03390833 0.20243493 -0.24217442 -0.23422556 0.34063536 0.022131635 0.3905245 -0.17663334 -0.627106 -0.5539232 -0.838973 -0.033204235 -0.97502553 -0.31256792 0.2789631 -1.0320381 0.009346818 0.061135054 0.41735694 -0.22346562 0.7236706 -0.77022386 -0.81795704 0.46736452 0.28072828 0.79800886 0.39538667 -0.22380608 -0.44941 -0.92794317 -0.44260347 0.2156972 -0.022379152 -0.44636068 0.27827922 0.62151873 0.09497489 -0.3704635 0.410022 0.079679176 -0.07912459 0.3718483 -0.35830227 -0.14769253 0.24935928 -0.08641124 -0.14973377 0.689892 -0.06334361 -0.4197627 0.23728102
154 -0.03775505 -0.3325012 0.5128029 0.07391198 0.17632075 -1.0782266 0.73185724 0.464932 -0.2582088 0.030508954 -0.24223962 -0.24091856 -0.8523248 0.13372219 -0.11888455 -0.72681695 -0.25109166 -0.6784681 -0.09935947 -0.50594175 -0.80149573 1.3122987 -0.14723678 0.16455542 0.08630404 0.32970265 -0.35208178 -0.42881298 -0.66353595 -0.37624106 0.6037018 -0.20669971 0.0557887 0.55983555 -0.58771545 0.70043635 -0.28881526 0.28729707 -0.3540167 -1.040383 -0.026866911 0.05053297 0.1873876 -0.38223103 0.4621807 -0.009157419 -0.5437951 0.43901467 0.051215786 0.45266384 -0.61309797 0.42635858 -0.04096339 0.117194325 -1.0385971 0.3585096 0.5542697 -0.53597254 0.015184624 -0.07696228 0.23985703 0.15855989 -0.70124686 -0.8100369 -0.8517214 -0.16538595 -0.39334595 0.0025173342 -0.47233316 -0.0794365 0.24762957 -0.45894572 0.7866376 0.35867715 0.08244054 -0.006433656 0.5565144 0.32189202 -0.4450931 0.18569173 0.6672563 -0.6838097 -0.27664188 0.6707015 -0.014205128 0.6526288 -0.3993675 0.65701056 0.10666415 -0.045311034 0.1771133 0.7331127 0.15128212 0.264657 -0.4133085 0.23810515 -0.20071612 -0.041424822 0.22993295 0.09857673
781 -0.7244597 -0.23400737 0.47782126 -0.75265104 -0.00978074 -0.5142685 0.26128268 0.66960585 0.068137676 0.3365291 -0.5541171 0.18855353 -0.048481673 -0.42414013 -0.22128038 -0.25510854 0.14174315 -0.16620821 -0.03358358 -0.77022547 0.13029943 0.26992497 0.14441432 -0.1292748 0.08449895 -0.5563121 0.65385914 -1.25229 -0.48268196 0.13901274 -0.16006637 0.29393575 0.13057755 -0.067345224 0.24840893 0.33873796 -0.7246716 -0.47231197 0.0037676343 -0.4671358 0.36530375 0.29565138 -0.021568289 -0.54851377 0.64735144 0.37283415 0.17839967 0.17719027 0.39329007 -0.23625132 0.106722526 -0.4005629 -0.2354939 0.95935196 -1.1490995 0.59335655 -0.70386887 -0.4161236 -0.40401408 -0.31821305 0.024537109 0.6571881 -0.4732958 0.021367135 -0.16192369 0.6497527 -0.23486927 -0.21203007 -0.4246437 0.19390285 -0.44529113 0.46402556 0.6721027 0.036013495 0.93265027 -0.45870313 0.2381109 -0.20742159 -0.751662 0.31585917 -0.36071017 -1.1098472 -0.4190066 0.30400607 -0.22718363 0.35751584 -0.70148456 0.878793 0.6407094 0.2124638 0.8779491 0.15012649 0.033915557 0.16216499 0.643909 0.19233468 0.09241062 -0.36460388 -0.35040787 1.1883025
125 0.0026480197 0.5187561 0.25924596 -0.18699363 0.17229879 -1.2570202 0.28437257 0.823256 -0.9061944 0.006850866 -0.72943187 -0.2572173 -0.3955976 -0.3422302 -0.2196079 -0.74625045 0.042008344 -0.07921164 0.9933978 -0.7080768 0.4918048 0.01819074 0.6279949 -0.29675192 -0.39101502 0.23615602 -0.19748871 -1.5565302 -0.30346036 0.4514391 0.6704959 0.13263853 -0.1451649 0.32233545 -0.4104181 0.29109293 -0.5135345 0.3252938 -0.28574613 -0.9252673 0.25154078 -0.015519159 0.5525713 0.13978387 0.105960056 -0.19614506 0.22400554 -0.2226987 0.5994117 0.09532842 -0.6811979 -0.69783777 0.22639567 -0.20024276 -0.42466483 -0.3508312 0.33117828 0.20282152 -0.07066583 0.20544522 0.47112897 -0.39838472 0.31809607 0.039097056 -0.51345825 0.9633596 0.5598783 -1.0184411 -0.6092332 -0.43259898 -0.6583859 -0.10417637 0.8530728 -0.14068148 0.044153973 0.22308828 -0.025250603 -0.12989685 -0.17091395 -0.19997922 0.30360064 -0.29393876 -0.82111996 0.24863404 -0.3800865 -0.260282 -0.42032012 0.87621456 0.47423777 0.41355187 0.057129513 0.4700149 -0.55602103 -1.0265671 -0.030778237 -0.21330579 0.1895258 -0.7506931 0.16373867 0.11121109
97 0.036846217 0.081926435 -0.0894334 -0.25127882 0.20195931 -0.9139851 0.7802352 1.2963216 0.22338673 0.00090254366 -0.661903 -0.37191188 -0.68446213 -0.4174785 0.3498137 -0.023183256 -0.23442468 -0.064614415 0.54972327 -0.79644656 0.5373667 0.1393563 -0.56450963 -0.12982568 -0.026691874 0.6373174 -0.65752083 -1.1361713 -0.5949549 0.19270721 0.57078844 -0.5952238 -0.574492 0.5518769 0.040751148 0.62168205 -0.20988461 -0.8047845 -0.7998972 -0.61055946 -0.3330616 0.043298267 -0.20720108 -0.5070652 0.40449998 0.17013146 -0.4980971 -0.12999369 0.29869458 -0.26334426 0.15765283 0.26805583 0.066322766 0.14069161 0.21480067 -0.5515359 0.3216815 -0.20022017 -0.5146327 -0.047463305 0.31691688 -0.3757995 -0.2695026 -0.3011009 -0.39283726 0.3326231 0.1767539 -0.78736544 -0.6825887 -0.37057525 -0.83681965 0.020728119 -0.44773832 -0.15116718 0.5866043 0.049915146 0.07208466 0.1526975 -1.2746216 0.3942991 0.15649761 -0.593643 -0.14055277 0.8144174 -0.25384405 0.2857258 -0.6153851 0.40866393 0.15538041 -0.10645168 0.54881877 0.46614414 -0.25059122 -0.33378246 0.38844666 -0.00659896 -0.15379573 -0.4493621 -0.12015242 1.1176412
209 -1.0140308 0.7461425 0.67693555 -0.11333111 0.13205671 -0.90673393 0.39752734 0.46183062 0.048945665 -0.4644717 0.34927306 -0.76797134 -0.67436904 -0.2862633 0.026054168 0.08545419 -0.21713586 -0.45574898 0.113045774 -0.30159378 -0.044947527 0.0072494503 -0.8193126 0.21853982 0.13833724 -0.2558833 -0.1201686 -0.9915541 -0.064493515 -0.47595072 0.5777712 -0.00611481 -0.31563374 0.69667333 0.0009911289 -0.0024376856 -0.15534803 -0.60256916 -0.13728634 -1.0176854 0.20526426 -0.10522139 0.19575699 0.4566852 -0.71613103 -0.16935033 -0.48098397 -0.28558114 0.2861124 1.0232753 -0.5123897 -0.74793386 0.05835479 -0.008972094 -0.43155587 0.8999851 -0.11334631 0.27526557 -0.6137148 -0.8800818 -0.41786215 -0.124297686 -0.95527875 -0.110471584 -0.725761 0.42355272 0.5323324 0.2818897 -0.47130102 -0.13191299 -0.2872901 -0.09918993 0.6524178 0.14777339 0.27147365 0.6196233 0.5886347 -0.072526015 -0.8825256 0.31833115 0.45759958 -1.0417569 -0.60826373 0.59024376 0.30232456 0.08007825 -0.48954198 0.22718345 -0.032396283 -0.012204107 0.48613524 0.9193832 -0.45132104 -0.21793121 0.5926498 0.4100435 0.12997955 -0.49822772 0.2950722 0.20182753
283 -0.5699335 0.71998316 -0.1679682 0.20227689 0.46491173 -0.38937867 0.6898376 0.7565776 0.070061386 0.11236369 -0.33197606 -0.16320407 -0.27984548 0.065529756 0.0016303139 -1.0974767 0.3078887 0.017572476 -0.0129051125 -1.0793992 -0.3909625 -0.22177462 0.4753094 -0.6266604 0.053690095 -0.8516301 -0.5165487 -1.0663197 -0.38737208 0.19324923 -0.026058553 -0.19081284 -0.20969003 0.50358206 -0.28804487 0.0033671567 -0.35727566 -0.31302604 0.1672142 -0.8604815 -0.16897681 -0.11028431 0.5475432 -0.116248265 0.5586641 0.16471395 -0.6688641 0.41775313 0.48888806 -0.12586395 0.284612 -0.8676161 0.22572398 -0.33308142 -1.1444391 0.18590768 0.62906235 0.37049648 -0.3555889 -0.015357413 0.5876089 0.20274283 -0.23004866 -0.1481303 -0.13084778 -0.12543073 -0.039878834 0.31582907 -0.5199225 -0.44584778 -0.56170326 -0.33953577 0.7299318 0.15895325 0.12502554 -0.167965 -0.7143885 0.41604024 -0.5842684 -0.14138323 0.21610337 -1.279267 -1.1286483 0.55576825 0.5278367 0.87296736 0.3830844 0.4058297 0.57952833 0.2774945 0.8147041 0.19697455 -0.10723096 0.052438036 0.60920846 -0.19116524 -0.22996442 -0.080807276 -0.31228667 0.10127551
901 -0.32481638 0.09707765 0.593493 -0.013158995 0.44883534 -0.36957353 0.3825493 0.20271268 0.012800988 0.17599452 -0.5103806 -0.9129221 -0.4923969 -0.79947925 0.16609344 -0.29535827 -0.3290877 -0.5683988 0.12723969 -1.101201 0.15321524 0.62309223 -0.23487681 0.051113293 0.2947107 -0.03765789 -0.35976574 -1.083631 -1.1867139 -0.35678288 -0.039103944 -0.48324576 0.107447654 -0.20514907 -0.6379756 -0.15062681 -0.4424634 -0.47606742 -0.481267 -0.5626859 0.638137 -0.60083926 0.2781401 0.015416336 0.37402275 0.23747435 -0.63769317 -0.046275683 -0.47980824 0.82585776 -0.5651934 -0.26856083 0.006212627 -0.02278842 -0.41976017 -0.23194113 -0.45880967 0.1592467 -0.85222006 0.25593966 0.17044932 -0.191495 -0.21064886 -0.25588664 -0.8599493 -0.3620585 0.46434242 0.02499038 -0.1207842 0.2767294 -0.38241276 0.13368535 -0.09202664 -0.29943332 0.4971433 -0.7307791 -0.124003135 0.054355837 -0.31891525 -0.15972692 0.14002748 -0.8508006 -1.0633416 1.2733251 0.017963907 0.6008782 -0.7727262 1.0281266 1.0072843 -0.48885337 0.18744567 -0.059084006 0.21121186 0.49844584 -0.12841995 0.19725168 -0.4020996 -0.7263098 -0.0074274796 0.0073702643
159 0.1623949 0.24868837 0.14876238 0.09473125 -0.17310923 -0.4900166 -0.0845159 0.7602917 -0.29040864 0.54766107 0.06254858 -0.18871622 -0.18913752 0.582886 0.019476304 0.5822486 -0.1337254 -0.2715548 0.56024015 -0.90735584 0.11109519 0.91864914 -0.19020532 -0.07753904 -0.5197937 0.5520014 0.059261777 -0.87108374 -0.63821673 0.51728004 1.0160096 -0.12453682 0.19085737 0.33402413 -0.043700106 0.73418945 -0.4865409 -0.41593525 -0.3366274 -0.7357189 -0.15621698 -0.38516977 0.5581875 0.43750334 0.82195586 0.6861062 -0.42048836 0.35125238 -0.22681466 0.3437157 0.18647347 -0.28810742 -0.11335987 -0.42120028 -0.21198596 0.30785102 0.364411 -0.06689715 -0.14954512 0.034596413 -0.05518358 -0.23564747 -0.5816577 0.3131984 -0.35238194 1.0910825 0.2568325 0.017026337 -0.21221542 0.056488387 -1.1008813 -0.7238946 0.27751583 0.04816449 0.9940843 0.14933668 -0.16178054 0.54737836 -0.22348528 -0.3410321 0.53157324 -0.95987827 -1.0263726 0.2310277 0.056389436 0.30641657 -0.15929605 0.8746535 0.5515797 -0.07137855 0.6458047 0.1353684 -0.4243272 0.59843034 -0.1962325 0.27734774 -0.5592548 0.096956916 -0.5468323 1.1436976
879 -0.18831873 0.6030954 0.17031702 -0.5517315 -0.27852198 -0.60328907 0.7725142 0.36512646 0.29678902 0.3704583 -0.7497216 -0.17587614 -0.41467842 -0.81852156 -0.53394127 -0.84078765 0.33427542 -0.8060097 -0.017451148 -0.76825637 0.439741 0.58554196 -0.12869085 -0.4625715 0.65782344 0.48908007 -0.34949622 -0.87472075 -0.64216083 0.8629162 0.3106486 0.2939502 0.23996815 0.29521435 0.37515244 0.5865354 0.34807253 0.17176117 -0.68317443 -0.4322608 -0.50816876 -0.34561986 -0.21124743 0.32168 0.024322473 -0.24205126 0.26706657 0.43852288 0.5157957 0.93657327 -0.3118964 -0.4430552 0.6568398 -0.13068214 -1.0441667 0.30282253 -0.08075102 -0.64436436 0.15996748 -0.13404633 0.46534884 -0.25029394 0.36503187 0.22795627 -0.24815308 0.36096084 0.056829922 0.23138691 -0.27044308 0.3817043 -0.19564126 0.0877982 -0.17226306 0.11939264 -0.07536027 -0.14833903 -0.5636378 0.111129165 -0.3121936 0.71212935 0.34528682 -1.3578846 -0.90437067 0.42712897 0.53245974 0.107651494 -0.019072771 1.0575196 0.18705642 0.80016285 0.6674374 0.22754903 0.35472092 -0.6894899 -0.26511037 -0.38604823 0.33510366 -0.2890366 0.09421245 -0.12862597
686 -0.30428413 -0.109196536 -0.1267977 -0.46407315 0.74758226 -0.6342325 0.29224712 1.1337816 -0.28248322 -0.22771068 -0.5078518 -0.28209674 -1.0726188 0.08942961 -0.666527 -0.46769017 -0.79976606 -0.1739852 0.17664693 -1.0258225 0.25634396 0.7468192 0.0014034697 0.15408535 -0.34040406 -0.11879464 -0.15233624 -0.7682872 -0.12682301 0.44048715 0.9238482 -0.16152528 -0.17449445 0.7682089 -0.5250137 -0.18455973 -0.11343191 0.26641798 0.17081198 -1.2824004 0.48311335 0.14129509 -0.1371389 0.7347569 0.64365625 -0.20407982 0.14234616 -0.584585 -0.56787574 0.23919696 -0.5872053 -0.04311889 0.2144295 -0.15408608 -0.5172537 0.041815687 0.21507122 0.21401227 0.025932042 -0.51847106 0.4632707 0.32159498 -0.29941192 -0.6161396 -0.51521426 -0.42841402 0.5896323 -0.5325292 -0.77488536 -0.36161867 -0.49162513 -0.026085893 0.048086096 0.63959247 0.20576455 0.51291823 -0.3304161 -0.063335486 -0.7146443 0.087462254 0.85198027 -0.8687136 -0.68985313 0.092527665 1.0940934 0.07220602 0.09137701 0.49748105 -0.0698813 -0.056572486 -0.188025 0.7796329 0.3051788 -0.04046108 0.6572029 0.2935782 0.1745872 -0.22130248 -0.21089986 0.3690324
179 -0.40397814 0.46608248 -0.17681813 -0.48682404 0.30957043 -0.63639927 -0.07780359 0.429249 -0.65927714 -0.12848343 0.56578594 -0.028769173 -0.8220368 -0.20599099 0.31725636 -1.1342697 0.13125014 -0.06161458 0.68734634 -0.9643221 -0.14819418 0.16193742 0.12619287 -0.24307093 -0.45408762 -0.5980357 0.52472234 -1.5218701 -0.8208685 0.05720778 0.573801 -0.67121667 0.58636224 0.2974665 -0.16824093 0.11004475 -0.9929114 -0.35641205 0.052620478 -0.48911017 0.3840508 -0.6631718 0.1670503 -0.3115596 -0.32198682 0.32660076 -0.13715154 -0.63879997 0.11607428 0.5722806 -0.25975242 0.41373464 -0.6872099 0.5063362 -0.34035897 -0.068166286 -0.06054544 -0.31727853 0.6160083 -0.67181116 0.36314958 0.10746334 -0.7264471 -0.16457814 -0.28938788 0.028121455 0.41806328 -0.44839504 -0.78379995 -0.07086841 -0.1923836 -0.3293504 0.040793084 0.38810223 0.2663667 -0.20260239 -0.049885094 0.07751991 -1.0066732 0.36230588 0.25627926 -0.6885511 -0.79105085 0.71268505 -0.14422959 -0.036611624 -0.8865029 0.59165436 0.52115315 0.10864319 -0.0023244875 -0.12518425 -0.49838412 0.064895906 -0.52699536 0.42992485 0.074340485 -0.2642752 -0.7610416 0.1296466
224 -0.17865625 -0.20914711 0.06578847 0.5807403 0.19303161 -1.4689384 0.3027831 0.67869043 -0.4721118 0.43031865 -0.16989945 -0.9123321 -0.5281722 -0.2233348 0.044763297 -0.105654866 0.26502413 -0.01286106 -0.3368395 0.19196054 0.0069261743 -0.0045728297 -0.44954705 -0.32349196 0.72566813 -0.14390881 -0.6600382 -0.8766532 -0.8300684 0.2514357 -0.0727404 0.04841868 -0.59274 0.08183298 -0.43347064 0.17589799 -0.66537166 -0.6601915 -0.9286373 -0.9702315 -0.5314537 0.10888527 0.28648862 0.041370686 -0.17570342 -0.30702138 0.026878614 -0.4694222 -0.029880587 0.45454738 0.0059288936 -0.54983646 0.35842136 -0.3304021 -1.2197056 0.16425718 0.23900269 -0.026934627 0.07609654 0.024450343 0.4652112 -0.71414864 -0.7831084 -0.016134728 -0.7304289 0.35402688 -0.56077576 -0.29179814 -0.09483355 -0.5463424 -0.82099533 -0.3916551 -0.19452475 0.12690456 0.6090804 0.07568346 -0.66111827 0.08936366 -0.22726242 -0.35306635 -0.046252016 -0.72489876 -0.5942889 0.41727927 -0.063174754 0.70321614 -0.16407865 0.8008452 1.0361036 -0.052977353 0.63986415 -0.027278602 0.16387743 0.1397976 -0.3374337 0.43546525 0.40166637 -0.6418043 -0.2219221 -0.0908849
918 -0.7332258 0.3949263 0.54782015 0.22379121 0.20925388 -0.8503439 -0.018714616 0.93174666 0.033166543 -0.4684581 0.030028066 -0.2063346 -0.6935579 0.40730223 -0.6357683 -0.36850905 0.26056224 -0.5828261 0.3772138 -0.51672477 -0.41826478 0.16775087 -0.31891116 0.18745628 0.003371504 0.2945834 -0.8097016 -0.046802614 -0.68163925 -0.37327757 0.017983824 -0.10706818 -0.35866168 0.93892026 -0.6513021 0.29658327 -0.22292084 -0.7275466 -0.23156205 -1.1284715 -0.21453042 0.0103718685 0.438642 -0.26683667 0.26371452 -0.52095234 -0.7826453 0.5735805 0.72279817 0.33504996 -0.298701 0.10514667 -0.36758676 0.137187 -0.98896116 0.064744614 0.021774694 -0.7885901 -0.50288856 -0.72361314 0.70556116 -0.13729116 -0.065044366 0.73837805 -0.8963444 0.30984372 0.2610859 -0.16163369 0.23841986 0.53802055 0.40592015 -0.33577034 0.07103506 0.71008754 0.6957643 0.5781026 -0.5784927 -0.16980486 -0.58113766 0.17374974 -0.12833042 -0.46311826 -0.114313476 0.039618254 0.46864426 -0.0924714 -0.013090557 0.63875115 0.35725558 -0.022597197 0.7684273 1.045234 0.45469573 0.095386386 -0.0580356 0.80930674 0.28074807 0.107829645 -0.89620626 0.59822613
672 -0.26386514 0.1193915 0.07337949 -0.2899978 0.61428547 -0.705838 -0.21086915 0.9595081 -0.59251285 -0.33818144 -0.58053654 0.05951904 -0.18348008 -0.6310638 -0.027615372 -0.6103211 0.0050429045 -0.65914744 0.30377996 -1.131068 -0.75650996 0.4593116 0.072643645 -0.7098425 0.023564495 0.14513971 -0.5039999 -0.9090704 -0.58734256 -0.030861927 0.35152572 0.14411455 -1.0922929 0.1610964 0.07351912 0.7341708 -0.60034734 -1.2564719 0.06772848 -1.3867103 0.4618307 0.6757506 -0.111891374 0.011224134 0.42345914 0.24399877 -0.15960686 -0.06259108 -0.5131546 0.013808025 -0.45110494 0.039750904 0.027822696 0.47902033 -0.22732891 0.5153428 0.0020958043 -0.20623294 -0.48944724 0.035714753 0.5323869 0.10924518 -0.18279615 -0.5044092 -0.7625659 -0.1734878 0.82314175 -0.27569512 -0.010781702 0.6193955 -0.23082753 0.46746144 -0.3533925 0.19235715 -0.063562535 0.721233 0.11950487 0.23020858 -0.21797061 -0.62563676 -0.017461237 -0.5454732 -0.7355236 0.8157954 0.20965335 0.42462954 -0.31850874 0.9098153 0.21929424 0.35164842 -0.2492815 -0.10323457 0.31999677 -0.22458662 -0.26002246 -0.3936261 0.61817014 0.07965926 0.14700742 0.14517221
429 0.32303458 -0.034314085 -0.6532663 -0.67238945 0.38561493 -0.8384079 0.6074004 0.16060035 -0.6106159 0.5305211 0.21204485 -0.6588608 -0.56639683 -0.5682014 0.08350609 0.09138496 -0.04395099 -0.24827258 0.036403835 -0.68393016 -0.42272782 0.37382123 -0.8284443 -0.08344353 -0.12647577 0.74907726 0.55435115 -0.52555877 -0.60255754 0.19413938 0.67674685 -0.15224573 0.18644217 0.582483 -0.013063041 0.44408223 0.16178198 -0.2963608 -0.09531601 -1.1989704 0.49900547 -0.5464158 -0.38300478 0.27330682 -0.10467494 0.53235257 -0.049144443 0.6644821 -0.078538015 -0.03591028 0.1036475 -0.37922323 -0.025635608 0.37939924 -1.3788936 0.67740816 0.13981298 0.21593884 -0.6454848 -0.49710175 -0.41490918 0.0068453406 -0.4188306 0.009990339 -0.50631624 0.56557786 0.17377973 -0.22898683 -0.17932038 -0.017735139 -0.6635141 -0.7862588 0.22329389 0.57395697 0.22207688 0.15774316 -0.05484293 0.55596465 -0.0791044 0.16643539 -0.28376797 -1.0736209 -0.64435065 -0.36253044 0.2222556 0.70128745 -0.5044733 0.74625516 -0.02508573 0.33968446 -0.19330674 0.6586635 -0.23939724 -0.30703837 0.2206842 0.085663855 0.43545648 -0.60786927 -0.008935625 0.26062372
513 -0.19679716 0.43780687 0.61069 -0.14587052 0.11407007 -0.55048203 0.07132437 0.09888517 -0.37719133 0.92000294 -0.2274889 0.17043564 -0.09550861 -0.4261703 0.17851672 -0.78581375 -0.13423598 0.020534536 0.18968265 -1.0536287 0.17151919 0.6163639 -0.22146459 -0.15235522 0.32653612 -0.25645155 0.33112675 -0.3043056 -1.3178434 0.058555327 0.31580046 -0.4570401 -0.073857255 0.2794023 -0.8272346 0.4265864 0.41255674 -0.37234324 -0.10101485 -0.6648729 0.2105688 0.16502331 -0.13746504 0.4003478 -0.013168681 0.26135254 0.437593 0.45806438 -0.23046786 0.6672446 0.5552943 -0.9118721 0.47478244 -0.28695938 -0.34131357 0.4574121 -0.104012445 -0.07439621 -0.4834364 -0.4211191 0.24368986 0.33383355 -0.36846715 -0.39318013 -0.29043686 0.016937608 0.56997275 0.040380348 -0.6845214 -0.49834394 -0.07812788 0.002069899 0.40037733 -0.32914183 0.30309343 0.7093437 -0.3896263 0.049288336 -0.35964665 0.060740158 0.09472056 -1.2796179 -0.75098497 0.8678168 0.7824041 0.74247503 -1.0105127 0.22630173 0.36646587 0.5906571 -0.2827657 0.50207627 0.058546163 -0.4587627 -0.011084929 -0.23081268 -0.19307575 -0.9737064 0.23506214 -0.23614869
78 0.05217965 0.07701519 -0.16152327 -0.49695373 -0.216722 -0.6955801 -0.019930216 0.71749574 -0.15670045 0.3700114 -0.4587954 0.31876752 0.010517936 -0.27076146 -0.6173457 -0.22452909 -0.046225585 0.024990134 -0.22824812 -0.6722576 -0.33321792 0.6493539 -0.14464846 -0.13635196 0.53052986 -0.01730631 -0.5439051 -0.19740207 -0.6545628 0.56671226 -0.054477185 -0.4130752 -0.6985521 0.084930584 -0.12063535 0.11823155 -0.41671076 -0.2809474 0.38122472 -0.8926205 -0.5263083 -0.4039179 0.27084157 0.8591833 0.62703234 -0.20571078 -0.4869449 0.6273088 0.15552227 0.50193655 -0.5007827 -0.02306947 0.39355758 0.35638744 -0.5508759 0.20054063 -0.17221802 0.22004409 -1.2042887 -0.16057652 -0.010996391 -0.33188173 -0.78812516 -0.5152836 -0.44582036 0.8526634 0.35823727 0.29250014 -0.9153991 0.1295319 0.22856145 0.15731849 0.2076308 1.2623503 0.45640647 0.45777345 -0.64113045 0.10869559 -0.23793131 0.3278421 0.38471764 -0.5833945 -0.40251338 0.8699298 0.19614913 0.33339763 -0.21490857 0.82915926 0.13137852 0.37951732 0.21622455 0.4670984 -0.053606123 -0.19162917 0.23571566 0.31640676 0.19141296 -0.63249403 -0.4356374 0.8542229
254 -0.385438 0.7141113 0.03549233 -0.22390695 0.4001747 -0.81872326 0.05319351 0.7539883 -0.66693866 0.5919711 -0.11607677 0.89391637 -0.96132046 -0.5958481 0.2285045 -0.42187077 -0.1649835 0.46583316 0.559104 -0.7544512 0.0024047676 0.5321548 -0.2879154 -0.26168984 0.49975613 -0.24230228 -0.434179 -1.1888107 -1.0297772 -0.073225394 -0.08162591 -0.21507935 0.32636136 0.17642747 -0.108084686 0.61824936 -0.5207075 -0.27473694 0.12895834 -0.9529765 0.20753685 0.35960278 0.107640125 -0.1722933 0.6977753 0.75985867 -0.597894 0.4099826 -0.4588316 0.2334813 0.3774888 0.11249295 0.3855751 0.040593382 -0.255355 0.0038810798 0.22578767 0.667194 0.075441755 -0.32840857 -0.1785048 0.112362355 -0.06689048 -0.78313607 -0.90674007 -0.00016053815 0.21015206 0.24071704 -0.5198884 -0.41407344 0.123431526 0.143007 0.15485014 0.38643116 0.56551784 -0.10757374 0.27049112 -0.46625575 -0.87647945 0.057376117 -0.12778498 -0.82486844 -0.39874747 -0.35363635 -0.041924894 -0.058734577 -0.802836 0.5367831 0.45843634 0.008682782 0.5803666 0.02907304 -0.2527801 0.059969492 0.81920046 0.18738043 0.4261165 -0.4370608 -0.14164305 0.01779229
339 -0.12421511 0.119440824 -0.07525435 0.13597383 0.33385992 -0.04765495 0.64839774 0.27523586 -0.4033505 -0.03238454 -0.011285942 -0.2634796 0.4731089 -0.074675955 0.0416071 -0.076082505 0.8587013 -0.4483011 -0.50329113 -0.7348619 -0.0648092 0.3994286 0.48156732 -0.032572716 0.02644929 0.08847281 0.23128441 0.043244574 -0.75705254 0.2566443 0.49130672 -0.16781636 0.36632842 -0.090414755 -0.788705 0.10199978 -0.1676213 -0.6977704 -0.4544141 -0.45823735 0.15036575 0.14693753 -0.012147331 0.36686236 0.5181969 -0.06785155 0.12404351 -0.33198997 -0.07360018 0.19984536 0.17106745 0.027544254 -0.308333 0.15216091 -0.403977 -0.17099595 -0.0493217 -0.0051924777 -0.049218137 -0.23977539 0.24839574 -0.22710149 0.2824358 -0.08989595 -0.47135496 0.45739755 0.07656662 0.0028519565 -0.5274503 0.046711218 -0.63205755 -0.00773708 -0.34461883 0.30903718 -0.31591734 -0.10319722 -0.12085093 0.10689249 -0.57359564 0.4190789 -0.07003028 -0.3203367 -0.3891625 -0.027473178 0.09762588 -0.2350985 -0.13129717 0.5981361 -0.061873615 0.19648258 0.45318538 0.23086402 -0.055366755 -0.037756056 0.6321232 0.5596876 0.25677526 -0.17168976 0.21558318 0.20012338
557 -0.4902228 0.46634585 -0.09284666 -0.08687686 0.4275814 0.04274549 -0.04993509 0.7605972 0.17402963 0.21833211 0.016565863 0.46976772 -0.2003958 -0.20254838 -0.67610955 -0.7086656 0.4822953 -0.24865395 0.45379558 -0.57044035 0.30321681 0.14022222 -0.6595413 0.16771038 0.9157314 0.0494149 -0.18671614 -1.0250504 -1.1398737 0.08303276 -0.03951659 0.41161546 -0.30549413 -0.023277178 -0.3554164 0.36030704 0.3374756 -0.8778215 -0.14662203 -0.55866766 -0.41554412 -0.18418008 0.07257066 -0.051425915 0.3339348 0.098338485 0.007804275 0.22584018 -0.004974647 0.48274925 -0.25443134 0.30305207 -0.07207573 0.22444968 -1.0659069 -0.004773909 0.30420265 -0.25447655 -0.022456495 -0.6568046 -0.08275955 0.42480662 -0.23919687 -0.17472449 -0.8032696 -0.46912202 0.39581084 -0.24490122 -0.46001723 0.22291777 -0.41510618 0.24302848 0.15050879 0.5475002 0.21049789 0.35442933 -0.36435285 -0.09598832 -0.57253623 -0.24072443 0.59723145 -0.45984364 -0.63017786 0.028315226 0.43572235 0.84817773 0.33414418 -0.012602146 0.68629515 0.13806596 0.5069797 0.38292626 0.08570694 -0.13529271 0.27525115 0.78505504 -0.5020986 -0.9458127 -0.23005375 -0.12924317
751 -0.21575062 0.22499655 0.3642458 0.10982303 0.21784751 -1.0738789 0.15187311 0.4229602 -0.4525983 0.6324168 -0.36520696 0.620252 0.048692912 -0.76017123 0.27621892 -0.48766905 0.15937945 -0.3371225 0.4231768 -0.49269906 0.6584086 0.58956414 0.33052444 0.19281156 -0.40922302 -0.07142232 -0.014353928 -1.0630088 -0.41771024 0.35061288 0.37181038 -0.12908344 -0.27498966 0.496503 -0.13916788 0.7120462 0.08814605 -0.46539226 -0.378339 -0.41343755 0.38551804 0.19196136 0.43169144 0.04285482 -0.082766116 0.24907558 -0.4295816 0.028946487 0.15213396 0.36597192 -0.19837889 -0.10198827 -0.2583763 0.1640332 -0.5721354 0.22605145 -0.6416974 -0.46688834 -0.07335356 0.10301611 0.49513227 0.4231814 -0.7908778 -0.47980553 -0.15726088 0.58545524 0.015009605 -0.5217384 -0.090419196 -0.2392521 -0.35421732 -0.5012724 -0.04804769 0.96442527 -0.31500223 0.6117039 0.029144617 0.8538972 -0.7983002 -0.422178 0.88337606 -0.93464255 -0.43474567 0.62932014 -0.28290093 0.58568376 -0.65018904 0.46590087 0.3845119 -0.13900663 0.8248583 0.2876274 -0.15580325 -0.28658828 0.13648234 -0.5411525 0.22886866 -0.48100752 -0.56953263 0.1327863
650 -0.17715234 -0.0022359008 -0.029180836 0.06652797 0.63749 -0.5067909 0.40500024 -0.11183247 -0.688386 0.20171846 -0.41289192 -0.14935079 0.45467636 0.03992348 -0.28778964 -0.13589029 0.54282385 -0.35297695 -0.45241207 -0.7947419 -0.12389967 0.36775982 -0.06041086 -0.02579207 0.008045607 0.24462107 0.03563367 0.12507355 -0.70747674 0.38440368 0.30029494 -0.082943626 0.13062915 -0.009863434 -0.78753525 0.4960835 -0.085176654 -0.5342692 -0.1922763 -0.12682463 0.48348206 -0.095117435 0.13512254 0.38301605 0.3648157 -0.3020116 0.32999244 -0.3668912 0.19686984 -0.4144946 0.0027696367 0.07713999 -0.34129158 -0.049221672 -0.21097532 -0.17426363 0.11563851 -0.026600726 0.0033686846 -0.38059863 0.10248196 -0.39659405 0.48442778 -0.3305333 -0.45958018 0.51883715 -0.02876035 0.19756263 -0.27994204 0.09280507 -0.2863616 0.10422136 -0.29833588 -0.0047253557 0.12176642 -0.1695874 0.02880957 0.045448307 -0.5831282 0.27134097 -0.0010724037 -0.5710885 -0.43734744 0.13932058 -0.49271157 -0.16929895 0.08507983 0.39210084 0.24723947 0.12906137 0.26670438 0.20701541 -0.058656503 0.38477528 0.514507 0.197462 0.19781278 0.074212514 -0.1457153 -0.050985232
595 -0.82747763 0.39048898 0.41455227 -0.11732216 0.1449125 -0.683846 0.60455364 0.70827997 -0.17943956 0.45265207 -0.04348697 -0.24502932 0.18439567 0.42946264 0.09701408 -0.38699427 -0.18239415 0.06277158 0.22769383 -0.6134427 -0.2739819 0.12051962 0.0456056 0.17495675 -0.015017882 0.29884 -0.011861992 -0.4634286 -0.83227545 -0.24727769 0.5186688 0.007435706 -0.0030774723 -0.0197695 -0.35423678 -0.25694835 0.13765639 -0.6753965 -0.013853565 -0.5511723 -0.03753739 -0.48519585 0.1182263 -0.015198045 0.14452295 -0.39511898 0.53914255 0.31120354 -0.12329289 0.3409368 0.021115767 -0.09673401 -0.10687881 0.47055402 0.04876921 0.09737034 -0.23794787 -0.20223919 -0.044032026 -0.089882985 0.12018337 -0.26359385 -0.008090798 0.088008955 0.107257955 0.37135977 -0.22646134 -0.10095448 0.046997465 0.09982568 0.21692891 -0.3892034 0.32322776 0.4363702 0.04211002 0.5836023 -0.032426056 -0.5455535 0.08203347 0.38168648 0.1798552 -0.7034908 -0.3868289 0.08803219 -0.6006898 -0.34868464 0.18402426 0.4252655 0.4586483 0.27413106 0.18802726 0.19270964 0.20622869 0.42543826 0.064129345 -0.026643492 0.37592155 -0.29750347 0.29472485 -0.20301478
847 -0.6604947 0.89431524 0.47125208 -0.41805875 0.14603317 -0.34841844 -0.06771674 0.49669382 0.121439315 1.0995219 -0.53172415 0.12545842 -0.5384184 -0.008899798 0.38998237 -0.2611446 0.054867186 -0.13486059 0.05977662 -0.34591106 -0.40749037 0.6365573 0.05330205 -0.026809288 -0.25418708 0.025929075 -0.12865476 -0.5356454 -0.27621114 0.21741469 0.2528404 -0.88548166 -0.34050757 0.3915939 -0.24101533 -0.35647634 -0.028457804 -0.28088593 -0.17405935 -0.78776354 -0.20595357 0.41940683 -0.12409535 -0.67680955 -0.23297995 0.14790405 -1.0191991 0.41241086 0.27797055 0.3742734 -0.4313394 0.00022096843 0.47790202 0.02108754 -0.2130557 0.3148709 0.50408393 0.1370966 0.35592887 -0.8333001 -0.19893084 -0.05281256 -0.29506102 0.032081388 -1.181869 0.1564751 0.2818329 -0.1581105 -0.23662262 0.74001753 -0.3271016 -0.6140131 -0.39109856 0.27520168 0.19672889 0.34888142 0.55066115 0.7074906 -0.9514916 0.28314155 0.022378784 -0.9806613 -0.4747475 0.75009096 0.4492398 0.17831977 -0.7560659 0.5893242 0.6770502 -0.08464401 -0.39459172 0.08845853 0.22252813 0.045179497 0.22558083 0.32641414 -0.13902757 0.0024914648 -0.29968852 0.74820644
253 -0.38461044 -0.10722318 0.34316424 0.42381907 0.2770305 -0.15765977 0.38500914 0.23088665 -0.026932802 0.03966859 0.1535779 -0.22721355 0.28215846 -0.01943019 0.012743801 -0.23225522 0.15395027 -0.058386248 -0.27533275 -0.7153205 -0.33611518 0.1372058 0.52798754 0.16062891 0.2719266 0.020311875 0.2795394 -0.17960547 -0.58518326 0.19063741 0.3219766 0.010580493 0.18022154 0.28881115 -0.7711137 0.21127927 -0.13085824 -0.71538556 -0.17782487 -0.3378121 0.1103624 -0.08590014 0.24836762 0.4103216 0.14918736 -0.3861165 -0.120553665 -0.08699496 -0.27367738 -0.16966005 0.10472542 0.43322378 0.04045124 0.24328461 0.090287596 0.0117972 0.0042068777 -0.09693473 -0.08635185 -0.49085563 0.15529828 -0.404878 0.5398981 0.059084516 -0.09515202 0.5986005 0.3798365 -0.2391443 -0.35278702 0.47772637 -0.47088888 0.02535127 0.118764624 0.11094752 -0.12137945 0.005014738 -0.34577844 -0.022997083 -0.3333126 0.8084638 -0.026779395 -0.46801764 -0.5395731 -0.048929792 -0.32952157 -0.50892955 -0.035075396 0.48175073 0.5116554 -0.021475293 0.6065339 0.20609789 0.079926156 0.0040882244 0.74973893 0.064557575 0.15461025 -0.35298645 0.14931025 -0.30575058
370 -0.398824 1.0534728 0.50288343 -0.57031244 0.48894787 -0.5405697 -0.4520455 0.13558978 0.15902288 -0.1466294 0.08899723 -0.042715263 -0.4417856 0.051692143 -0.6759669 0.0025248772 -0.3531404 0.3511383 -0.024529738 -0.75388044 -0.25870234 0.84757537 0.14007244 -0.12206658 0.4214349 -0.032415096 -0.258892 -0.9344186 -0.48620316 0.57978606 0.53119594 -0.59759635 0.08854886 0.1377627 0.045141514 0.5903207 -0.408292 -0.12096585 0.2241061 -0.57946676 0.2402931 0.25650868 -0.182331 -0.6279617 0.062800944 0.06839267 0.082003355 0.31537035 0.31961635 0.057373263 0.3186875 -0.5849672 0.08308571 0.40766004 -0.9359201 -0.39624533 0.029826079 -0.05934204 -0.4116849 -0.30271465 0.6345768 -0.46987003 0.07377366 0.35862648 -0.05066531 0.041786842 0.46935725 -0.13867591 -0.3842471 0.577524 -0.44098797 0.22615185 0.2511962 0.2447672 -0.07239978 0.33461457 -0.23123662 -0.17823657 -0.33169276 -0.469139 0.44132912 -0.8694447 -0.32319957 0.18473172 0.30534825 -0.062256373 -0.31586426 0.8111099 -0.40601316 0.13803335 0.19780035 0.3767457 0.11503194 -0.22197808 0.18970212 -0.0032735018 -0.2693468 -0.64337885 -0.30823806 0.34777218
231 -0.6696514 0.23919527 -0.42079467 -0.017453738 -0.099619016 -0.025342103 0.0640481 0.09721241 0.28627673 0.9010075 -0.41922712 0.22175564 -0.167378 -0.17966275 0.032881938 0.029112788 -0.38553393 -0.51802397 0.77484715 -0.9847156 0.041351363 0.7978424 0.3043434 -0.5307672 -0.013801809 0.17857122 -0.16621889 -1.0116055 -0.3580167 -0.082886524 0.49080914 0.3122795 -0.17822586 0.9417571 -0.38649607 0.3216049 -0.692212 -0.86933935 0.43635568 -0.060755182 -0.24200426 -0.35438648 0.4581387 -0.10870597 -0.6083205 0.15693259 -0.31665778 0.071478814 -0.070111655 -0.113513075 0.06717299 -0.21589479 -0.17314975 0.112665616 -0.3830159 0.27609384 0.57210207 -0.36781526 -0.3756259 -0.7161351 0.19615974 -0.2599647 -0.8190331 -0.6205448 -0.36588892 0.031770743 -0.015181605 0.13512541 -0.72457135 -0.66183615 -0.32587397 -0.25504783 -0.2394006 0.53859735 0.49418238 0.34080654 -0.39329368 -0.100207075 -0.53252655 0.23839223 0.25989512 -0.9064974 -0.3590071 0.628635 0.31777036 0.38681713 -0.45550936 0.8132725 0.27698836 0.18062158 0.50940174 0.6113014 -0.26856512 0.25361678 -0.2086881 0.7939858 0.2910143 -0.2672889 0.56032 0.23102403
445 -0.538058 -0.049992044 0.6365831 0.030393666 -0.110551566 -0.26526713 0.3143377 0.34453294 -0.6339396 0.311928 -0.23976472 -0.6170002 0.088815555 0.20143822 0.014733958 -0.15616821 -0.050400328 -0.0054977736 0.0973268 -0.10842899 -0.14509192 0.26835328 0.17263046 -0.0112506 0.2563765 0.26147273 0.10239494 -0.46892107 -0.6064993 -0.011921569 0.5229218 -0.11687405 0.08186024 -0.030340496 -0.30216697 0.2346661 -0.06121783 -0.73876363 -0.18843603 -0.42574728 0.07816951 -0.3602443 0.31347555 -0.15011613 0.1058556 -0.46371338 0.056272678 0.080671415 0.13155973 -0.36976436 0.45926663 0.61027503 0.095353484 0.28313142 -0.025743557 0.050448973 0.16456483 0.006708995 -0.23271914 -0.13928413 -0.018444313 0.13260923 0.21530168 -0.16366054 -0.10174931 0.19678158 -0.15216723 -0.37589166 -0.11604987 0.5557551 -0.4153738 -0.19635433 0.0030918864 0.26976767 -0.13774057 0.1483771 0.016582727 0.088099465 -0.11970785 0.46876174 0.18817231 -0.7292791 -0.47271258 -0.099047504 -0.47375107 -0.45295238 0.22264475 0.39390692 0.82922196 0.3389806 0.33869892 0.15999696 -0.06234281 0.38607106 0.5474301 0.2588967 -0.014688172 0.004944903 -0.02466639 -0.42128438
116 -0.85408074 0.19844964 -0.37349117 0.036824204 -0.07227594 0.096627645 0.18178493 0.29273823 0.3087661 0.96747655 -0.21402997 0.2204076 -0.22569291 -0.3012118 0.13960254 0.031883486 -0.29131937 -0.42898044 0.8562155 -1.0673062 -0.11128254 0.7182163 0.041466445 -0.373434 0.05931454 0.30745587 -0.17635982 -1.0004867 -0.35039085 -0.14864254 0.28549075 0.08842628 -0.27079293 0.91994053 -0.37178528 0.27535108 -0.44890222 -0.64996487 0.3675634 -0.21680526 0.00063616876 -0.110226825 0.3732014 0.10705186 -0.7098351 0.30698046 -0.2724759 0.3265642 -0.18908721 0.006924992 0.058547027 -0.15571004 -0.30296513 0.121096715 -0.31464255 0.25251406 0.6349503 -0.26804194 -0.25075203 -0.50034505 0.032162182 -0.24464357 -0.85631776 -0.7734348 -0.6087677 0.04173503 -0.14183453 0.20394577 -0.5462708 -0.37425172 -0.48734573 -0.03352946 -0.19611394 0.49783218 0.59362525 0.31839234 -0.52290714 0.18196863 -0.920142 0.18915915 0.2988858 -0.67948806 -0.24213514 0.45627913 0.31328526 0.48308685 -0.66589427 0.8374207 0.26818615 0.18620612 0.5790442 0.5207498 -0.33770978 0.3861879 -0.09451897 0.93934655 0.35572824 -0.16824791 0.4064767 -0.005738994
725 -0.30426124 -0.11661732 0.20440094 -0.23218238 0.07374046 0.2373709 0.6802061 0.31958702 -0.99007565 0.4272238 -0.35798803 -0.3871346 0.18499652 0.19714601 -0.06298014 -0.06964767 -0.31822452 0.03589297 0.25212336 -0.07450806 0.2276486 0.26400003 -0.1660282 -0.0084780995 0.12483552 0.21754865 -0.12582138 -1.002627 -0.53813225 -0.09538803 0.5656308 -0.38843778 -0.36619994 0.15824082 0.31911606 0.032689404 0.41723654 -0.47236234 -0.103481874 -0.6696423 0.125533 -0.4230271 0.1277229 -0.3509153 0.13061517 -0.5565637 0.4718991 0.32809448 0.26027477 -0.034852978 -0.009335256 0.24559316 -0.07647796 0.7064635 -0.09667597 -0.116089016 -0.18750319 0.38716057 -0.33857492 -0.11483686 0.22362083 -0.029773954 -0.09399873 -0.21343234 -0.13627444 -0.0034161573 -0.04251034 -0.17518285 -0.28234702 0.45242357 0.15674031 -0.22950913 0.01127615 0.021185573 0.26354375 0.43356982 -0.008722098 -0.24107756 -0.31366086 0.59289724 0.5177915 -0.6576343 -0.50430065 0.06506707 0.11766418 -0.16126935 0.06268492 0.6932582 0.67802083 0.55136573 0.07017196 0.088616885 0.32168657 0.52918965 0.35688177 0.19815078 0.39125332 -0.014729635 -0.21559139 -0.039029207
273 -0.44640693 -0.13359693 0.50241613 -0.017513227 0.33299464 -0.46669492 0.28576294 0.115595534 -0.34598386 0.09070342 -0.22482684 -0.4190532 -0.179117 0.18563513 -0.22883548 -0.50330627 0.020112272 0.06346123 -0.38764638 -0.645371 0.12106128 1.2834529 -0.6033375 -0.43829268 -0.48567218 -0.0017813033 0.20547174 -0.56202143 -0.6069657 0.37338018 0.6275801 -0.11733063 -0.37522823 -0.39348817 -0.66753876 -0.019003985 -0.2542478 -0.54941505 0.32269952 -0.57602763 0.15020642 0.21478292 1.0351934 0.09028724 -0.3379535 -0.2662227 -0.6098581 -0.33166024 0.4601921 -0.09812004 0.40558785 0.110450596 0.24858864 0.20202434 -0.60325754 0.31568515 0.14937314 0.44604686 0.1729786 -0.34865814 0.10110551 -0.08318796 -0.18610395 -0.6923434 -0.24981429 0.5860142 -0.13753572 0.13111635 0.01588477 0.10220274 -0.31162637 0.064430445 -0.4861172 -0.1256253 0.2837589 0.070318066 0.25087348 0.7568812 -0.4181231 -0.24100961 -0.72803223 -0.845922 -0.38214433 0.44016623 0.15282655 0.14540216 -0.41180217 -0.07142961 0.4248812 0.29414058 0.25216806 0.6677097 -0.20683834 -0.638067 0.33215368 0.45930228 -0.103960074 0.28120568 -0.11879457 0.18944047
417 -0.12304553 0.7351614 0.35387772 0.16984639 -0.41882533 -0.9228286 -0.3149621 0.3319878 -0.15245692 0.5994123 -0.59590614 -0.35643548 0.1752075 -0.28346875 -0.10160989 -0.68621534 0.375495 -0.30918902 0.2879419 -0.7484302 -0.4251359 0.1803592 -0.30792966 0.079528935 -0.16151643 0.44324943 0.10199962 -0.62424624 -0.79301023 -0.11259572 -0.31845158 -0.018528923 -0.13698027 0.6239552 -0.25893566 -0.435748 0.002166591 -0.87041354 -0.0701829 -0.36897466 0.0042049787 -0.43417624 0.41520205 -0.54241997 0.20036612 0.051805053 -0.21183638 -0.3013616 0.25062388 -0.09016874 -0.1497484 -0.24637789 -0.29132953 0.7288979 -0.8133836 -0.21397774 -0.37843853 -0.64030886 -0.39652643 -0.02941147 0.33935314 -0.41824952 -0.46884942 -0.1531482 -1.2621466 0.6519593 0.853782 0.17142923 -0.634464 0.36025417 -0.6242996 -0.420347 0.17728394 -0.43388167 -0.0022880586 0.31714076 -0.20652054 0.20497432 0.010663921 -0.082319796 0.03898081 -1.0762002 -0.19699559 0.13020669 0.98323506 0.8174855 -0.69399166 0.29899758 0.37730676 0.2489694 0.54439336 0.6574594 0.2712483 0.036165707 0.19726117 -0.43979052 -0.12293044 -0.25422126 -0.29580706 0.5099696
580 0.10580572 -0.057576858 0.15485121 0.2341271 0.09629816 -0.4212727 0.2471736 0.26386166 -0.11243293 0.21507706 0.13366427 -0.1613262 -0.04275325 -0.7970974 -0.39248526 -0.20274992 0.08071755 0.0727087 0.12671582 -0.73852 -0.030191258 0.7309906 -0.1427869 0.269052 0.1572012 0.2826333 0.17441595 0.22190663 -0.47153202 -0.060954195 0.15951718 0.08770139 0.19978428 0.18709041 -0.48902428 0.7186329 -0.49354717 -0.46820155 0.11426062 -0.62807435 0.34540078 0.35476425 0.5764871 -0.4962647 0.13925755 -0.5412127 0.15684038 0.28406882 -0.18843749 -0.25726095 -0.259223 0.026082065 0.18593594 0.32429498 0.16319734 0.09794099 -0.06801374 0.40259528 0.2832939 -0.6982815 0.35524946 0.29358962 0.5857582 -0.025335025 -0.7285527 1.2226961 0.23423678 0.17262703 0.22240044 -0.28771168 -0.16075696 0.39471826 -0.23905793 -0.040325873 0.093396544 -0.28818965 -0.5044532 0.3574076 -0.5503336 0.22385614 0.039178763 -0.5359856 -0.62345016 0.7073171 0.5982571 0.123473845 0.18351072 0.3743699 0.2660613 0.26504982 0.56339765 0.2741955 -0.096950255 -0.1100192 0.33523062 0.4030059 -0.06696955 -0.210847 -0.035773158 0.29515374
709 -0.18008037 -0.026410162 0.34243742 -0.79129416 -0.19418038 -0.87514216 0.109789096 0.44263816 0.17634983 0.3640612 -0.17694412 -0.4681492 0.26221314 -0.47294423 -0.28363392 -0.26187658 -0.10855539 -0.7011778 0.88362676 -0.19226876 0.0066671134 0.39235896 0.09080243 0.048988022 -0.29049376 -0.61190087 -0.59135085 -0.4526471 -0.18053372 -0.39202964 0.3530031 -0.5433852 -0.21909453 0.4780522 -0.17860483 0.65200675 -0.067125134 -0.6269297 -0.026525438 -0.83318865 0.13174802 0.03372022 0.032425016 0.684311 0.63423085 0.42839175 -0.062984824 -0.14116031 0.14840098 0.4848596 -0.33757228 -0.22464819 0.3056199 0.47861403 -0.40386778 0.05713082 0.3855179 -0.82252944 0.18826611 -0.33471632 0.49376208 -0.60769963 -0.4614011 0.030878656 0.051109977 0.2574265 0.19275098 0.38341102 -0.16815625 0.36349857 -0.4660305 -0.34956655 0.18112636 0.33183947 0.004803299 -0.23111863 0.08854366 -0.2959889 -0.7487635 -0.13402943 -0.16511457 -0.7743058 -0.5343137 0.4445523 0.844479 0.35124174 -0.020884983 0.47709757 0.46216542 -0.22923198 0.109128535 0.19904684 -0.016424756 -0.14454493 -0.0020757564 0.6965553 -0.086871445 -0.41658747 -0.5572403 -0.049260017
